{"learner":{"attributes":{"scikit_learn":"{\"_estimator_type\": \"regressor\"}"},"feature_names":[],"feature_types":[],"gradient_booster":{"model":{"cats":{"enc":[],"feature_segments":[],"sorted_idx":[]},"gbtree_model_param":{"num_parallel_tree":"1","num_trees":"200"},"iteration_indptr":[0,1,2,3,4,5,6,7,8,9,10,11,12,13,14,15,16,17,18,19,20,21,22,23,24,25,26,27,28,29,30,31,32,33,34,35,36,37,38,39,40,41,42,43,44,45,46,47,48,49,50,51,52,53,54,55,56,57,58,59,60,61,62,63,64,65,66,67,68,69,70,71,72,73,74,75,76,77,78,79,80,81,82,83,84,85,86,87,88,89,90,91,92,93,94,95,96,97,98,99,100,101,102,103,104,105,106,107,108,109,110,111,112,113,114,115,116,117,118,119,120,121,122,123,124,125,126,127,128,129,130,131,132,133,134,135,136,137,138,139,140,141,142,143,144,145,146,147,148,149,150,151,152,153,154,155,156,157,158,159,160,161,162,163,164,165,166,167,168,169,170,171,172,173,174,175,176,177,178,179,180,181,182,183,184,185,186,187,188,189,190,191,192,193,194,195,196,197,198,199,200],"tree_info":[0,0,0,0,0,0,0,0,0,0,0,0,0,0,0,0,0,0,0,0,0,0,0,0,0,0,0,0,0,0,0,0,0,0,0,0,0,0,0,0,0,0,0,0,0,0,0,0,0,0,0,0,0,0,0,0,0,0,0,0,0,0,0,0,0,0,0,0,0,0,0,0,0,0,0,0,0,0,0,0,0,0,0,0,0,0,0,0,0,0,0,0,0,0,0,0,0,0,0,0,0,0,0,0,0,0,0,0,0,0,0,0,0,0,0,0,0,0,0,0,0,0,0,0,0,0,0,0,0,0,0,0,0,0,0,0,0,0,0,0,0,0,0,0,0,0,0,0,0,0,0,0,0,0,0,0,0,0,0,0,0,0,0,0,0,0,0,0,0,0,0,0,0,0,0,0,0,0,0,0,0,0,0,0,0,0,0,0,0,0,0,0,0,0,0,0,0,0,0,0],"trees":[{"base_weights":[-3.2824804E-3,-3.2478434E-1,5.921507E-1,-2.079457E-1,-6.424376E-1,4.4993478E-1,7.8822595E-1,-8.682617E-3,2.1603394E-3,-2.2695102E-2,-1.4156669E-2,2.6321907E-3,1.5532935E-2,1.3064253E-2,2.6613178E-2],"categories":[],"categories_nodes":[],"categories_segments":[],"categories_sizes":[],"default_left":[0,0,0,0,0,0,0,0,0,0,0,0,0,0,0],"id":0,"left_children":[1,3,5,7,9,11,13,-1,-1,-1,-1,-1,-1,-1,-1],"loss_changes":[6.118504E3,7.691279E2,3.1017773E2,3.4657324E2,1.0621362E2,1.5907019E2,1.6159375E2,0E0,0E0,0E0,0E0,0E0,0E0,0E0,0E0],"parents":[2147483647,0,0,1,1,2,2,3,3,4,4,5,5,6,6],"right_children":[2,4,6,8,10,12,14,-1,-1,-1,-1,-1,-1,-1,-1],"split_conditions":[1.75E0,1.0110196E0,2.395E0,1.485E0,9.258621E-1,2.5428572E1,2.5857143E1,-8.682617E-3,2.1603394E-3,-2.2695102E-2,-1.4156669E-2,2.6321907E-3,1.5532935E-2,1.3064253E-2,2.6613178E-2],"split_indices":[1,0,1,1,1,5,5,0,0,0,0,0,0,0,0],"split_type":[0,0,0,0,0,0,0,0,0,0,0,0,0,0,0],"sum_hessian":[3.1957E4,2.0754E4,1.1203E4,1.5179E4,5.575E3,6.502E3,4.701E3,1.176E4,3.419E3,3.331E3,2.244E3,1.029E3,5.473E3,1.035E3,3.666E3],"tree_param":{"num_deleted":"0","num_feature":"8","num_nodes":"15","size_leaf_vector":"1"}},{"base_weights":[2.0477662E-3,-3.2809755E-1,6.1561143E-1,-5.4529196E-1,-1.8867381E-1,4.437689E-1,8.342467E-1,4.66168E-3,-1.9854436E-2,-8.889456E-3,-2.456736E-4,1.4423555E-2,-3.1520738E-3,2.830949E-2,6.059174E-3],"categories":[],"categories_nodes":[],"categories_segments":[],"categories_sizes":[],"default_left":[0,0,0,0,0,0,0,0,0,0,0,0,0,0,0],"id":1,"left_children":[1,3,5,7,9,11,13,-1,-1,-1,-1,-1,-1,-1,-1],"loss_changes":[6.508503E3,6.31489E2,4.199453E2,6.672029E2,2.4698245E2,1.2857861E2,3.4006494E2,0E0,0E0,0E0,0E0,0E0,0E0,0E0,0E0],"parents":[2147483647,0,0,1,1,2,2,3,3,4,4,5,5,6,6],"right_children":[2,4,6,8,10,12,14,-1,-1,-1,-1,-1,-1,-1,-1],"split_conditions":[1.75E0,9.848649E-1,2.3575E0,6.891667E0,1.4033333E0,2.3772223E1,2.2087719E1,4.66168E-3,-1.9854436E-2,-8.889456E-3,-2.456736E-4,1.4423555E-2,-3.1520738E-3,2.830949E-2,6.059174E-3],"split_indices":[1,1,1,2,1,2,2,0,0,0,0,0,0,0,0],"split_type":[0,0,0,0,0,0,0,0,0,0,0,0,0,0,0],"sum_hessian":[3.2123E4,2.0885E4,1.1238E4,8.159E3,1.2726E4,6.3E3,4.938E3,1.162E3,6.997E3,7.967E3,4.759E3,5.904E3,3.96E2,4.207E3,7.31E2],"tree_param":{"num_deleted":"0","num_feature":"8","num_nodes":"15","size_leaf_vector":"1"}},{"base_weights":[1.0420716E-2,-3.043624E-1,5.9985036E-1,-1.8686084E-1,-6.260062E-1,6.805439E-1,1.4915948E-1,-8.56947E-3,1.5497856E-3,-2.528443E-2,-1.5704794E-2,1.4251325E-2,2.5407653E-2,-5.088611E-3,6.84974E-3],"categories":[],"categories_nodes":[],"categories_segments":[],"categories_sizes":[],"default_left":[0,0,0,0,0,0,0,0,0,0,0,0,0,0,0],"id":2,"left_children":[1,3,5,7,9,11,13,-1,-1,-1,-1,-1,-1,-1,-1],"loss_changes":[5.9391304E3,7.873629E2,4.0414893E2,3.6050922E2,1.2130713E2,3.205381E2,4.302607E1,0E0,0E0,0E0,0E0,0E0,0E0,0E0,0E0],"parents":[2147483647,0,0,1,1,2,2,3,3,4,4,5,5,6,6],"right_children":[2,4,6,8,10,12,14,-1,-1,-1,-1,-1,-1,-1,-1],"split_conditions":[1.75E0,1.0110196E0,2.1742708E1,1.4033333E0,5E-2,1.7316668E1,5.8833075E-1,-8.56947E-3,1.5497856E-3,-2.528443E-2,-1.5704794E-2,1.4251325E-2,2.5407653E-2,-5.088611E-3,6.84974E-3],"split_indices":[1,0,2,1,7,2,0,0,0,0,0,0,0,0,0],"split_type":[0,0,0,0,0,0,0,0,0,0,0,0,0,0,0],"sum_hessian":[3.2002E4,2.0861E4,1.1141E4,1.5285E4,5.576E3,9.446E3,1.695E3,1.0811E4,4.474E3,1.78E3,3.796E3,4.234E3,5.212E3,3.34E2,1.361E3],"tree_param":{"num_deleted":"0","num_feature":"8","num_nodes":"15","size_leaf_vector":"1"}},{"base_weights":[1.5228683E-2,-2.8366143E-1,5.7457995E-1,-1.7889895E-1,-6.2494934E-1,4.1400024E-1,7.7830076E-1,-7.6428605E-3,2.8265668E-3,-2.2114154E-2,-1.2806313E-2,1.036399E-3,1.4557341E-2,9.716783E-3,2.5592435E-2],"categories":[],"categories_nodes":[],"categories_segments":[],"categories_sizes":[],"default_left":[0,0,0,0,0,0,0,0,0,0,0,0,0,0,0],"id":3,"left_children":[1,3,5,7,9,11,13,-1,-1,-1,-1,-1,-1,-1,-1],"loss_changes":[5.3495156E3,7.444066E2,3.6239966E2,3.3093738E2,1.0664429E2,1.6814893E2,1.647041E2,0E0,0E0,0E0,0E0,0E0,0E0,0E0,0E0],"parents":[2147483647,0,0,1,1,2,2,3,3,4,4,5,5,6,6],"right_children":[2,4,6,8,10,12,14,-1,-1,-1,-1,-1,-1,-1,-1],"split_conditions":[1.75E0,1.0383279E0,2.3575E0,1.485E0,9.258621E-1,2.5428572E1,7.893678E-1,-7.6428605E-3,2.8265668E-3,-2.2114154E-2,-1.2806313E-2,1.036399E-3,1.4557341E-2,9.716783E-3,2.5592435E-2],"split_indices":[1,0,1,1,1,5,6,0,0,0,0,0,0,0,0],"split_type":[0,0,0,0,0,0,0,0,0,0,0,0,0,0,0],"sum_hessian":[3.199E4,2.0849E4,1.1141E4,1.5958E4,4.891E3,6.238E3,4.903E3,1.2492E4,3.466E3,3.114E3,1.777E3,9.89E2,5.249E3,6.97E2,4.206E3],"tree_param":{"num_deleted":"0","num_feature":"8","num_nodes":"15","size_leaf_vector":"1"}},{"base_weights":[-8.41759E-3,-3.0889365E-1,4.993416E-1,-2.1450616E-1,-6.042127E-1,3.422541E-1,7.20094E-1,-8.130998E-3,8.669081E-4,-2.4577573E-2,-1.4852811E-2,-1.123102E-2,1.1111657E-2,2.4774829E-2,3.2843049E-3],"categories":[],"categories_nodes":[],"categories_segments":[],"categories_sizes":[],"default_left":[0,0,0,0,0,0,0,0,0,0,0,0,0,0,0],"id":4,"left_children":[1,3,5,7,9,11,13,-1,-1,-1,-1,-1,-1,-1,-1],"loss_changes":[4.8818853E3,5.5917993E2,4.1068652E2,2.0997845E2,1.1162561E2,1.4069751E2,3.1773364E2,0E0,0E0,0E0,0E0,0E0,0E0,0E0,0E0],"parents":[2147483647,0,0,1,1,2,2,3,3,4,4,5,5,6,6],"right_children":[2,4,6,8,10,12,14,-1,-1,-1,-1,-1,-1,-1,-1],"split_conditions":[1.6875E0,1.0383279E0,2.3575E0,1.4761539E0,7.1588236E-1,1.1885135E1,2.2087719E1,-8.130998E-3,8.669081E-4,-2.4577573E-2,-1.4852811E-2,-1.123102E-2,1.1111657E-2,2.4774829E-2,3.2843049E-3],"split_indices":[1,0,1,1,1,2,2,0,0,0,0,0,0,0,0],"split_type":[0,0,0,0,0,0,0,0,0,0,0,0,0,0,0],"sum_hessian":[3.1993E4,2.0101E4,1.1892E4,1.5239E4,4.862E3,6.955E3,4.937E3,1.237E4,2.869E3,1.627E3,3.235E3,2.6E2,6.695E3,4.206E3,7.31E2],"tree_param":{"num_deleted":"0","num_feature":"8","num_nodes":"15","size_leaf_vector":"1"}},{"base_weights":[9.877753E-3,-3.0980423E-1,4.3889964E-1,-1.9724956E-1,-5.844802E-1,1.935954E-1,6.461601E-1,8.202009E-3,-7.350622E-3,-2.3436308E-2,-1.4596673E-2,5.407978E-3,6.700415E-2,2.21668E-2,3.6878732E-3],"categories":[],"categories_nodes":[],"categories_segments":[],"categories_sizes":[],"default_left":[0,0,0,0,0,0,0,0,0,0,0,0,0,0,0],"id":5,"left_children":[1,3,5,7,9,11,13,-1,-1,-1,-1,-1,-1,-1,-1],"loss_changes":[4.397721E3,5.668622E2,6.9491187E2,2.9333508E2,1.0038855E2,1.670529E2,3.5879395E2,0E0,0E0,0E0,0E0,0E0,0E0,0E0,0E0],"parents":[2147483647,0,0,1,1,2,2,3,3,4,4,5,5,6,6],"right_children":[2,4,6,8,10,12,14,-1,-1,-1,-1,-1,-1,-1,-1],"split_conditions":[2.1052632E-1,1.0110196E0,3.478261E-1,6.363636E-1,5E-2,1.0096354E0,2.1914743E1,8.202009E-3,-7.350622E-3,-2.3436308E-2,-1.4596673E-2,5.407978E-3,6.700415E-2,2.21668E-2,3.6878732E-3],"split_indices":[7,0,7,6,7,6,2,0,0,0,0,0,0,0,0],"split_type":[0,0,0,0,0,0,0,0,0,0,0,0,0,0,0],"sum_hessian":[3.2058E4,1.8369E4,1.3689E4,1.3036E4,5.333E3,6.274E3,7.415E3,1.198E3,1.1838E4,1.762E3,3.571E3,6.237E3,3.7E1,6.296E3,1.119E3],"tree_param":{"num_deleted":"0","num_feature":"8","num_nodes":"15","size_leaf_vector":"1"}},{"base_weights":[7.944128E-3,-2.6372096E-1,5.288493E-1,-1.6504271E-1,-5.363925E-1,2.8898686E-1,6.572242E-1,-7.2163683E-3,2.3198917E-3,-2.0081202E-2,-1.1506899E-2,-5.816375E-3,9.738031E-3,2.2277556E-2,3.941658E-3],"categories":[],"categories_nodes":[],"categories_segments":[],"categories_sizes":[],"default_left":[0,0,0,0,0,0,0,0,0,0,0,0,0,0,0],"id":6,"left_children":[1,3,5,7,9,11,13,-1,-1,-1,-1,-1,-1,-1,-1],"loss_changes":[4.508115E3,5.623257E2,3.3473608E2,2.81652E2,1.1115442E2,6.592557E1,3.1788257E2,0E0,0E0,0E0,0E0,0E0,0E0,0E0,0E0],"parents":[2147483647,0,0,1,1,2,2,3,3,4,4,5,5,6,6],"right_children":[2,4,6,8,10,12,14,-1,-1,-1,-1,-1,-1,-1,-1],"split_conditions":[1.7571429E0,1.0110196E0,3.478261E-1,1.4761539E0,8.74E-1,2E-2,2.2087719E1,-7.2163683E-3,2.3198917E-3,-2.0081202E-2,-1.1506899E-2,-5.816375E-3,9.738031E-3,2.2277556E-2,3.941658E-3],"split_indices":[1,0,7,1,1,7,2,0,0,0,0,0,0,0,0],"split_type":[0,0,0,0,0,0,0,0,0,0,0,0,0,0,0],"sum_hessian":[3.1849E4,2.0932E4,1.0917E4,1.5376E4,5.556E3,3.812E3,7.105E3,1.1727E4,3.649E3,2.962E3,2.594E3,2.59E2,3.553E3,6.11E3,9.95E2],"tree_param":{"num_deleted":"0","num_feature":"8","num_nodes":"15","size_leaf_vector":"1"}},{"base_weights":[2.7348616E-3,-2.7947506E-1,4.808014E-1,-1.7866385E-1,-5.4390025E-1,1.7479664E-1,5.9417516E-1,-7.5226715E-3,7.123004E-4,-2.2561383E-2,-1.3604595E-2,-4.612102E-3,7.8021702E-3,1.1429984E-2,2.0953435E-2],"categories":[],"categories_nodes":[],"categories_segments":[],"categories_sizes":[],"default_left":[0,0,0,0,0,0,0,0,0,0,0,0,0,0,0],"id":7,"left_children":[1,3,5,7,9,11,13,-1,-1,-1,-1,-1,-1,-1,-1],"loss_changes":[4.3133013E3,5.3481885E2,4.1065503E2,2.1270316E2,1.021051E2,9.029746E1,1.9053125E2,0E0,0E0,0E0,0E0,0E0,0E0,0E0,0E0],"parents":[2147483647,0,0,1,1,2,2,3,3,4,4,5,5,6,6],"right_children":[2,4,6,8,10,12,14,-1,-1,-1,-1,-1,-1,-1,-1],"split_conditions":[1.6875E0,1.0110196E0,7.9320985E-1,1.4033333E0,7.1588236E-1,1.8110938E0,3.478261E-1,-7.5226715E-3,7.123004E-4,-2.2561383E-2,-1.3604595E-2,-4.612102E-3,7.8021702E-3,1.1429984E-2,2.0953435E-2],"split_indices":[1,0,6,1,1,1,7,0,0,0,0,0,0,0,0],"split_type":[0,0,0,0,0,0,0,0,0,0,0,0,0,0,0],"sum_hessian":[3.1963E4,2.0098E4,1.1865E4,1.4557E4,5.541E3,3.212E3,8.653E3,1.0737E4,3.82E3,1.668E3,3.873E3,6.59E2,2.553E3,2.85E3,5.803E3],"tree_param":{"num_deleted":"0","num_feature":"8","num_nodes":"15","size_leaf_vector":"1"}},{"base_weights":[5.3317607E-3,-3.041411E-1,4.044255E-1,2.6917234E-1,-3.4640774E-1,2.1867909E-1,6.058403E-1,9.185149E-3,-2.9974846E-2,-1.5782809E-2,-6.8488624E-3,-1.3858238E-3,8.726164E-3,8.465463E-3,2.0661032E-2],"categories":[],"categories_nodes":[],"categories_segments":[],"categories_sizes":[],"default_left":[0,0,0,0,0,0,0,0,0,0,0,0,0,0,0],"id":8,"left_children":[1,3,5,7,9,11,13,-1,-1,-1,-1,-1,-1,-1,-1],"loss_changes":[3.9507715E3,4.3689685E2,5.214995E2,5.8274048E1,3.5503052E2,1.3941669E2,1.7810376E2,0E0,0E0,0E0,0E0,0E0,0E0,0E0,0E0],"parents":[2147483647,0,0,1,1,2,2,3,3,4,4,5,5,6,6],"right_children":[2,4,6,8,10,12,14,-1,-1,-1,-1,-1,-1,-1,-1],"split_conditions":[1.5225E0,6.363636E-1,2.1430357E0,4.5454547E-2,9.6619046E-1,7.5783336E-1,7.97379E-1,9.185149E-3,-2.9974846E-2,-1.5782809E-2,-6.8488624E-3,-1.3858238E-3,8.726164E-3,8.465463E-3,2.0661032E-2],"split_indices":[1,6,1,7,1,6,6,0,0,0,0,0,0,0,0],"split_type":[0,0,0,0,0,0,0,0,0,0,0,0,0,0,0],"sum_hessian":[3.1981E4,1.8012E4,1.3969E4,1.234E3,1.6778E4,7.273E3,6.696E3,1.202E3,3.2E1,6.647E3,1.0131E4,1.555E3,5.718E3,1.37E3,5.326E3],"tree_param":{"num_deleted":"0","num_feature":"8","num_nodes":"15","size_leaf_vector":"1"}},{"base_weights":[-8.149102E-3,-2.4744965E-1,4.3659475E-1,2.895864E-1,-2.8059387E-1,5.711356E-2,5.1E-1,-1.3620908E-2,1.0122089E-2,-1.6172599E-2,-4.8298393E-3,3.5605725E-4,3.965595E-2,6.913039E-3,1.814318E-2],"categories":[],"categories_nodes":[],"categories_segments":[],"categories_sizes":[],"default_left":[0,0,0,0,0,0,0,0,0,0,0,0,0,0,0],"id":9,"left_children":[1,3,5,7,9,11,13,-1,-1,-1,-1,-1,-1,-1,-1],"loss_changes":[3.4020881E3,3.7021826E2,3.1083032E2,4.3296036E1,6.04397E2,1.02651825E2,2.46927E2,0E0,0E0,0E0,0E0,0E0,0E0,0E0,0E0],"parents":[2147483647,0,0,1,1,2,2,3,3,4,4,5,5,6,6],"right_children":[2,4,6,8,10,12,14,-1,-1,-1,-1,-1,-1,-1,-1],"split_conditions":[1.75E0,6.363636E-1,2.5428572E1,2E0,9.4E-1,4.0316668E0,7.9320985E-1,-1.3620908E-2,1.0122089E-2,-1.6172599E-2,-4.8298393E-3,3.5605725E-4,3.965595E-2,6.913039E-3,1.814318E-2],"split_indices":[1,6,5,4,1,1,6,0,0,0,0,0,0,0,0],"split_type":[0,0,0,0,0,0,0,0,0,0,0,0,0,0,0],"sum_hessian":[3.1962E4,2.0783E4,1.1179E4,1.205E3,1.9578E4,1.815E3,9.364E3,7E1,1.135E3,6.187E3,1.3391E4,1.756E3,5.9E1,2.376E3,6.988E3],"tree_param":{"num_deleted":"0","num_feature":"8","num_nodes":"15","size_leaf_vector":"1"}},{"base_weights":[-6.245342E-3,-2.713207E-1,3.4285218E-1,-1.8617344E-1,-5.1741576E-1,1.6551524E-1,4.9626338E-1,8.822069E-3,-6.9916667E-3,-2.1829309E-2,-1.3262586E-2,-4.002322E-3,6.210568E-3,1.7432129E-2,-2.0061585E-4],"categories":[],"categories_nodes":[],"categories_segments":[],"categories_sizes":[],"default_left":[0,0,0,0,0,0,0,0,0,0,0,0,0,0,0],"id":10,"left_children":[1,3,5,7,9,11,13,-1,-1,-1,-1,-1,-1,-1,-1],"loss_changes":[2.9584353E3,3.7983118E2,3.744458E2,3.0431927E2,7.177368E1,7.964508E1,3.1592725E2,0E0,0E0,0E0,0E0,0E0,0E0,0E0,0E0],"parents":[2147483647,0,0,1,1,2,2,3,3,4,4,5,5,6,6],"right_children":[2,4,6,8,10,12,14,-1,-1,-1,-1,-1,-1,-1,-1],"split_conditions":[2.0512821E-1,1.0383279E0,3.478261E-1,6.891667E0,3.448276E-2,2.5E1,2.199496E1,8.822069E-3,-6.9916667E-3,-2.1829309E-2,-1.3262586E-2,-4.002322E-3,6.210568E-3,1.7432129E-2,-2.0061585E-4],"split_indices":[7,0,7,2,7,5,2,0,0,0,0,0,0,0,0],"split_type":[0,0,0,0,0,0,0,0,0,0,0,0,0,0,0],"sum_hessian":[3.1965E4,1.8171E4,1.3794E4,1.3507E4,4.664E3,6.404E3,7.39E3,1.198E3,1.2309E4,1.22E3,3.444E3,7.77E2,5.627E3,6.325E3,1.065E3],"tree_param":{"num_deleted":"0","num_feature":"8","num_nodes":"15","size_leaf_vector":"1"}},{"base_weights":[1.1318224E-2,-2.6591837E-1,3.7779927E-1,-1.8111071E-1,-5.1004374E-1,1.9495417E-1,5.2630544E-1,7.5657945E-3,-6.710466E-3,-2.0976834E-2,-1.3283354E-2,5.424401E-3,7.283058E-2,1.8183397E-2,1.6946546E-3],"categories":[],"categories_nodes":[],"categories_segments":[],"categories_sizes":[],"default_left":[0,0,0,0,0,0,0,0,0,0,0,0,0,0,0],"id":11,"left_children":[1,3,5,7,9,11,13,-1,-1,-1,-1,-1,-1,-1,-1],"loss_changes":[3.2312542E3,3.7385144E2,3.709214E2,2.48134E2,5.726819E1,1.9015167E2,2.824724E2,0E0,0E0,0E0,0E0,0E0,0E0,0E0,0E0],"parents":[2147483647,0,0,1,1,2,2,3,3,4,4,5,5,6,6],"right_children":[2,4,6,8,10,12,14,-1,-1,-1,-1,-1,-1,-1,-1],"split_conditions":[2.0512821E-1,1.0383279E0,3.4E-1,6.363636E-1,3.448276E-2,1.0096354E0,2.2087719E1,7.5657945E-3,-6.710466E-3,-2.0976834E-2,-1.3283354E-2,5.424401E-3,7.283058E-2,1.8183397E-2,1.6946546E-3],"split_indices":[7,0,7,6,7,6,2,0,0,0,0,0,0,0,0],"split_type":[0,0,0,0,0,0,0,0,0,0,0,0,0,0,0],"sum_hessian":[3.1796E4,1.8101E4,1.3695E4,1.3441E4,4.66E3,6.144E3,7.551E3,1.199E3,1.2242E4,1.211E3,3.449E3,6.109E3,3.5E1,6.452E3,1.099E3],"tree_param":{"num_deleted":"0","num_feature":"8","num_nodes":"15","size_leaf_vector":"1"}},{"base_weights":[-4.197063E-3,-2.281375E-1,4.3020606E-1,-3.0316925E-1,1.3691691E-2,1.4644273E-1,5.185805E-1,6.407339E-3,-1.0379324E-2,-7.806181E-3,3.4128781E-3,-1.2596015E-2,5.973444E-3,1.853159E-2,2.611757E-3],"categories":[],"categories_nodes":[],"categories_segments":[],"categories_sizes":[],"default_left":[0,0,0,0,0,0,0,0,0,0,0,0,0,0,0],"id":12,"left_children":[1,3,5,7,9,11,13,-1,-1,-1,-1,-1,-1,-1,-1],"loss_changes":[3.1146226E3,3.836848E2,2.7220032E2,3.5714392E2,1.3707057E2,7.7375916E1,3.5421436E2,0E0,0E0,0E0,0E0,0E0,0E0,0E0,0E0],"parents":[2147483647,0,0,1,1,2,2,3,3,4,4,5,5,6,6],"right_children":[2,4,6,8,10,12,14,-1,-1,-1,-1,-1,-1,-1,-1],"split_conditions":[1.77E0,1.4033333E0,7.893678E-1,6.363636E-1,7.545255E-1,1.1885135E1,2.1742708E1,6.407339E-3,-1.0379324E-2,-7.806181E-3,3.4128781E-3,-1.2596015E-2,5.973444E-3,1.853159E-2,2.611757E-3],"split_indices":[1,1,6,6,6,2,2,0,0,0,0,0,0,0,0],"split_type":[0,0,0,0,0,0,0,0,0,0,0,0,0,0,0],"sum_hessian":[3.2013E4,2.1126E4,1.0887E4,1.6126E4,5E3,2.59E3,8.297E3,1.231E3,1.4895E4,1.334E3,3.666E3,2.17E2,2.373E3,6.744E3,1.553E3],"tree_param":{"num_deleted":"0","num_feature":"8","num_nodes":"15","size_leaf_vector":"1"}},{"base_weights":[-4.844051E-3,-2.6841038E-1,3.1126943E-1,2.3313108E-1,-3.0597296E-1,1.9748007E-1,5.6108415E-1,1.7906189E-2,4.2555495E-3,-1.4090934E-2,-5.8711846E-3,-3.2271764E-3,8.202655E-3,-2.3259673E-2,1.7620929E-2],"categories":[],"categories_nodes":[],"categories_segments":[],"categories_sizes":[],"default_left":[0,0,0,0,0,0,0,0,0,0,0,0,0,0,0],"id":13,"left_children":[1,3,5,7,9,11,13,-1,-1,-1,-1,-1,-1,-1,-1],"loss_changes":[2.6576826E3,3.2803223E2,4.111466E2,3.9248276E1,2.913075E2,2.3124475E2,1.6041687E2,0E0,0E0,0E0,0E0,0E0,0E0,0E0,0E0],"parents":[2147483647,0,0,1,1,2,2,3,3,4,4,5,5,6,6],"right_children":[2,4,6,8,10,12,14,-1,-1,-1,-1,-1,-1,-1,-1],"split_conditions":[1.5E0,6.363636E-1,2.4094737E0,2.5827587E1,9.5666665E-1,7.5783336E-1,7.164641E-1,1.7906189E-2,4.2555495E-3,-1.4090934E-2,-5.8711846E-3,-3.2271764E-3,8.202655E-3,-2.3259673E-2,1.7620929E-2],"split_indices":[1,6,1,5,1,6,6,0,0,0,0,0,0,0,0],"split_type":[0,0,0,0,0,0,0,0,0,0,0,0,0,0,0],"sum_hessian":[3.1893E4,1.7394E4,1.4499E4,1.209E3,1.6185E4,9.968E3,4.531E3,2.37E2,9.72E2,6.506E3,9.679E3,1.984E3,7.984E3,8.5E1,4.446E3],"tree_param":{"num_deleted":"0","num_feature":"8","num_nodes":"15","size_leaf_vector":"1"}},{"base_weights":[1.5779348E-2,-2.5080183E-1,3.6959806E-1,-1.6771474E-1,-4.8934057E-1,1.5906349E-2,4.4977444E-1,6.514635E-3,-6.1738705E-3,-2.0759005E-2,-1.2763588E-2,1.6993903E-2,-7.7215815E-4,5.04818E-3,1.6012812E-2],"categories":[],"categories_nodes":[],"categories_segments":[],"categories_sizes":[],"default_left":[0,0,0,0,0,0,0,0,0,0,0,0,0,0,0],"id":14,"left_children":[1,3,5,7,9,11,13,-1,-1,-1,-1,-1,-1,-1,-1],"loss_changes":[3.0200024E3,3.6096094E2,3.8968665E2,1.9869937E2,5.8997803E1,5.900481E1,2.6415234E2,0E0,0E0,0E0,0E0,0E0,0E0,0E0,0E0],"parents":[2147483647,0,0,1,1,2,2,3,3,4,4,5,5,6,6],"right_children":[2,4,6,8,10,12,14,-1,-1,-1,-1,-1,-1,-1,-1],"split_conditions":[2.0833333E-1,1.0383279E0,1.6666666E0,6.363636E-1,6.421053E-1,2.1428572E-1,2.6092308E1,6.514635E-3,-6.1738705E-3,-2.0759005E-2,-1.2763588E-2,1.6993903E-2,-7.7215815E-4,5.04818E-3,1.6012812E-2],"split_indices":[7,0,1,6,1,7,5,0,0,0,0,0,0,0,0],"split_type":[0,0,0,0,0,0,0,0,0,0,0,0,0,0,0],"sum_hessian":[3.2011E4,1.8255E4,1.3756E4,1.3546E4,4.709E3,2.545E3,1.1211E4,1.216E3,1.233E4,1.118E3,3.591E3,1.78E2,2.367E3,2.581E3,8.63E3],"tree_param":{"num_deleted":"0","num_feature":"8","num_nodes":"15","size_leaf_vector":"1"}},{"base_weights":[-1.262753E-2,-2.680746E-1,2.8893125E-1,1.9049986E-1,-3.0320606E-1,1.7023546E-1,5.2502185E-1,-1.7681053E-2,7.0680697E-3,-1.397537E-2,-6.0276273E-3,-1.7418736E-3,6.833466E-3,9.165913E-4,1.7648596E-2],"categories":[],"categories_nodes":[],"categories_segments":[],"categories_sizes":[],"default_left":[0,0,0,0,0,0,0,0,0,0,0,0,0,0,0],"id":15,"left_children":[1,3,5,7,9,11,13,-1,-1,-1,-1,-1,-1,-1,-1],"loss_changes":[2.4635503E3,2.7925342E2,4.099934E2,4.339715E1,2.6666956E2,1.2851315E2,1.5267358E2,0E0,0E0,0E0,0E0,0E0,0E0,0E0,0E0],"parents":[2147483647,0,0,1,1,2,2,3,3,4,4,5,5,6,6],"right_children":[2,4,6,8,10,12,14,-1,-1,-1,-1,-1,-1,-1,-1],"split_conditions":[1.485E0,6.363636E-1,2.3575E0,2E0,9.355556E-1,7.5783336E-1,7.797297E-1,-1.7681053E-2,7.0680697E-3,-1.397537E-2,-6.0276273E-3,-1.7418736E-3,6.833466E-3,9.165913E-4,1.7648596E-2],"split_indices":[1,6,1,4,1,6,6,0,0,0,0,0,0,0,0],"split_type":[0,0,0,0,0,0,0,0,0,0,0,0,0,0,0],"sum_hessian":[3.1975E4,1.7313E4,1.4662E4,1.229E3,1.6084E4,9.763E3,4.899E3,6.4E1,1.165E3,6.202E3,9.882E3,1.962E3,7.801E3,5.58E2,4.341E3],"tree_param":{"num_deleted":"0","num_feature":"8","num_nodes":"15","size_leaf_vector":"1"}},{"base_weights":[1.4848061E-3,-2.4305937E-1,3.1839928E-1,-1.7039712E-1,-4.4319782E-1,1.991526E-1,5.391597E-1,6.5326025E-3,-6.252004E-3,-1.9927E-2,-1.1233928E-2,7.769563E-3,-7.202562E-4,1.878372E-2,8.6385437E-4],"categories":[],"categories_nodes":[],"categories_segments":[],"categories_sizes":[],"default_left":[0,0,0,0,0,0,0,0,0,0,0,0,0,0,0],"id":16,"left_children":[1,3,5,7,9,11,13,-1,-1,-1,-1,-1,-1,-1,-1],"loss_changes":[2.4769617E3,2.6147766E2,3.6543555E2,1.954581E2,7.1124146E1,1.210524E2,2.157937E2,0E0,0E0,0E0,0E0,0E0,0E0,0E0,0E0],"parents":[2147483647,0,0,1,1,2,2,3,3,4,4,5,5,6,6],"right_children":[2,4,6,8,10,12,14,-1,-1,-1,-1,-1,-1,-1,-1],"split_conditions":[1.5225E0,1.0383279E0,2.3575E0,6.891667E0,6.421053E-1,9.870023E-1,2.2087719E1,6.5326025E-3,-6.252004E-3,-1.9927E-2,-1.1233928E-2,7.769563E-3,-7.202562E-4,1.878372E-2,8.6385437E-4],"split_indices":[1,0,1,2,1,0,2,0,0,0,0,0,0,0,0],"split_type":[0,0,0,0,0,0,0,0,0,0,0,0,0,0,0],"sum_hessian":[3.1954E4,1.8035E4,1.3919E4,1.3239E4,4.796E3,9.044E3,4.875E3,1.177E3,1.2062E4,1.128E3,3.668E3,7.135E3,1.909E3,4.163E3,7.12E2],"tree_param":{"num_deleted":"0","num_feature":"8","num_nodes":"15","size_leaf_vector":"1"}},{"base_weights":[-5.018039E-3,-2.1999593E-1,3.4488076E-1,-1.4902885E-1,-4.363771E-1,2.6068278E-3,4.100008E-1,5.2082757E-3,-5.306023E-3,-1.9393062E-2,-1.1101746E-2,-2.1263382E-3,1.4228213E-2,9.259374E-3,1.7431872E-2],"categories":[],"categories_nodes":[],"categories_segments":[],"categories_sizes":[],"default_left":[0,0,0,0,0,0,0,0,0,0,0,0,0,0,0],"id":17,"left_children":[1,3,5,7,9,11,13,-1,-1,-1,-1,-1,-1,-1,-1],"loss_changes":[2.3947478E3,3.0208466E2,2.69614E2,1.3356473E2,6.6053345E1,6.781461E1,1.7500317E2,0E0,0E0,0E0,0E0,0E0,0E0,0E0,0E0],"parents":[2147483647,0,0,1,1,2,2,3,3,4,4,5,5,6,6],"right_children":[2,4,6,8,10,12,14,-1,-1,-1,-1,-1,-1,-1,-1],"split_conditions":[1.6666666E0,1.0383279E0,2.5428572E1,6.363636E-1,6.421053E-1,3.0466666E0,2.4094737E0,5.2082757E-3,-5.306023E-3,-1.9393062E-2,-1.1101746E-2,-2.1263382E-3,1.4228213E-2,9.259374E-3,1.7431872E-2],"split_indices":[1,0,5,6,1,1,1,0,0,0,0,0,0,0,0],"split_type":[0,0,0,0,0,0,0,0,0,0,0,0,0,0,0],"sum_hessian":[3.1832E4,1.972E4,1.2112E4,1.4857E4,4.863E3,1.939E3,1.0173E4,1.176E3,1.3681E4,1.157E3,3.706E3,1.678E3,2.61E2,6.397E3,3.776E3],"tree_param":{"num_deleted":"0","num_feature":"8","num_nodes":"15","size_leaf_vector":"1"}},{"base_weights":[7.0863348E-3,-2.3363662E-1,3.2292572E-1,1.1930475E-1,-2.5915104E-1,7.8205265E-2,4.1190293E-1,-1.6634768E-2,4.9095633E-3,-1.2680907E-2,-4.5839245E-3,-1.4151048E-2,3.7316522E-3,1.5502937E-2,-1.3587646E-3],"categories":[],"categories_nodes":[],"categories_segments":[],"categories_sizes":[],"default_left":[0,0,0,0,0,0,0,0,0,0,0,0,0,0,0],"id":18,"left_children":[1,3,5,7,9,11,13,-1,-1,-1,-1,-1,-1,-1,-1],"loss_changes":[2.4379067E3,1.6407123E2,3.0142627E2,3.6515656E1,2.9441895E2,9.392249E1,4.8801843E2,0E0,0E0,0E0,0E0,0E0,0E0,0E0,0E0],"parents":[2147483647,0,0,1,1,2,2,3,3,4,4,5,5,6,6],"right_children":[2,4,6,8,10,12,14,-1,-1,-1,-1,-1,-1,-1,-1],"split_conditions":[1.5322223E0,6.363636E-1,7.8550446E-1,2E0,9.7E-1,1.1677917E1,2.1742708E1,-1.6634768E-2,4.9095633E-3,-1.2680907E-2,-4.5839245E-3,-1.4151048E-2,3.7316522E-3,1.5502937E-2,-1.3587646E-3],"split_indices":[1,6,6,4,1,2,2,0,0,0,0,0,0,0,0],"split_type":[0,0,0,0,0,0,0,0,0,0,0,0,0,0,0],"sum_hessian":[3.2058E4,1.8191E4,1.3867E4,1.223E3,1.6968E4,3.702E3,1.0165E4,7.2E1,1.151E3,6.679E3,1.0289E4,2.83E2,3.419E3,8.27E3,1.895E3],"tree_param":{"num_deleted":"0","num_feature":"8","num_nodes":"15","size_leaf_vector":"1"}},{"base_weights":[-3.1861127E-3,-1.8707249E-1,3.471613E-1,-2.5024158E-1,1.537402E-2,1.4269419E-2,4.1038576E-1,6.6662226E-3,-8.682384E-3,-6.506585E-3,3.1015947E-3,-4.242404E-3,5.7496573E-3,4.15913E-3,1.4162544E-2],"categories":[],"categories_nodes":[],"categories_segments":[],"categories_sizes":[],"default_left":[0,0,0,0,0,0,0,0,0,0,0,0,0,0,0],"id":19,"left_children":[1,3,5,7,9,11,13,-1,-1,-1,-1,-1,-1,-1,-1],"loss_changes":[2.0550996E3,2.6781732E2,2.3063171E2,2.9545563E2,1.0165168E2,4.8680374E1,1.538479E2,0E0,0E0,0E0,0E0,0E0,0E0,0E0,0E0],"parents":[2147483647,0,0,1,1,2,2,3,3,4,4,5,5,6,6],"right_children":[2,4,6,8,10,12,14,-1,-1,-1,-1,-1,-1,-1,-1],"split_conditions":[1.7571429E0,1.4E0,2.5428572E1,6.363636E-1,7.545255E-1,2.3396773E0,1.950244E0,6.6662226E-3,-8.682384E-3,-6.506585E-3,3.1015947E-3,-4.242404E-3,5.7496573E-3,4.15913E-3,1.4162544E-2],"split_indices":[1,1,5,6,6,1,1,0,0,0,0,0,0,0,0],"split_type":[0,0,0,0,0,0,0,0,0,0,0,0,0,0,0],"sum_hessian":[3.1896E4,2.092E4,1.0976E4,1.5948E4,4.972E3,1.755E3,9.221E3,1.218E3,1.473E4,1.362E3,3.61E3,9.32E2,8.23E2,1.711E3,7.51E3],"tree_param":{"num_deleted":"0","num_feature":"8","num_nodes":"15","size_leaf_vector":"1"}},{"base_weights":[-2.5002516E-3,-2.2437143E-1,2.826051E-1,2.52768E-1,-2.592723E-1,3.5977934E-2,3.741019E-1,-1.9315088E-2,9.171556E-3,-1.2080434E-2,-4.9832677E-3,4.2078504E-3,-8.089307E-3,1.4745188E-2,1.0556725E-3],"categories":[],"categories_nodes":[],"categories_segments":[],"categories_sizes":[],"default_left":[0,0,0,0,0,0,0,0,0,0,0,0,0,0,0],"id":20,"left_children":[1,3,5,7,9,11,13,-1,-1,-1,-1,-1,-1,-1,-1],"loss_changes":[2.015426E3,2.9861725E2,3.1415906E2,5.822016E1,2.2237671E2,1.2042594E2,4.0392493E2,0E0,0E0,0E0,0E0,0E0,0E0,0E0,0E0],"parents":[2147483647,0,0,1,1,2,2,3,3,4,4,5,5,6,6],"right_children":[2,4,6,8,10,12,14,-1,-1,-1,-1,-1,-1,-1,-1],"split_conditions":[1.5225E0,6.363636E-1,7.8550446E-1,2E0,9.5666665E-1,1E0,2.085E1,-1.9315088E-2,9.171556E-3,-1.2080434E-2,-4.9832677E-3,4.2078504E-3,-8.089307E-3,1.4745188E-2,1.0556725E-3],"split_indices":[1,6,6,4,1,0,2,0,0,0,0,0,0,0,0],"split_type":[0,0,0,0,0,0,0,0,0,0,0,0,0,0,0],"sum_hessian":[3.1856E4,1.7917E4,1.3939E4,1.218E3,1.6699E4,3.776E3,1.0163E4,6.5E1,1.153E3,6.568E3,1.0131E4,2.819E3,9.57E2,7.545E3,2.618E3],"tree_param":{"num_deleted":"0","num_feature":"8","num_nodes":"15","size_leaf_vector":"1"}},{"base_weights":[-5.9486497E-3,-2.2164507E-1,2.4473761E-1,1.4792801E-1,-2.4932447E-1,-1.9490222E-2,3.053431E-1,6.070782E-3,-1.2775922E-2,-1.1775344E-2,-4.495604E-3,-1.3930095E-2,1.5285943E-3,6.3823005E-3,1.537187E-2],"categories":[],"categories_nodes":[],"categories_segments":[],"categories_sizes":[],"default_left":[0,0,0,0,0,0,0,0,0,0,0,0,0,0,0],"id":21,"left_children":[1,3,5,7,9,11,13,-1,-1,-1,-1,-1,-1,-1,-1],"loss_changes":[1.7274199E3,1.7589447E2,2.3687335E2,3.7388855E1,2.2689783E2,8.684767E1,2.2940747E2,0E0,0E0,0E0,0E0,0E0,0E0,0E0,0E0],"parents":[2147483647,0,0,1,1,2,2,3,3,4,4,5,5,6,6],"right_children":[2,4,6,8,10,12,14,-1,-1,-1,-1,-1,-1,-1,-1],"split_conditions":[1.4761539E0,6.363636E-1,2.5677965E1,3.4875E-1,9.5666665E-1,1.4316667E1,2.395E0,6.070782E-3,-1.2775922E-2,-1.1775344E-2,-4.495604E-3,-1.3930095E-2,1.5285943E-3,6.3823005E-3,1.537187E-2],"split_indices":[1,6,5,1,1,2,1,0,0,0,0,0,0,0,0],"split_type":[0,0,0,0,0,0,0,0,0,0,0,0,0,0,0],"sum_hessian":[3.1941E4,1.7171E4,1.477E4,1.193E3,1.5978E4,2.753E3,1.2017E4,1.093E3,1E2,6.542E3,9.436E3,3.76E2,2.377E3,8.311E3,3.706E3],"tree_param":{"num_deleted":"0","num_feature":"8","num_nodes":"15","size_leaf_vector":"1"}},{"base_weights":[1.7122643E-2,-1.999262E-1,2.7284244E-1,2.7508193E-1,-2.355678E-1,9.698983E-2,4.0295625E-1,-1.5303152E-2,9.376746E-3,-5.3653936E-3,-1.1417347E-2,-1.13852825E-2,3.838621E-3,1.4397313E-2,-9.6515345E-4],"categories":[],"categories_nodes":[],"categories_segments":[],"categories_sizes":[],"default_left":[0,0,0,0,0,0,0,0,0,0,0,0,0,0,0],"id":22,"left_children":[1,3,5,7,9,11,13,-1,-1,-1,-1,-1,-1,-1,-1],"loss_changes":[1.7785746E3,2.935526E2,3.360288E2,3.585665E1,1.3185931E2,9.2315796E1,2.835088E2,0E0,0E0,0E0,0E0,0E0,0E0,0E0,0E0],"parents":[2147483647,0,0,1,1,2,2,3,3,4,4,5,5,6,6],"right_children":[2,4,6,8,10,12,14,-1,-1,-1,-1,-1,-1,-1,-1],"split_conditions":[1.9148937E-1,6.891667E0,3.3333334E-1,2E0,1.0383279E0,7.035285E-1,2.1835772E1,-1.5303152E-2,9.376746E-3,-5.3653936E-3,-1.1417347E-2,-1.13852825E-2,3.838621E-3,1.4397313E-2,-9.6515345E-4],"split_indices":[7,2,7,4,0,6,2,0,0,0,0,0,0,0,0],"split_type":[0,0,0,0,0,0,0,0,0,0,0,0,0,0,0],"sum_hessian":[3.2037E4,1.7327E4,1.471E4,1.206E3,1.6121E4,6.261E3,8.449E3,5.2E1,1.154E3,1.1598E4,4.523E3,3.78E2,5.883E3,7.181E3,1.268E3],"tree_param":{"num_deleted":"0","num_feature":"8","num_nodes":"15","size_leaf_vector":"1"}},{"base_weights":[6.2994044E-3,-1.5689418E-1,3.381286E-1,-2.2171122E-1,3.684386E-2,3.2517746E-2,3.958902E-1,3.799232E-3,-7.5126975E-3,7.3377974E-4,8.264707E-2,4.5203436E-2,-4.7041586E-4,6.230569E-3,1.4681072E-2],"categories":[],"categories_nodes":[],"categories_segments":[],"categories_sizes":[],"default_left":[0,0,0,0,0,0,0,0,0,0,0,0,0,0,0],"id":23,"left_children":[1,3,5,7,9,11,13,-1,-1,-1,-1,-1,-1,-1,-1],"loss_changes":[1.7338127E3,2.6966882E2,1.8587341E2,1.610794E2,1.7805208E2,1.2122189E2,1.5513733E2,0E0,0E0,0E0,0E0,0E0,0E0,0E0,0E0],"parents":[2147483647,0,0,1,1,2,2,3,3,4,4,5,5,6,6],"right_children":[2,4,6,8,10,12,14,-1,-1,-1,-1,-1,-1,-1,-1],"split_conditions":[1.8E0,1.4033333E0,2.5428572E1,6.363636E-1,1.0096354E0,1.8208108E0,3.5185185E-1,3.799232E-3,-7.5126975E-3,7.3377974E-4,8.264707E-2,4.5203436E-2,-4.7041586E-4,6.230569E-3,1.4681072E-2],"split_indices":[1,1,5,6,6,1,7,0,0,0,0,0,0,0,0],"split_type":[0,0,0,0,0,0,0,0,0,0,0,0,0,0,0],"sum_hessian":[3.2008E4,2.1455E4,1.0553E4,1.608E4,5.375E3,1.681E3,8.872E3,1.221E3,1.4859E4,5.354E3,2.1E1,5.1E1,1.63E3,2.951E3,5.921E3],"tree_param":{"num_deleted":"0","num_feature":"8","num_nodes":"15","size_leaf_vector":"1"}},{"base_weights":[6.8529607E-3,-1.9036096E-1,2.711491E-1,1.3272382E-1,-2.1421741E-1,-4.995135E-1,2.9579276E-1,-1.4270009E-2,5.2642683E-3,-9.062663E-3,-3.7154446E-3,-1.0093015E-2,-2.8238012E-2,1.0871354E-2,6.934287E-4],"categories":[],"categories_nodes":[],"categories_segments":[],"categories_sizes":[],"default_left":[0,0,0,0,0,0,0,0,0,0,0,0,0,0,0],"id":24,"left_children":[1,3,5,7,9,11,13,-1,-1,-1,-1,-1,-1,-1,-1],"loss_changes":[1.6694187E3,1.4151746E2,2.6020135E2,3.2722557E1,1.3510779E2,2.8317673E1,2.4047144E2,0E0,0E0,0E0,0E0,0E0,0E0,0E0,0E0],"parents":[2147483647,0,0,1,1,2,2,3,3,4,4,5,5,6,6],"right_children":[2,4,6,8,10,12,14,-1,-1,-1,-1,-1,-1,-1,-1],"split_conditions":[2.1052632E-1,6.363636E-1,7.0597357E-1,2E0,9.090909E-2,3.4E-1,2.094111E1,-1.4270009E-2,5.2642683E-3,-9.062663E-3,-3.7154446E-3,-1.0093015E-2,-2.8238012E-2,1.0871354E-2,6.934287E-4],"split_indices":[7,6,6,4,7,7,2,0,0,0,0,0,0,0,0],"split_type":[0,0,0,0,0,0,0,0,0,0,0,0,0,0,0],"sum_hessian":[3.2021E4,1.8336E4,1.3685E4,1.257E3,1.7079E4,4.21E2,1.3264E4,7.9E1,1.178E3,8.65E3,8.429E3,3.13E2,1.08E2,1.0657E4,2.607E3],"tree_param":{"num_deleted":"0","num_feature":"8","num_nodes":"15","size_leaf_vector":"1"}},{"base_weights":[2.1521065E-3,-1.4556037E-1,3.0124187E-1,-2.7269715E-1,-7.400128E-2,3.655975E-1,-5.797334E-2,5.7898522E-3,-1.0697519E-2,-5.6798663E-3,-3.4166954E-4,4.12146E-3,1.360661E-2,-8.734109E-3,1.0811634E-3],"categories":[],"categories_nodes":[],"categories_segments":[],"categories_sizes":[],"default_left":[0,0,0,0,0,0,0,0,0,0,0,0,0,0,0],"id":25,"left_children":[1,3,5,7,9,11,13,-1,-1,-1,-1,-1,-1,-1,-1],"loss_changes":[1.4095624E3,1.93858E2,2.4423785E2,3.0054895E2,9.85173E1,1.788551E2,3.5424667E1,0E0,0E0,0E0,0E0,0E0,0E0,0E0,0E0],"parents":[2147483647,0,0,1,1,2,2,3,3,4,4,5,5,6,6],"right_children":[2,4,6,8,10,12,14,-1,-1,-1,-1,-1,-1,-1,-1],"split_conditions":[1.8E0,9.5666665E-1,2.1835772E1,6.363636E-1,7.545255E-1,7.9320985E-1,8.5752887E-1,5.7898522E-3,-1.0697519E-2,-5.6798663E-3,-3.4166954E-4,4.12146E-3,1.360661E-2,-8.734109E-3,1.0811634E-3],"split_indices":[1,1,2,6,6,6,6,0,0,0,0,0,0,0,0],"split_type":[0,0,0,0,0,0,0,0,0,0,0,0,0,0,0],"sum_hessian":[3.1896E4,2.135E4,1.0546E4,7.681E3,1.3669E4,8.946E3,1.6E3,1.17E3,6.511E3,4.802E3,8.867E3,2.494E3,6.452E3,4.61E2,1.139E3],"tree_param":{"num_deleted":"0","num_feature":"8","num_nodes":"15","size_leaf_vector":"1"}},{"base_weights":[-5.114397E-3,-1.769653E-1,1.9946532E-1,-1.0108861E-1,-3.5069558E-1,-9.317527E-2,2.6446754E-1,4.032671E-3,-3.8091622E-3,-1.4999082E-2,-9.010663E-3,-1.4540034E-2,-7.968935E-5,-1.4387486E-3,9.227845E-3],"categories":[],"categories_nodes":[],"categories_segments":[],"categories_sizes":[],"default_left":[0,0,0,0,0,0,0,0,0,0,0,0,0,0,0],"id":26,"left_children":[1,3,5,7,9,11,13,-1,-1,-1,-1,-1,-1,-1,-1],"loss_changes":[1.1219851E3,2.2811133E2,2.7734277E2,7.3693695E1,3.833545E1,9.3311874E1,1.6095544E2,0E0,0E0,0E0,0E0,0E0,0E0,0E0,0E0],"parents":[2147483647,0,0,1,1,2,2,3,3,4,4,5,5,6,6],"right_children":[2,4,6,8,10,12,14,-1,-1,-1,-1,-1,-1,-1,-1],"split_conditions":[1.9354838E-1,1.0110196E0,7.612172E-1,6.363636E-1,3.448276E-2,7.035285E-1,2.4981482E1,4.032671E-3,-3.8091622E-3,-1.4999082E-2,-9.010663E-3,-1.4540034E-2,-7.968935E-5,-1.4387486E-3,9.227845E-3],"split_indices":[7,0,6,6,7,6,5,0,0,0,0,0,0,0,0],"split_type":[0,0,0,0,0,0,0,0,0,0,0,0,0,0,0],"sum_hessian":[3.1908E4,1.7344E4,1.4564E4,1.2079E4,5.265E3,2.644E3,1.192E4,1.191E3,1.0888E4,1.316E3,3.949E3,4.92E2,2.152E3,1.443E3,1.0477E4],"tree_param":{"num_deleted":"0","num_feature":"8","num_nodes":"15","size_leaf_vector":"1"}},{"base_weights":[-3.269091E-3,-1.4235762E-1,2.5553295E-1,-8.1415646E-2,-3.0893585E-1,1.6838867E-2,3.2810843E-1,5.7280357E-3,-3.142667E-3,-1.5743986E-2,-8.03164E-3,-6.4508775E-3,5.1562493E-3,-2.263654E-2,1.0363386E-2],"categories":[],"categories_nodes":[],"categories_segments":[],"categories_sizes":[],"default_left":[0,0,0,0,0,0,0,0,0,0,0,0,0,0,0],"id":27,"left_children":[1,3,5,7,9,11,13,-1,-1,-1,-1,-1,-1,-1,-1],"loss_changes":[1.1504768E3,2.1061655E2,1.9315753E2,9.679809E1,4.828723E1,9.392778E1,1.6110815E2,0E0,0E0,0E0,0E0,0E0,0E0,0E0,0E0],"parents":[2147483647,0,0,1,1,2,2,3,3,4,4,5,5,6,6],"right_children":[2,4,6,8,10,12,14,-1,-1,-1,-1,-1,-1,-1,-1],"split_conditions":[1.75E0,1.0110196E0,2.6092308E1,6.363636E-1,6E-1,2.1430357E0,6.9597805E-1,5.7280357E-3,-3.142667E-3,-1.5743986E-2,-8.03164E-3,-6.4508775E-3,5.1562493E-3,-2.263654E-2,1.0363386E-2],"split_indices":[1,0,5,6,1,1,6,0,0,0,0,0,0,0,0],"split_type":[0,0,0,0,0,0,0,0,0,0,0,0,0,0,0],"sum_hessian":[3.1958E4,2.079E4,1.1168E4,1.5229E4,5.561E3,2.608E3,8.56E3,1.197E3,1.4032E4,8.82E2,4.679E3,1.042E3,1.566E3,1.32E2,8.428E3],"tree_param":{"num_deleted":"0","num_feature":"8","num_nodes":"15","size_leaf_vector":"1"}},{"base_weights":[8.4271105E-3,-1.5404715E-1,2.7339315E-1,-9.7412094E-2,-3.2842717E-1,-1.1210116E-1,3.1456417E-1,-6.5185255E-3,-1.2335429E-3,-1.6221456E-2,-8.40871E-3,-1.3885456E-2,6.5098645E-4,1.1590893E-2,2.2427808E-3],"categories":[],"categories_nodes":[],"categories_segments":[],"categories_sizes":[],"default_left":[0,0,0,0,0,0,0,0,0,0,0,0,0,0,0],"id":28,"left_children":[1,3,5,7,9,11,13,-1,-1,-1,-1,-1,-1,-1,-1],"loss_changes":[1.372082E3,1.9455923E2,1.9260358E2,1.00389404E2,4.8153015E1,5.533274E1,1.8798645E2,0E0,0E0,0E0,0E0,0E0,0E0,0E0,0E0],"parents":[2147483647,0,0,1,1,2,2,3,3,4,4,5,5,6,6],"right_children":[2,4,6,8,10,12,14,-1,-1,-1,-1,-1,-1,-1,-1],"split_conditions":[1.6666666E0,1.0383279E0,1.4022789E1,9.848649E-1,6E-1,1.174375E1,2.085E1,-6.5185255E-3,-1.2335429E-3,-1.6221456E-2,-8.40871E-3,-1.3885456E-2,6.5098645E-4,1.1590893E-2,2.2427808E-3],"split_indices":[1,0,2,1,1,2,2,0,0,0,0,0,0,0,0],"split_type":[0,0,0,0,0,0,0,0,0,0,0,0,0,0,0],"sum_hessian":[3.1863E4,1.975E4,1.2113E4,1.4916E4,4.834E3,1.166E3,1.0947E4,4.758E3,1.0158E4,8.84E2,3.95E3,3.22E2,8.44E2,8.42E3,2.527E3],"tree_param":{"num_deleted":"0","num_feature":"8","num_nodes":"15","size_leaf_vector":"1"}},{"base_weights":[-7.8565336E-4,-1.7846557E-1,2.1305591E-1,1.6843383E-1,-2.0480637E-1,1.0453399E-1,3.3835107E-1,1.6406382E-2,2.1891524E-3,-1.0201672E-2,-3.417427E-3,-2.4767774E-3,5.2369083E-3,1.1804738E-2,8.4049837E-4],"categories":[],"categories_nodes":[],"categories_segments":[],"categories_sizes":[],"default_left":[0,0,0,0,0,0,0,0,0,0,0,0,0,0,0],"id":29,"left_children":[1,3,5,7,9,11,13,-1,-1,-1,-1,-1,-1,-1,-1],"loss_changes":[1.2171846E3,1.6004803E2,1.9710095E2,4.3841408E1,1.9942633E2,1.023052E2,1.1489673E2,0E0,0E0,0E0,0E0,0E0,0E0,0E0,0E0],"parents":[2147483647,0,0,1,1,2,2,3,3,4,4,5,5,6,6],"right_children":[2,4,6,8,10,12,14,-1,-1,-1,-1,-1,-1,-1,-1],"split_conditions":[1.5E0,6.363636E-1,2.1430357E0,2.5827587E1,9.5666665E-1,2.64E1,1E0,1.6406382E-2,2.1891524E-3,-1.0201672E-2,-3.417427E-3,-2.4767774E-3,5.2369083E-3,1.1804738E-2,8.4049837E-4],"split_indices":[1,6,1,5,1,5,3,0,0,0,0,0,0,0,0],"split_type":[0,0,0,0,0,0,0,0,0,0,0,0,0,0,0],"sum_hessian":[3.203E4,1.7497E4,1.4533E4,1.231E3,1.6266E4,7.795E3,6.738E3,2.43E2,9.88E2,6.53E3,9.736E3,2.119E3,5.676E3,5.718E3,1.02E3],"tree_param":{"num_deleted":"0","num_feature":"8","num_nodes":"15","size_leaf_vector":"1"}},{"base_weights":[-4.491975E-3,-1.723982E-1,1.9173183E-1,-1.18413664E-1,-3.2226145E-1,-2.0679975E-2,2.7560675E-1,-5.1462804E-3,-1.0192096E-3,-1.3418594E-2,-8.305664E-3,-1.3785503E-2,1.26656E-3,1.0602505E-2,-2.088788E-3],"categories":[],"categories_nodes":[],"categories_segments":[],"categories_sizes":[],"default_left":[0,0,0,0,0,0,0,0,0,0,0,0,0,0,0],"id":30,"left_children":[1,3,5,7,9,11,13,-1,-1,-1,-1,-1,-1,-1,-1],"loss_changes":[1.0487892E3,1.3825009E2,2.6173993E2,5.640648E1,2.46604E1,1.1513521E2,2.8308667E2,0E0,0E0,0E0,0E0,0E0,0E0,0E0,0E0],"parents":[2147483647,0,0,1,1,2,2,3,3,4,4,5,5,6,6],"right_children":[2,4,6,8,10,12,14,-1,-1,-1,-1,-1,-1,-1,-1],"split_conditions":[1.9148937E-1,1.0383279E0,7.8550446E-1,7.8550446E-1,3.448276E-2,7.035285E-1,2.1742708E1,-5.1462804E-3,-1.0192096E-3,-1.3418594E-2,-8.305664E-3,-1.3785503E-2,1.26656E-3,1.0602505E-2,-2.088788E-3],"split_indices":[7,0,6,6,7,6,2,0,0,0,0,0,0,0,0],"split_type":[0,0,0,0,0,0,0,0,0,0,0,0,0,0,0],"sum_hessian":[3.1827E4,1.7154E4,1.4673E4,1.262E4,4.534E3,4.151E3,1.0522E4,7.737E3,4.883E3,1.195E3,3.339E3,5.2E2,3.631E3,8.589E3,1.933E3],"tree_param":{"num_deleted":"0","num_feature":"8","num_nodes":"15","size_leaf_vector":"1"}},{"base_weights":[-1.0935514E-2,-1.7210928E-1,1.7661133E-1,1.3180962E-1,-1.9594163E-1,-1.5400355E-1,2.1863925E-1,4.72242E-3,-2.3870412E-2,-9.432255E-3,-3.6732634E-3,1.8722519E-3,-8.526016E-3,8.725043E-3,-1.8048197E-3],"categories":[],"categories_nodes":[],"categories_segments":[],"categories_sizes":[],"default_left":[0,0,0,0,0,0,0,0,0,0,0,0,0,0,0],"id":31,"left_children":[1,3,5,7,9,11,13,-1,-1,-1,-1,-1,-1,-1,-1],"loss_changes":[9.662222E2,1.24679504E2,2.0540948E2,2.9398502E1,1.3831104E2,4.718835E1,2.6414252E2,0E0,0E0,0E0,0E0,0E0,0E0,0E0,0E0],"parents":[2147483647,0,0,1,1,2,2,3,3,4,4,5,5,6,6],"right_children":[2,4,6,8,10,12,14,-1,-1,-1,-1,-1,-1,-1,-1],"split_conditions":[1.4761539E0,6.363636E-1,1.3894444E1,4.1666668E-2,9.258621E-1,8.2655644E-1,2.094111E1,4.72242E-3,-2.3870412E-2,-9.432255E-3,-3.6732634E-3,1.8722519E-3,-8.526016E-3,8.725043E-3,-1.8048197E-3],"split_indices":[1,6,2,7,1,0,2,0,0,0,0,0,0,0,0],"split_type":[0,0,0,0,0,0,0,0,0,0,0,0,0,0,0],"sum_hessian":[3.1959E4,1.7191E4,1.4768E4,1.246E3,1.5945E4,1.662E3,1.3106E4,1.216E3,3E1,6.096E3,9.849E3,6.22E2,1.04E3,1.0413E4,2.693E3],"tree_param":{"num_deleted":"0","num_feature":"8","num_nodes":"15","size_leaf_vector":"1"}},{"base_weights":[6.1634183E-4,-1.703114E-1,2.0078292E-1,-1.1918918E-1,-2.9587737E-1,-1.152139E-1,2.443649E-1,-7.2877957E-3,-2.6071242E-3,-1.3219112E-2,-7.357298E-3,2.5090394E-3,-6.2062424E-3,8.828803E-3,-9.3916897E-4],"categories":[],"categories_nodes":[],"categories_segments":[],"categories_sizes":[],"default_left":[0,0,0,0,0,0,0,0,0,0,0,0,0,0,0],"id":32,"left_children":[1,3,5,7,9,11,13,-1,-1,-1,-1,-1,-1,-1,-1],"loss_changes":[1.0905682E3,1.0982538E2,2.0243811E2,4.845204E1,3.5389618E1,3.260031E1,1.7795416E2,0E0,0E0,0E0,0E0,0E0,0E0,0E0,0E0],"parents":[2147483647,0,0,1,1,2,2,3,3,4,4,5,5,6,6],"right_children":[2,4,6,8,10,12,14,-1,-1,-1,-1,-1,-1,-1,-1],"split_conditions":[1.9148937E-1,1.0192062E0,1.4022789E1,2.5805555E1,3.448276E-2,8.2655644E-1,2.1914743E1,-7.2877957E-3,-2.6071242E-3,-1.3219112E-2,-7.357298E-3,2.5090394E-3,-6.2062424E-3,8.828803E-3,-9.3916897E-4],"split_indices":[7,0,2,5,7,0,2,0,0,0,0,0,0,0,0],"split_type":[0,0,0,0,0,0,0,0,0,0,0,0,0,0,0],"sum_hessian":[3.1868E4,1.7187E4,1.4681E4,1.2224E4,4.963E3,1.776E3,1.2905E4,2.519E3,9.705E3,1.275E3,3.688E3,5.57E2,1.219E3,1.0929E4,1.976E3],"tree_param":{"num_deleted":"0","num_feature":"8","num_nodes":"15","size_leaf_vector":"1"}},{"base_weights":[1.6773704E-3,-1.2453637E-1,2.3387663E-1,-7.4810274E-2,-2.6178813E-1,1.889238E-1,5.7188046E-1,-3.7076997E-3,7.899064E-4,-8.969627E-3,-1.3565426E-3,-6.8832394E-3,6.8519195E-3,1.865553E-2,-1.3119078E-2],"categories":[],"categories_nodes":[],"categories_segments":[],"categories_sizes":[],"default_left":[0,0,0,0,0,0,0,0,0,0,0,0,0,0,0],"id":33,"left_children":[1,3,5,7,9,11,13,-1,-1,-1,-1,-1,-1,-1,-1],"loss_changes":[9.37221E2,1.4097076E2,1.7004767E2,7.516687E1,4.3940918E1,1.6444086E2,6.746631E1,0E0,0E0,0E0,0E0,0E0,0E0,0E0,0E0],"parents":[2147483647,0,0,1,1,2,2,3,3,4,4,5,5,6,6],"right_children":[2,4,6,8,10,12,14,-1,-1,-1,-1,-1,-1,-1,-1],"split_conditions":[1.75E0,1.0110196E0,3.1554167E0,1.37E0,1.2066667E0,1.3894444E1,2.4514414E1,-3.7076997E-3,7.899064E-4,-8.969627E-3,-1.3565426E-3,-6.8832394E-3,6.8519195E-3,1.865553E-2,-1.3119078E-2],"split_indices":[1,0,1,1,1,2,2,0,0,0,0,0,0,0,0],"split_type":[0,0,0,0,0,0,0,0,0,0,0,0,0,0,0],"sum_hessian":[3.197E4,2.071E4,1.126E4,1.5211E4,5.499E3,9.945E3,1.315E3,1.0268E4,4.943E3,4.688E3,8.11E2,8.54E2,9.091E3,1.255E3,6E1],"tree_param":{"num_deleted":"0","num_feature":"8","num_nodes":"15","size_leaf_vector":"1"}},{"base_weights":[9.3675166E-4,-1.4980201E-1,2.8258178E-1,1.4224212E-1,-1.6874474E-1,3.472322E-1,2.7945122E-2,-1.6721098E-2,5.58466E-3,-9.153504E-3,-3.1833248E-3,8.637462E-3,3.0643437E-2,1.8577892E-2,-5.548071E-4],"categories":[],"categories_nodes":[],"categories_segments":[],"categories_sizes":[],"default_left":[0,0,0,0,0,0,0,0,0,0,0,0,0,0,0],"id":34,"left_children":[1,3,5,7,9,11,13,-1,-1,-1,-1,-1,-1,-1,-1],"loss_changes":[1.3534224E3,1.14950775E2,1.8257501E2,3.8742233E1,1.660597E2,3.5218005E2,6.2612427E1,0E0,0E0,0E0,0E0,0E0,0E0,0E0,0E0],"parents":[2147483647,0,0,1,1,2,2,3,3,4,4,5,5,6,6],"right_children":[2,4,6,8,10,12,14,-1,-1,-1,-1,-1,-1,-1,-1],"split_conditions":[1.75E0,6.363636E-1,2.094111E1,2E0,9.355556E-1,2.032978E1,2.413793E-1,-1.6721098E-2,5.58466E-3,-9.153504E-3,-3.1833248E-3,8.637462E-3,3.0643437E-2,1.8577892E-2,-5.548071E-4],"split_indices":[1,6,2,4,1,2,7,0,0,0,0,0,0,0,0],"split_type":[0,0,0,0,0,0,0,0,0,0,0,0,0,0,0],"sum_hessian":[3.187E4,2.0758E4,1.1112E4,1.26E3,1.9498E4,8.858E3,2.254E3,7.1E1,1.189E3,6.128E3,1.337E4,8.147E3,7.11E2,1.63E2,2.091E3],"tree_param":{"num_deleted":"0","num_feature":"8","num_nodes":"15","size_leaf_vector":"1"}},{"base_weights":[-3.0468185E-3,-1.556431E-1,1.7514937E-1,-2.2486313E-1,-9.948302E-2,3.4337295E-3,2.2634706E-1,-7.6806515E-5,-8.321692E-3,-5.939559E-3,-7.9153985E-4,-4.156164E-4,2.5960056E-2,3.2790028E-3,9.491896E-3],"categories":[],"categories_nodes":[],"categories_segments":[],"categories_sizes":[],"default_left":[0,0,0,0,0,0,0,0,0,0,0,0,0,0,0],"id":35,"left_children":[1,3,5,7,9,11,13,-1,-1,-1,-1,-1,-1,-1,-1],"loss_changes":[8.703174E2,6.664679E1,1.2954718E2,8.979294E1,6.840815E1,5.151838E1,1.1927893E2,0E0,0E0,0E0,0E0,0E0,0E0,0E0,0E0],"parents":[2147483647,0,0,1,1,2,2,3,3,4,4,5,5,6,6],"right_children":[2,4,6,8,10,12,14,-1,-1,-1,-1,-1,-1,-1,-1],"split_conditions":[1.485E0,9.5666665E-1,2.6092308E1,3.0277777E-1,2.72E1,4.0316668E0,3.255814E-1,-7.6806515E-5,-8.321692E-3,-5.939559E-3,-7.9153985E-4,-4.156164E-4,2.5960056E-2,3.2790028E-3,9.491896E-3],"split_indices":[1,1,5,1,5,1,7,0,0,0,0,0,0,0,0],"split_type":[0,0,0,0,0,0,0,0,0,0,0,0,0,0,0],"sum_hessian":[3.2001E4,1.7242E4,1.4759E4,7.711E3,9.531E3,3.395E3,1.1364E4,1.478E3,6.233E3,4.052E3,5.479E3,3.33E3,6.5E1,4.949E3,6.415E3],"tree_param":{"num_deleted":"0","num_feature":"8","num_nodes":"15","size_leaf_vector":"1"}},{"base_weights":[-6.320209E-3,-1.18131176E-1,2.1067257E-1,-7.635062E-2,-2.5759637E-1,-5.594808E-2,2.613174E-1,-6.450212E-3,-1.2123851E-3,-1.3458105E-2,-6.468588E-3,-2.9260875E-3,3.4743838E-2,8.389011E-3,-1.7522506E-2],"categories":[],"categories_nodes":[],"categories_segments":[],"categories_sizes":[],"default_left":[0,0,0,0,0,0,0,0,0,0,0,0,0,0,0],"id":36,"left_children":[1,3,5,7,9,11,13,-1,-1,-1,-1,-1,-1,-1,-1],"loss_changes":[7.772451E2,1.2282919E2,1.4732343E2,8.085181E1,3.8076508E1,8.703201E1,1.4197809E2,0E0,0E0,0E0,0E0,0E0,0E0,0E0,0E0],"parents":[2147483647,0,0,1,1,2,2,3,3,4,4,5,5,6,6],"right_children":[2,4,6,8,10,12,14,-1,-1,-1,-1,-1,-1,-1,-1],"split_conditions":[1.77E0,1.0383279E0,2.5428572E1,2.5805555E1,6E-1,4.0316668E0,3.25E1,-6.450212E-3,-1.2123851E-3,-1.3458105E-2,-6.468588E-3,-2.9260875E-3,3.4743838E-2,8.389011E-3,-1.7522506E-2],"split_indices":[1,0,5,5,1,1,5,0,0,0,0,0,0,0,0],"split_type":[0,0,0,0,0,0,0,0,0,0,0,0,0,0,0],"sum_hessian":[3.2033E4,2.1144E4,1.0889E4,1.6279E4,4.865E3,1.735E3,9.154E3,3.342E3,1.2937E4,8.67E2,3.998E3,1.681E3,5.4E1,8.963E3,1.91E2],"tree_param":{"num_deleted":"0","num_feature":"8","num_nodes":"15","size_leaf_vector":"1"}},{"base_weights":[2.4222962E-3,-1.3567564E-1,1.7986347E-1,1.4152108E-1,-1.5591559E-1,-1.2086681E-1,2.2201528E-1,2.1792777E-2,2.2201524E-3,-8.236712E-3,-2.612949E-3,-4.780162E-3,4.463027E-2,8.764412E-3,-1.1052205E-3],"categories":[],"categories_nodes":[],"categories_segments":[],"categories_sizes":[],"default_left":[0,0,0,0,0,0,0,0,0,0,0,0,0,0,0],"id":37,"left_children":[1,3,5,7,9,11,13,-1,-1,-1,-1,-1,-1,-1,-1],"loss_changes":[7.864101E2,1.0130997E2,1.782586E2,4.745356E1,1.3689487E2,1.0619414E2,2.2403601E2,0E0,0E0,0E0,0E0,0E0,0E0,0E0,0E0],"parents":[2147483647,0,0,1,1,2,2,3,3,4,4,5,5,6,6],"right_children":[2,4,6,8,10,12,14,-1,-1,-1,-1,-1,-1,-1,-1],"split_conditions":[1.5225E0,6.891667E0,1.4193828E1,2.41875E1,9.355556E-1,3.1554167E0,2.094111E1,2.1792777E-2,2.2201524E-3,-8.236712E-3,-2.612949E-3,-4.780162E-3,4.463027E-2,8.764412E-3,-1.1052205E-3],"split_indices":[1,2,2,5,1,1,2,0,0,0,0,0,0,0,0],"split_type":[0,0,0,0,0,0,0,0,0,0,0,0,0,0,0],"sum_hessian":[3.2085E4,1.804E4,1.4045E4,1.223E3,1.6817E4,1.723E3,1.2322E4,1.22E2,1.101E3,6.165E3,1.0652E4,1.686E3,3.7E1,9.698E3,2.624E3],"tree_param":{"num_deleted":"0","num_feature":"8","num_nodes":"15","size_leaf_vector":"1"}},{"base_weights":[1.2725181E-2,-1.03199415E-1,2.4699545E-1,-1.0639299E-1,8.140523E-2,3.1913698E-1,-1.6997194E-2,-1.993022E-3,-7.2710565E-3,7.927208E-3,4.2068895E-2,-9.57027E-3,3.2100999E-3],"categories":[],"categories_nodes":[],"categories_segments":[],"categories_sizes":[],"default_left":[0,0,0,0,0,0,0,0,0,0,0,0,0],"id":38,"left_children":[1,3,5,7,-1,9,11,-1,-1,-1,-1,-1,-1],"loss_changes":[8.692118E2,1.9080467E2,2.0211755E2,1.1583151E2,0E0,4.922422E2,8.547485E1,0E0,0E0,0E0,0E0,0E0,0E0],"parents":[2147483647,0,0,1,1,2,2,3,3,5,5,6,6],"right_children":[2,4,6,8,-1,10,12,-1,-1,-1,-1,-1,-1],"split_conditions":[1.8E0,1.0331141E0,2.085E1,1.0383279E0,8.140523E-2,2.0536274E1,8.6E-1,-1.993022E-3,-7.2710565E-3,7.927208E-3,4.2068895E-2,-9.57027E-3,3.2100999E-3],"split_indices":[1,6,2,0,0,2,6,0,0,0,0,0,0],"split_type":[0,0,0,0,0,0,0,0,0,0,0,0,0],"sum_hessian":[3.1995E4,2.1402E4,1.0593E4,2.1381E4,2.1E1,8.322E3,2.271E3,1.6534E4,4.847E3,7.925E3,3.97E2,6.62E2,1.609E3],"tree_param":{"num_deleted":"0","num_feature":"8","num_nodes":"13","size_leaf_vector":"1"}},{"base_weights":[5.9083197E-3,-1.03100196E-1,2.1134187E-1,-5.7371363E-2,-2.2427215E-1,-1.23488344E-1,2.755943E-1,-3.0780595E-3,7.7087415E-4,-7.6386505E-3,-6.67787E-4,-1.0895197E-2,1.0047471E-3,1.0031257E-2,-9.6597185E-4],"categories":[],"categories_nodes":[],"categories_segments":[],"categories_sizes":[],"default_left":[0,0,0,0,0,0,0,0,0,0,0,0,0,0,0],"id":39,"left_children":[1,3,5,7,9,11,13,-1,-1,-1,-1,-1,-1,-1,-1],"loss_changes":[7.150575E2,1.152384E2,2.384318E2,5.7009853E1,3.469565E1,6.741519E1,1.6844897E2,0E0,0E0,0E0,0E0,0E0,0E0,0E0,0E0],"parents":[2147483647,0,0,1,1,2,2,3,3,4,4,5,5,6,6],"right_children":[2,4,6,8,10,12,14,-1,-1,-1,-1,-1,-1,-1,-1],"split_conditions":[1.75E0,1.0058998E0,2.5428572E1,1.3475E0,1.235E0,1.7316668E1,2.1508333E1,-3.0780595E-3,7.7087415E-4,-7.6386505E-3,-6.67787E-4,-1.0895197E-2,1.0047471E-3,1.0031257E-2,-9.6597185E-4],"split_indices":[1,0,5,1,1,2,2,0,0,0,0,0,0,0,0],"split_type":[0,0,0,0,0,0,0,0,0,0,0,0,0,0,0],"sum_hessian":[3.192E4,2.0852E4,1.1068E4,1.5148E4,5.704E3,1.779E3,9.289E3,9.815E3,5.333E3,4.954E3,7.5E2,7.05E2,1.074E3,7.802E3,1.487E3],"tree_param":{"num_deleted":"0","num_feature":"8","num_nodes":"15","size_leaf_vector":"1"}},{"base_weights":[2.8447981E-3,-1.22786075E-1,1.6573665E-1,1.1499049E-1,-1.4008227E-1,2.1379341E-1,-1.4035346E-1,-1.2136964E-2,4.2672246E-3,-7.4224346E-3,-2.4090111E-3,1.2020405E-5,9.802325E-3,8.67788E-3,-5.5968114E-3],"categories":[],"categories_nodes":[],"categories_segments":[],"categories_sizes":[],"default_left":[0,0,0,0,0,0,0,0,0,0,0,0,0,0,0],"id":40,"left_children":[1,3,5,7,9,11,13,-1,-1,-1,-1,-1,-1,-1,-1],"loss_changes":[6.562082E2,7.4507904E1,2.0558441E2,1.7253952E1,1.0790436E2,2.906905E2,3.765745E1,0E0,0E0,0E0,0E0,0E0,0E0,0E0,0E0],"parents":[2147483647,0,0,1,1,2,2,3,3,4,4,5,5,6,6],"right_children":[2,4,6,8,10,12,14,-1,-1,-1,-1,-1,-1,-1,-1],"split_conditions":[1.5322223E0,6.891667E0,2.199496E1,2E0,9.258621E-1,7.9320985E-1,8.0229884E-1,-1.2136964E-2,4.2672246E-3,-7.4224346E-3,-2.4090111E-3,1.2020405E-5,9.802325E-3,8.67788E-3,-5.5968114E-3],"split_indices":[1,2,2,4,1,6,6,0,0,0,0,0,0,0,0],"split_type":[0,0,0,0,0,0,0,0,0,0,0,0,0,0,0],"sum_hessian":[3.2058E4,1.8096E4,1.3962E4,1.222E3,1.6874E4,1.2071E4,1.891E3,5.7E1,1.165E3,6.027E3,1.0847E4,4.182E3,7.889E3,1.8E2,1.711E3],"tree_param":{"num_deleted":"0","num_feature":"8","num_nodes":"15","size_leaf_vector":"1"}},{"base_weights":[1.6908639E-3,1.7753837E-1,-1.0706802E-1,-4.323717E-2,2.2849256E-1,-1.17778935E-1,4.5483926E-1,3.7184175E-2,-1.9194408E-3,9.011654E-3,-1.6162549E-4,-2.3468975E-3,-7.0374804E-3,3.0290654E-2,2.003726E-3],"categories":[],"categories_nodes":[],"categories_segments":[],"categories_sizes":[],"default_left":[0,0,0,0,0,0,0,0,0,0,0,0,0,0,0],"id":41,"left_children":[1,3,5,7,9,11,13,-1,-1,-1,-1,-1,-1,-1,-1],"loss_changes":[6.143262E2,1.3832428E2,1.1923761E2,6.0289215E1,1.6809698E2,8.959177E1,7.83853E1,0E0,0E0,0E0,0E0,0E0,0E0,0E0,0E0],"parents":[2147483647,0,0,1,1,2,2,3,3,4,4,5,5,6,6],"right_children":[2,4,6,8,10,12,14,-1,-1,-1,-1,-1,-1,-1,-1],"split_conditions":[8.3518314E-1,7.629167E-1,9.6107614E-1,4.7307682E-1,2.0897778E1,1.0383279E0,2E0,3.7184175E-2,-1.9194408E-3,9.011654E-3,-1.6162549E-4,-2.3468975E-3,-7.0374804E-3,3.0290654E-2,2.003726E-3],"split_indices":[0,6,6,0,2,0,4,0,0,0,0,0,0,0,0],"split_type":[0,0,0,0,0,0,0,0,0,0,0,0,0,0,0],"sum_hessian":[3.2112E4,1.2274E4,1.9838E4,2.298E3,9.976E3,1.9471E4,3.67E2,3.3E1,2.265E3,7.633E3,2.343E3,1.4556E4,4.915E3,1.48E2,2.19E2],"tree_param":{"num_deleted":"0","num_feature":"8","num_nodes":"15","size_leaf_vector":"1"}},{"base_weights":[-8.839094E-3,-8.6359285E-2,2.0700821E-1,-1.4047165E-1,1.4423063E-2,-1.4164735E-2,2.5796434E-1,-6.930035E-4,-5.017753E-3,1.3189281E-3,-9.000621E-3,-2.5972927E-3,9.213181E-3,9.725103E-3,-3.8678394E-4],"categories":[],"categories_nodes":[],"categories_segments":[],"categories_sizes":[],"default_left":[0,0,0,0,0,0,0,0,0,0,0,0,0,0,0],"id":42,"left_children":[1,3,5,7,9,11,13,-1,-1,-1,-1,-1,-1,-1,-1],"loss_changes":[5.333324E2,1.2807288E2,9.516043E1,4.781021E1,7.5879395E1,3.652292E1,1.2312427E2,0E0,0E0,0E0,0E0,0E0,0E0,0E0,0E0],"parents":[2147483647,0,0,1,1,2,2,3,3,4,4,5,5,6,6],"right_children":[2,4,6,8,10,12,14,-1,-1,-1,-1,-1,-1,-1,-1],"split_conditions":[3.3333334E-1,1.6E-1,2.562745E1,8.762315E-1,3.0612245E-1,3E0,3.0076923E1,-6.930035E-4,-5.017753E-3,1.3189281E-3,-9.000621E-3,-2.5972927E-3,9.213181E-3,9.725103E-3,-3.8678394E-4],"split_indices":[7,7,5,0,7,4,5,0,0,0,0,0,0,0,0],"split_type":[0,0,0,0,0,0,0,0,0,0,0,0,0,0,0],"sum_hessian":[3.1875E4,2.3457E4,8.418E3,1.5268E4,8.189E3,1.573E3,6.845E3,2.845E3,1.2423E4,7.491E3,6.98E2,1.288E3,2.85E2,5.503E3,1.342E3],"tree_param":{"num_deleted":"0","num_feature":"8","num_nodes":"15","size_leaf_vector":"1"}},{"base_weights":[2.837921E-3,-1.17861286E-1,1.4802872E-1,9.720567E-2,-1.3408685E-1,-1.9976716E-1,1.844074E-1,4.284467E-3,-1.5465742E-2,-7.2088633E-3,-2.0667922E-3,-4.0291883E-3,-2.3895616E-2,6.80324E-3,-1.2460067E-3],"categories":[],"categories_nodes":[],"categories_segments":[],"categories_sizes":[],"default_left":[0,0,0,0,0,0,0,0,0,0,0,0,0,0,0],"id":43,"left_children":[1,3,5,7,9,11,13,-1,-1,-1,-1,-1,-1,-1,-1],"loss_changes":[5.6174E2,6.1140152E1,1.8423749E2,3.408272E1,1.123454E2,5.253937E1,1.2637906E2,0E0,0E0,0E0,0E0,0E0,0E0,0E0,0E0],"parents":[2147483647,0,0,1,1,2,2,3,3,4,4,5,5,6,6],"right_children":[2,4,6,8,10,12,14,-1,-1,-1,-1,-1,-1,-1,-1],"split_conditions":[1.5E0,6.891667E0,1.364375E1,3.0277777E-1,9.355556E-1,8.3869976E-1,2.1742708E1,4.284467E-3,-1.5465742E-2,-7.2088633E-3,-2.0667922E-3,-4.0291883E-3,-2.3895616E-2,6.80324E-3,-1.2460067E-3],"split_indices":[1,2,2,1,1,6,2,0,0,0,0,0,0,0,0],"split_type":[0,0,0,0,0,0,0,0,0,0,0,0,0,0,0],"sum_hessian":[3.2047E4,1.7496E4,1.4551E4,1.222E3,1.6274E4,1.374E3,1.3177E4,1.141E3,8.1E1,6.181E3,1.0093E4,1.243E3,1.31E2,1.11E4,2.077E3],"tree_param":{"num_deleted":"0","num_feature":"8","num_nodes":"15","size_leaf_vector":"1"}},{"base_weights":[-9.506436E-3,-8.016613E-2,1.8774594E-1,-8.422187E-2,1.7324917E0,2.640429E-1,-1.906153E-1,-3.7149668E-3,-2.6692174E-4,1.3647316E-1,-1.2693621E-2,-2.248615E-3,1.1823662E-2,-1.4873105E-2,1.7370115E-3],"categories":[],"categories_nodes":[],"categories_segments":[],"categories_sizes":[],"default_left":[0,0,0,0,0,0,0,0,0,0,0,0,0,0,0],"id":44,"left_children":[1,3,5,7,9,11,13,-1,-1,-1,-1,-1,-1,-1,-1],"loss_changes":[4.442605E2,1.7138431E2,2.428584E2,6.976445E1,3.2561993E2,3.0899448E2,1.0745242E2,0E0,0E0,0E0,0E0,0E0,0E0,0E0,0E0],"parents":[2147483647,0,0,1,1,2,2,3,3,4,4,5,5,6,6],"right_children":[2,4,6,8,10,12,14,-1,-1,-1,-1,-1,-1,-1,-1],"split_conditions":[3.3333334E-1,1.0096354E0,2.1368055E1,2.8836735E1,2.803125E1,1.6505953E1,8.9578056E-1,-3.7149668E-3,-2.6692174E-4,1.3647316E-1,-1.2693621E-2,-2.248615E-3,1.1823662E-2,-1.4873105E-2,1.7370115E-3],"split_indices":[7,6,2,5,5,2,6,0,0,0,0,0,0,0,0],"split_type":[0,0,0,0,0,0,0,0,0,0,0,0,0,0,0],"sum_hessian":[3.1876E4,2.3474E4,8.402E3,2.3425E4,4.9E1,6.995E3,1.407E3,1.5342E4,8.083E3,2E1,2.9E1,1.938E3,5.057E3,6.32E2,7.75E2],"tree_param":{"num_deleted":"0","num_feature":"8","num_nodes":"15","size_leaf_vector":"1"}},{"base_weights":[-7.2746356E-3,-7.605584E-2,1.8241993E-1,-4.196547E-2,-2.063624E-1,-2.056988E-1,2.1978968E-1,-2.5900747E-3,1.2350266E-3,-6.8536997E-3,2.732096E-3,-1.7331332E-2,-2.3177094E-3,8.2311295E-3,-2.832656E-3],"categories":[],"categories_nodes":[],"categories_segments":[],"categories_sizes":[],"default_left":[0,0,0,0,0,0,0,0,0,0,0,0,0,0,0],"id":45,"left_children":[1,3,5,7,9,11,13,-1,-1,-1,-1,-1,-1,-1,-1],"loss_changes":[4.169961E2,1.039619E2,1.2347641E2,6.869777E1,3.213095E1,3.485646E1,1.3334232E2,0E0,0E0,0E0,0E0,0E0,0E0,0E0,0E0],"parents":[2147483647,0,0,1,1,2,2,3,3,4,4,5,5,6,6],"right_children":[2,4,6,8,10,12,14,-1,-1,-1,-1,-1,-1,-1,-1],"split_conditions":[3.255814E-1,1.0383279E0,7.4923116E-1,2.8836735E1,2.0766666E1,7.1306306E-1,2.199496E1,-2.5900747E-3,1.2350266E-3,-6.8536997E-3,2.732096E-3,-1.7331332E-2,-2.3177094E-3,8.2311295E-3,-2.832656E-3],"split_indices":[7,0,6,5,2,6,2,0,0,0,0,0,0,0,0],"split_type":[0,0,0,0,0,0,0,0,0,0,0,0,0,0,0],"sum_hessian":[3.1962E4,2.3462E4,8.5E3,1.8606E4,4.856E3,7.43E2,7.757E3,1.2139E4,6.467E3,4.524E3,3.32E2,1.86E2,5.57E2,6.612E3,1.145E3],"tree_param":{"num_deleted":"0","num_feature":"8","num_nodes":"15","size_leaf_vector":"1"}},{"base_weights":[3.8072022E-3,-1.146682E-1,1.4272629E-1,1.4276831E-1,-1.3455385E-1,-1.07922174E-1,1.9307394E-1,4.945523E-3,-2.186503E-2,-2.9550101E-5,-5.095866E-3,-1.3097315E-2,-6.619433E-4,7.6737427E-3,-6.6396303E-4],"categories":[],"categories_nodes":[],"categories_segments":[],"categories_sizes":[],"default_left":[0,0,0,0,0,0,0,0,0,0,0,0,0,0,0],"id":46,"left_children":[1,3,5,7,9,11,13,-1,-1,-1,-1,-1,-1,-1,-1],"loss_changes":[5.271275E2,8.851587E1,1.8622314E2,2.3605162E1,7.550784E1,6.90685E1,1.6603647E2,0E0,0E0,0E0,0E0,0E0,0E0,0E0,0E0],"parents":[2147483647,0,0,1,1,2,2,3,3,4,4,5,5,6,6],"right_children":[2,4,6,8,10,12,14,-1,-1,-1,-1,-1,-1,-1,-1],"split_conditions":[1.9148937E-1,6.363636E-1,7.5783336E-1,4.1666668E-2,8.6384475E-1,7.035285E-1,2.085E1,4.945523E-3,-2.186503E-2,-2.9550101E-5,-5.095866E-3,-1.3097315E-2,-6.619433E-4,7.6737427E-3,-6.6396303E-4],"split_indices":[7,6,6,7,0,6,2,0,0,0,0,0,0,0,0],"split_type":[0,0,0,0,0,0,0,0,0,0,0,0,0,0,0],"sum_hessian":[3.202E4,1.7278E4,1.4742E4,1.234E3,1.6044E4,2.462E3,1.228E4,1.207E3,2.7E1,3.361E3,1.2683E4,5.05E2,1.957E3,9.512E3,2.768E3],"tree_param":{"num_deleted":"0","num_feature":"8","num_nodes":"15","size_leaf_vector":"1"}},{"base_weights":[2.6998576E-3,-9.495325E-2,1.3167676E-1,-1.5985908E-1,-3.7762154E-2,-1.12610236E-1,1.7699483E-1,-7.6750587E-3,-1.5193411E-3,-2.1733304E-3,4.7748834E-3,9.0030144E-4,-6.098441E-3,-1.9859007E-4,7.358153E-3],"categories":[],"categories_nodes":[],"categories_segments":[],"categories_sizes":[],"default_left":[0,0,0,0,0,0,0,0,0,0,0,0,0,0,0],"id":47,"left_children":[1,3,5,7,9,11,13,-1,-1,-1,-1,-1,-1,-1,-1],"loss_changes":[4.0424762E2,6.7566025E1,1.5326396E2,8.921268E1,6.6326584E1,2.81625E1,1.4658371E2,0E0,0E0,0E0,0E0,0E0,0E0,0E0,0E0],"parents":[2147483647,0,0,1,1,2,2,3,3,4,4,5,5,6,6],"right_children":[2,4,6,8,10,12,14,-1,-1,-1,-1,-1,-1,-1,-1],"split_conditions":[2.0512821E-1,2.7560976E1,2.5428572E1,7.6717E-1,1.6216215E-1,7.3530966E-1,7.8550446E-1,-7.6750587E-3,-1.5193411E-3,-2.1733304E-3,4.7748834E-3,9.0030144E-4,-6.098441E-3,-1.9859007E-4,7.358153E-3],"split_indices":[7,5,5,6,7,0,6,0,0,0,0,0,0,0,0],"split_type":[0,0,0,0,0,0,0,0,0,0,0,0,0,0,0],"sum_hessian":[3.2087E4,1.8257E4,1.383E4,8.541E3,9.716E3,2.16E3,1.167E4,4.539E3,4.002E3,8.267E3,1.449E3,8.36E2,1.324E3,3.16E3,8.51E3],"tree_param":{"num_deleted":"0","num_feature":"8","num_nodes":"15","size_leaf_vector":"1"}},{"base_weights":[7.092582E-3,-8.826452E-2,1.923008E-1,-1.7528054E-1,-4.1369643E-2,2.4943621E-1,-2.6008723E-2,3.0276931E-3,-6.9033876E-3,1.4772312E-2,-1.3989912E-3,6.1504417E-3,3.183279E-2,1.936686E-2,-1.8386955E-3],"categories":[],"categories_nodes":[],"categories_segments":[],"categories_sizes":[],"default_left":[0,0,0,0,0,0,0,0,0,0,0,0,0,0,0],"id":48,"left_children":[1,3,5,7,9,11,13,-1,-1,-1,-1,-1,-1,-1,-1],"loss_changes":[5.6304376E2,8.5609375E1,1.3541501E2,1.1165024E2,3.8062656E1,3.0790186E2,5.2774334E1,0E0,0E0,0E0,0E0,0E0,0E0,0E0,0E0],"parents":[2147483647,0,0,1,1,2,2,3,3,4,4,5,5,6,6],"right_children":[2,4,6,8,10,12,14,-1,-1,-1,-1,-1,-1,-1,-1],"split_conditions":[1.77E0,9.355556E-1,2.0897778E1,7.7683334E0,5.72822E-1,2.0536274E1,2.1875E-1,3.0276931E-3,-6.9033876E-3,1.4772312E-2,-1.3989912E-3,6.1504417E-3,3.183279E-2,1.936686E-2,-1.8386955E-3],"split_indices":[1,1,2,2,0,2,7,0,0,0,0,0,0,0,0],"split_type":[0,0,0,0,0,0,0,0,0,0,0,0,0,0,0],"sum_hessian":[3.1869E4,2.1035E4,1.0834E4,7.356E3,1.3679E4,8.59E3,2.244E3,1.215E3,6.141E3,1.29E2,1.355E4,8.149E3,4.41E2,1.08E2,2.136E3],"tree_param":{"num_deleted":"0","num_feature":"8","num_nodes":"15","size_leaf_vector":"1"}},{"base_weights":[-2.0435516E-2,-1.2034248E-1,1.091287E-1,-2.2259416E-1,-6.691535E-2,7.663195E-2,3.8833436E-1,-9.043494E-3,-4.5598852E-3,2.1282624E-2,-2.221571E-3,2.9878293E-3,-1.0862559E-2,6.7392527E-3,2.026297E-2],"categories":[],"categories_nodes":[],"categories_segments":[],"categories_sizes":[],"default_left":[0,0,0,0,0,0,0,0,0,0,0,0,0,0,0],"id":49,"left_children":[1,3,5,7,9,11,13,-1,-1,-1,-1,-1,-1,-1,-1],"loss_changes":[4.1333835E2,9.818036E1,1.2554617E2,3.3819E1,6.520763E1,1.2532726E2,6.6553696E1,0E0,0E0,0E0,0E0,0E0,0E0,0E0,0E0],"parents":[2147483647,0,0,1,1,2,2,3,3,4,4,5,5,6,6],"right_children":[2,4,6,8,10,12,14,-1,-1,-1,-1,-1,-1,-1,-1],"split_conditions":[1.5322223E0,2.6824324E1,3.0944445E0,7.536232E-1,2.6844828E1,2.9390697E0,6.658122E-1,-9.043494E-3,-4.5598852E-3,2.1282624E-2,-2.221571E-3,2.9878293E-3,-1.0862559E-2,6.7392527E-3,2.026297E-2],"split_indices":[1,5,1,6,5,1,0,0,0,0,0,0,0,0,0],"split_type":[0,0,0,0,0,0,0,0,0,0,0,0,0,0,0],"sum_hessian":[3.1925E4,1.803E4,1.3895E4,6.178E3,1.1852E4,1.2453E4,1.442E3,2.907E3,3.271E3,1.04E2,1.1748E4,1.1838E4,6.15E2,9.24E2,5.18E2],"tree_param":{"num_deleted":"0","num_feature":"8","num_nodes":"15","size_leaf_vector":"1"}},{"base_weights":[-5.3706793E-3,-7.5840615E-2,1.7539725E-1,-7.844101E-2,6.319387E-2,2.3045522E-1,-1.4218117E-1,-4.9069775E-3,-1.0764381E-3,-8.6962804E-4,9.518316E-3,-1.2060938E-2,-1.0153174E-3],"categories":[],"categories_nodes":[],"categories_segments":[],"categories_sizes":[],"default_left":[0,0,0,0,0,0,0,0,0,0,0,0,0],"id":50,"left_children":[1,3,5,7,-1,9,11,-1,-1,-1,-1,-1,-1],"loss_changes":[4.0668716E2,1.2887572E2,1.5673178E2,8.29501E1,0E0,1.7227429E2,3.6739525E1,0E0,0E0,0E0,0E0,0E0,0E0],"parents":[2147483647,0,0,1,1,2,2,3,3,5,5,6,6],"right_children":[2,4,6,8,-1,10,12,-1,-1,-1,-1,-1,-1],"split_conditions":[1.950244E0,1.0331141E0,2.199496E1,9.5666665E-1,6.319387E-2,7.9402024E-1,8.639552E-1,-4.9069775E-3,-1.0764381E-3,-8.6962804E-4,9.518316E-3,-1.2060938E-2,-1.0153174E-3],"split_indices":[1,6,2,1,0,6,6,0,0,0,0,0,0],"split_type":[0,0,0,0,0,0,0,0,0,0,0,0,0],"sum_hessian":[3.1927E4,2.2977E4,8.95E3,2.2953E4,2.4E1,7.631E3,1.319E3,7.64E3,1.5313E4,1.911E3,5.72E3,3.83E2,9.36E2],"tree_param":{"num_deleted":"0","num_feature":"8","num_nodes":"13","size_leaf_vector":"1"}},{"base_weights":[2.201053E-3,-8.292084E-2,1.7923473E-1,-1.2514101E-1,-1.1703608E-3,1.2032123E-1,5.392169E-1,-6.108618E-3,-2.1060384E-3,3.1422026E-4,-1.7786449E-2,5.2420115E-3,-3.631281E-3,2.3908975E-2,1.6529236E-3],"categories":[],"categories_nodes":[],"categories_segments":[],"categories_sizes":[],"default_left":[0,0,0,0,0,0,0,0,0,0,0,0,0,0,0],"id":51,"left_children":[1,3,5,7,9,11,13,-1,-1,-1,-1,-1,-1,-1,-1],"loss_changes":[4.7915323E2,7.3956635E1,2.1813763E2,6.0675858E1,5.1043503E1,1.1674008E2,1.7982431E2,0E0,0E0,0E0,0E0,0E0,0E0,0E0,0E0],"parents":[2147483647,0,0,1,1,2,2,3,3,4,4,5,5,6,6],"right_children":[2,4,6,8,10,12,14,-1,-1,-1,-1,-1,-1,-1,-1],"split_conditions":[1.8110938E0,2.887931E1,3.0944445E0,7.507945E-1,1.7811111E0,2.094111E1,2.085E1,-6.108618E-3,-2.1060384E-3,3.1422026E-4,-1.7786449E-2,5.2420115E-3,-3.631281E-3,2.3908975E-2,1.6529236E-3],"split_indices":[1,5,1,6,1,2,2,0,0,0,0,0,0,0,0],"split_type":[0,0,0,0,0,0,0,0,0,0,0,0,0,0,0],"sum_hessian":[3.1784E4,2.1461E4,1.0323E4,1.4143E4,7.318E3,8.877E3,1.446E3,5.813E3,8.33E3,7.178E3,1.4E2,7.248E3,1.629E3,9.41E2,5.05E2],"tree_param":{"num_deleted":"0","num_feature":"8","num_nodes":"15","size_leaf_vector":"1"}},{"base_weights":[8.108389E-5,-9.6942216E-2,1.1592204E-1,1.21874295E-1,-1.13793045E-1,-3.3522752E-1,1.3753639E-1,4.667286E-3,-1.5107331E-2,-5.9476644E-3,-1.698364E-3,-4.6968535E-3,-2.0579053E-2,5.1009143E-3,-1.5205464E-3],"categories":[],"categories_nodes":[],"categories_segments":[],"categories_sizes":[],"default_left":[0,0,0,0,0,0,0,0,0,0,0,0,0,0,0],"id":52,"left_children":[1,3,5,7,9,11,13,-1,-1,-1,-1,-1,-1,-1,-1],"loss_changes":[3.613953E2,6.453438E1,1.4289479E2,2.6193521E1,7.8183426E1,4.0758423E1,8.573358E1,0E0,0E0,0E0,0E0,0E0,0E0,0E0,0E0],"parents":[2147483647,0,0,1,1,2,2,3,3,4,4,5,5,6,6],"right_children":[2,4,6,8,10,12,14,-1,-1,-1,-1,-1,-1,-1,-1],"split_conditions":[1.9354838E-1,6.891667E0,7.119215E-1,3E0,7.484399E-1,2E0,2.1742708E1,4.667286E-3,-1.5107331E-2,-5.9476644E-3,-1.698364E-3,-4.6968535E-3,-2.0579053E-2,5.1009143E-3,-1.5205464E-3],"split_indices":[7,2,6,4,6,4,2,0,0,0,0,0,0,0,0],"split_type":[0,0,0,0,0,0,0,0,0,0,0,0,0,0,0],"sum_hessian":[3.2147E4,1.749E4,1.4657E4,1.245E3,1.6245E4,6.66E2,1.3991E4,1.185E3,6E1,6.548E3,9.697E3,4.46E2,2.2E2,1.1936E4,2.055E3],"tree_param":{"num_deleted":"0","num_feature":"8","num_nodes":"15","size_leaf_vector":"1"}},{"base_weights":[-3.0161466E-3,-7.2044514E-2,1.8885739E-1,1.789382E-1,-8.637558E-2,-2.0192339E-1,2.33959E-1,1.2567165E-2,1.5635259E-3,-4.0305723E-3,-1.0789259E-4,-1.7997336E-2,-1.7902944E-3,9.114941E-3,-5.895445E-4],"categories":[],"categories_nodes":[],"categories_segments":[],"categories_sizes":[],"default_left":[0,0,0,0,0,0,0,0,0,0,0,0,0,0,0],"id":53,"left_children":[1,3,5,7,9,11,13,-1,-1,-1,-1,-1,-1,-1,-1],"loss_changes":[4.2518542E2,8.490777E1,1.498439E2,3.820446E1,8.861926E1,4.893881E1,1.352781E2,0E0,0E0,0E0,0E0,0E0,0E0,0E0,0E0],"parents":[2147483647,0,0,1,1,2,2,3,3,4,4,5,5,6,6],"right_children":[2,4,6,8,10,12,14,-1,-1,-1,-1,-1,-1,-1,-1],"split_conditions":[3.255814E-1,6.363636E-1,7.560701E-1,2.6844828E1,1.6E-1,7.164641E-1,2.094111E1,1.2567165E-2,1.5635259E-3,-4.0305723E-3,-1.0789259E-4,-1.7997336E-2,-1.7902944E-3,9.114941E-3,-5.895445E-4],"split_indices":[7,6,6,5,7,6,2,0,0,0,0,0,0,0,0],"split_type":[0,0,0,0,0,0,0,0,0,0,0,0,0,0,0],"sum_hessian":[3.2105E4,2.3616E4,8.489E3,1.27E3,2.2346E4,8.75E2,7.614E3,4.34E2,8.36E2,1.4138E4,8.208E3,2.26E2,6.49E2,5.972E3,1.642E3],"tree_param":{"num_deleted":"0","num_feature":"8","num_nodes":"15","size_leaf_vector":"1"}},{"base_weights":[2.7300261E-3,-4.1770518E-2,2.6510838E-1,6.101451E-2,-9.018803E-2,6.3335645E-1,1.942887E-1,-1.4270102E-2,2.264477E-3,3.751311E-3,-3.1648423E-3,1.436765E-2,9.871468E-2,-2.5699623E-2,6.6452664E-3],"categories":[],"categories_nodes":[],"categories_segments":[],"categories_sizes":[],"default_left":[0,0,0,0,0,0,0,0,0,0,0,0,0,0,0],"id":54,"left_children":[1,3,5,7,9,11,13,-1,-1,-1,-1,-1,-1,-1,-1],"loss_changes":[3.73164E2,1.3593657E2,1.1968036E2,6.7563965E1,6.1198746E1,2.9680612E2,1.11329285E2,0E0,0E0,0E0,0E0,0E0,0E0,0E0,0E0],"parents":[2147483647,0,0,1,1,2,2,3,3,4,4,5,5,6,6],"right_children":[2,4,6,8,10,12,14,-1,-1,-1,-1,-1,-1,-1,-1],"split_conditions":[2.395E0,8.3518314E-1,4.1379312E-1,5.091946E-1,6.363636E-1,4.1025642E-1,7.226891E-1,-1.4270102E-2,2.264477E-3,3.751311E-3,-3.1648423E-3,1.436765E-2,9.871468E-2,-2.5699623E-2,6.6452664E-3],"split_indices":[1,0,7,0,6,7,6,0,0,0,0,0,0,0,0],"split_type":[0,0,0,0,0,0,0,0,0,0,0,0,0,0,0],"sum_hessian":[3.1935E4,2.7303E4,4.632E3,8.736E3,1.8567E4,7.41E2,3.891E3,2.25E2,8.511E3,1.227E3,1.734E4,7.04E2,3.7E1,9.5E1,3.796E3],"tree_param":{"num_deleted":"0","num_feature":"8","num_nodes":"15","size_leaf_vector":"1"}},{"base_weights":[5.056645E-3,-9.440922E-2,1.20437995E-1,1.578963E-1,-1.14227414E-1,-8.060153E-2,1.6610597E-1,1.2454292E-2,7.312328E-4,-5.480566E-3,-1.9584945E-3,-3.3281501E-3,3.649637E-2,-1.4134664E-2,5.4223803E-3],"categories":[],"categories_nodes":[],"categories_segments":[],"categories_sizes":[],"default_left":[0,0,0,0,0,0,0,0,0,0,0,0,0,0,0],"id":55,"left_children":[1,3,5,7,9,11,13,-1,-1,-1,-1,-1,-1,-1,-1],"loss_changes":[3.664476E2,8.572453E1,1.3587694E2,4.2327824E1,5.2987976E1,1.06925125E2,1.1242331E2,0E0,0E0,0E0,0E0,0E0,0E0,0E0,0E0],"parents":[2147483647,0,0,1,1,2,2,3,3,4,4,5,5,6,6],"right_children":[2,4,6,8,10,12,14,-1,-1,-1,-1,-1,-1,-1,-1],"split_conditions":[1.4761539E0,6.363636E-1,2.5677965E1,2.6844828E1,9.6619046E-1,4.0316668E0,6.92741E-1,1.2454292E-2,7.312328E-4,-5.480566E-3,-1.9584945E-3,-3.3281501E-3,3.649637E-2,-1.4134664E-2,5.4223803E-3],"split_indices":[1,6,5,5,1,1,6,0,0,0,0,0,0,0,0],"split_type":[0,0,0,0,0,0,0,0,0,0,0,0,0,0,0],"sum_hessian":[3.1922E4,1.7139E4,1.4783E4,1.243E3,1.5896E4,2.732E3,1.2051E4,4.2E2,8.23E2,6.615E3,9.281E3,2.673E3,5.9E1,2.67E2,1.1784E4],"tree_param":{"num_deleted":"0","num_feature":"8","num_nodes":"15","size_leaf_vector":"1"}},{"base_weights":[1.3461838E-2,-2.436016E-2,2.4960665E-1,-7.1609974E-2,5.771673E-2,-1.6267467E-1,3.2064322E-1,5.683424E-3,-2.7482635E-3,1.5767778E-3,5.6003973E-2,-1.4839467E-3,-2.2379512E-2,2.5503032E-2,8.13284E-3],"categories":[],"categories_nodes":[],"categories_segments":[],"categories_sizes":[],"default_left":[0,0,0,0,0,0,0,0,0,0,0,0,0,0,0],"id":56,"left_children":[1,3,5,7,9,11,13,-1,-1,-1,-1,-1,-1,-1,-1],"loss_changes":[2.861398E2,1.07023575E2,1.2985107E2,9.141809E1,9.1779686E1,4.2017445E1,9.724652E1,0E0,0E0,0E0,0E0,0E0,0E0,0E0,0E0],"parents":[2147483647,0,0,1,1,2,2,3,3,4,4,5,5,6,6],"right_children":[2,4,6,8,10,12,14,-1,-1,-1,-1,-1,-1,-1,-1],"split_conditions":[2.4266667E0,1.5E0,7.9607064E-1,6.363636E-1,1.0597329E0,1E0,2.5E0,5.683424E-3,-2.7482635E-3,1.5767778E-3,5.6003973E-2,-1.4839467E-3,-2.2379512E-2,2.5503032E-2,8.13284E-3],"split_indices":[1,1,6,6,6,7,1,0,0,0,0,0,0,0,0],"split_type":[0,0,0,0,0,0,0,0,0,0,0,0,0,0,0],"sum_hessian":[3.2007E4,2.7587E4,4.42E3,1.7516E4,1.0071E4,6.47E2,3.773E3,1.241E3,1.6275E4,1.0046E4,2.5E1,5.46E2,1.01E2,3.17E2,3.456E3],"tree_param":{"num_deleted":"0","num_feature":"8","num_nodes":"15","size_leaf_vector":"1"}},{"base_weights":[3.464255E-3,-8.404074E-2,1.0396423E-1,1.3777515E-1,-1.0105052E-1,-1.0836713E-1,1.4481899E-1,3.5200834E-3,3.2769658E-2,-8.302666E-3,-2.26996E-3,-4.82789E-4,-1.1207475E-2,5.670566E-3,-2.649799E-3],"categories":[],"categories_nodes":[],"categories_segments":[],"categories_sizes":[],"default_left":[0,0,0,0,0,0,0,0,0,0,0,0,0,0,0],"id":57,"left_children":[1,3,5,7,9,11,13,-1,-1,-1,-1,-1,-1,-1,-1],"loss_changes":[2.8050357E2,6.4312744E1,1.289035E2,2.2032465E1,7.021814E1,5.8179512E1,1.285409E2,0E0,0E0,0E0,0E0,0E0,0E0,0E0,0E0],"parents":[2147483647,0,0,1,1,2,2,3,3,4,4,5,5,6,6],"right_children":[2,4,6,8,10,12,14,-1,-1,-1,-1,-1,-1,-1,-1],"split_conditions":[1.4761539E0,6.363636E-1,7.5783336E-1,1.095606E1,1.12125E1,7.445914E-1,2.1742708E1,3.5200834E-3,3.2769658E-2,-8.302666E-3,-2.26996E-3,-4.82789E-4,-1.1207475E-2,5.670566E-3,-2.649799E-3],"split_indices":[1,6,6,2,2,6,2,0,0,0,0,0,0,0,0],"split_type":[0,0,0,0,0,0,0,0,0,0,0,0,0,0,0],"sum_hessian":[3.1888E4,1.7041E4,1.4847E4,1.208E3,1.5833E4,2.391E3,1.2456E4,1.187E3,2.1E1,1.99E3,1.3843E4,1.779E3,6.12E2,1.0475E4,1.981E3],"tree_param":{"num_deleted":"0","num_feature":"8","num_nodes":"15","size_leaf_vector":"1"}},{"base_weights":[7.3262877E-3,-5.0503638E-2,1.8283215E-1,-5.2854773E-2,4.491027E-2,2.4377178E-1,-1.4954107E-1,1.3424179E-3,-2.7240254E-3,-2.0276802E-3,9.119384E-3,3.5727546E-2,-5.4002563E-3],"categories":[],"categories_nodes":[],"categories_segments":[],"categories_sizes":[],"default_left":[0,0,0,0,0,0,0,0,0,0,0,0,0],"id":58,"left_children":[1,3,5,7,-1,9,11,-1,-1,-1,-1,-1,-1],"loss_changes":[3.2523807E2,8.6438965E1,1.610867E2,8.9152405E1,0E0,1.26198456E2,4.986593E1,0E0,0E0,0E0,0E0,0E0,0E0],"parents":[2147483647,0,0,1,1,2,2,3,3,5,5,6,6],"right_children":[2,4,6,8,-1,10,12,-1,-1,-1,-1,-1,-1],"split_conditions":[2.0092857E0,1.0331141E0,1E0,8.5238636E-1,4.491027E-2,2.5428572E1,2.375E1,1.3424179E-3,-2.7240254E-3,-2.0276802E-3,9.119384E-3,3.5727546E-2,-5.4002563E-3],"split_indices":[1,6,3,0,0,5,5,0,0,0,0,0,0],"split_type":[0,0,0,0,0,0,0,0,0,0,0,0,0],"sum_hessian":[3.2026E4,2.4086E4,7.94E3,2.4053E4,3.3E1,6.713E3,1.227E3,6.726E3,1.7327E4,1.085E3,5.628E3,2.4E1,1.203E3],"tree_param":{"num_deleted":"0","num_feature":"8","num_nodes":"13","size_leaf_vector":"1"}},{"base_weights":[-6.2824176E-3,-5.6408815E-2,1.6000819E-1,-1.07956596E-1,-3.7657917E-3,-1.0414038E-1,2.2634384E-1,3.4818838E-3,-3.9924355E-3,-6.3957437E-3,6.7007646E-4,1.2708257E-2,-6.185865E-3,9.951828E-3,-2.2527508E-3],"categories":[],"categories_nodes":[],"categories_segments":[],"categories_sizes":[],"default_left":[0,0,0,0,0,0,0,0,0,0,0,0,0,0,0],"id":59,"left_children":[1,3,5,7,9,11,13,-1,-1,-1,-1,-1,-1,-1,-1],"loss_changes":[2.6756128E2,6.685404E1,1.3043745E2,7.0187546E1,6.701501E1,8.034913E1,1.8918268E2,0E0,0E0,0E0,0E0,0E0,0E0,0E0,0E0],"parents":[2147483647,0,0,1,1,2,2,3,3,4,4,5,5,6,6],"right_children":[2,4,6,8,10,12,14,-1,-1,-1,-1,-1,-1,-1,-1],"split_conditions":[3.478261E-1,1.2E-1,7.9320985E-1,6.363636E-1,2.5E1,3.75E-1,2.0897778E1,3.4818838E-3,-3.9924355E-3,-6.3957437E-3,6.7007646E-4,1.2708257E-2,-6.185865E-3,9.951828E-3,-2.2527508E-3],"split_indices":[7,7,6,6,5,7,2,0,0,0,0,0,0,0,0],"split_type":[0,0,0,0,0,0,0,0,0,0,0,0,0,0,0],"sum_hessian":[3.2105E4,2.4675E4,7.43E3,1.2456E4,1.2219E4,1.488E3,5.942E3,1.251E3,1.1205E4,1.356E3,1.0863E4,2.38E2,1.25E3,4.405E3,1.537E3],"tree_param":{"num_deleted":"0","num_feature":"8","num_nodes":"15","size_leaf_vector":"1"}},{"base_weights":[1.1542293E-2,1.09824315E-1,-6.5392196E-2,1.5823323E-1,-9.043853E-2,-7.964812E-2,4.416876E-1,3.908876E-3,2.4714608E-2,1.5727349E-2,-4.2944998E-3,5.4152827E-3,-3.0069922E-3,1.8017188E-2,-3.317627E-2],"categories":[],"categories_nodes":[],"categories_segments":[],"categories_sizes":[],"default_left":[0,0,0,0,0,0,0,0,0,0,0,0,0,0,0],"id":60,"left_children":[1,3,5,7,9,11,13,-1,-1,-1,-1,-1,-1,-1,-1],"loss_changes":[2.4189832E2,1.3631854E2,1.2940088E2,2.0921637E2,8.839564E1,9.342453E1,1.2172497E2,0E0,0E0,0E0,0E0,0E0,0E0,0E0,0E0],"parents":[2147483647,0,0,1,1,2,2,3,3,4,4,5,5,6,6],"right_children":[2,4,6,8,10,12,14,-1,-1,-1,-1,-1,-1,-1,-1],"split_conditions":[8.762315E-1,2.085E1,9.482332E-1,2.0536274E1,8.03125E-1,6.363636E-1,1E0,3.908876E-3,2.4714608E-2,1.5727349E-2,-4.2944998E-3,5.4152827E-3,-3.0069922E-3,1.8017188E-2,-3.317627E-2],"split_indices":[0,2,6,2,6,6,7,0,0,0,0,0,0,0,0],"split_type":[0,0,0,0,0,0,0,0,0,0,0,0,0,0,0],"sum_hessian":[3.198E4,1.4047E4,1.7933E4,1.1317E4,2.73E3,1.7447E4,4.86E2,1.0866E4,4.51E2,2.12E2,2.518E3,1.274E3,1.6173E4,4.43E2,4.3E1],"tree_param":{"num_deleted":"0","num_feature":"8","num_nodes":"15","size_leaf_vector":"1"}},{"base_weights":[-4.1490732E-4,-5.7858072E-2,1.596358E-1,-5.9865307E-2,5.38501E-2,-5.973446E-1,1.7798938E-1,-3.9659957E-3,-7.999878E-4,-9.07901E-3,-2.2917926E-2,7.1558934E-3,-9.1199094E-4],"categories":[],"categories_nodes":[],"categories_segments":[],"categories_sizes":[],"default_left":[0,0,0,0,0,0,0,0,0,0,0,0,0],"id":61,"left_children":[1,3,5,7,-1,9,11,-1,-1,-1,-1,-1,-1],"loss_changes":[2.935765E2,8.602768E1,1.1704797E2,5.6237923E1,0E0,8.0097275E0,1.0413495E2,0E0,0E0,0E0,0E0,0E0,0E0],"parents":[2147483647,0,0,1,1,2,2,3,3,5,5,6,6],"right_children":[2,4,6,8,-1,10,12,-1,-1,-1,-1,-1,-1],"split_conditions":[3.3333334E-1,1.0331141E0,7.1306306E-1,9.4E-1,5.38501E-2,2.6016666E1,2.0808332E1,-3.9659957E-3,-7.999878E-4,-9.07901E-3,-2.2917926E-2,7.1558934E-3,-9.1199094E-4],"split_indices":[7,6,6,1,0,5,2,0,0,0,0,0,0],"split_type":[0,0,0,0,0,0,0,0,0,0,0,0,0],"sum_hessian":[3.1937E4,2.3508E4,8.429E3,2.3486E4,2.2E1,1.96E2,8.233E3,7.376E3,1.611E4,7.6E1,1.2E2,6.383E3,1.85E3],"tree_param":{"num_deleted":"0","num_feature":"8","num_nodes":"13","size_leaf_vector":"1"}},{"base_weights":[-1.8923554E-3,-3.9643712E-2,2.0464566E-1,-4.176871E-2,6.1482523E-2,-8.0883825E-1,2.23998E-1,6.434665E-4,-2.4034975E-3,-1.2124043E-2,-3.4963377E-2,8.141195E-3,-8.988823E-4],"categories":[],"categories_nodes":[],"categories_segments":[],"categories_sizes":[],"default_left":[0,0,0,0,0,0,0,0,0,0,0,0,0],"id":62,"left_children":[1,3,5,7,-1,9,11,-1,-1,-1,-1,-1,-1],"loss_changes":[2.486333E2,1.1802909E2,9.659329E1,6.541704E1,0E0,1.0294903E1,5.8473938E1,0E0,0E0,0E0,0E0,0E0,0E0],"parents":[2147483647,0,0,1,1,2,2,3,3,5,5,6,6],"right_children":[2,4,6,8,-1,10,12,-1,-1,-1,-1,-1,-1],"split_conditions":[2.3575E0,1.0597329E0,7.164641E-1,8.762315E-1,6.1482523E-2,2E0,1E0,6.434665E-4,-2.4034975E-3,-1.2124043E-2,-3.4963377E-2,8.141195E-3,-8.988823E-4],"split_indices":[1,6,6,0,0,4,3,0,0,0,0,0,0],"split_type":[0,0,0,0,0,0,0,0,0,0,0,0,0],"sum_hessian":[3.1903E4,2.6979E4,4.924E3,2.6955E4,2.4E1,8.9E1,4.835E3,1.0168E4,1.6787E4,4.6E1,4.3E1,4.078E3,7.57E2],"tree_param":{"num_deleted":"0","num_feature":"8","num_nodes":"13","size_leaf_vector":"1"}},{"base_weights":[-2.0731376E-3,-7.788759E-2,9.628414E-2,-1.311865E-1,-3.1706892E-2,-9.4772175E-2,1.39499E-1,3.073148E-3,-5.1783007E-3,-8.1869345E-3,-3.2369295E-4,-3.529245E-3,2.3599908E-2,4.5547998E-3,-2.1861926E-2],"categories":[],"categories_nodes":[],"categories_segments":[],"categories_sizes":[],"default_left":[0,0,0,0,0,0,0,0,0,0,0,0,0,0,0],"id":63,"left_children":[1,3,5,7,9,11,13,-1,-1,-1,-1,-1,-1,-1,-1],"loss_changes":[2.3796135E2,4.4198395E1,1.14733734E2,8.1008316E1,4.8507965E1,5.1192528E1,1.2102295E2,0E0,0E0,0E0,0E0,0E0,0E0,0E0,0E0],"parents":[2147483647,0,0,1,1,2,2,3,3,4,4,5,5,6,6],"right_children":[2,4,6,8,10,12,14,-1,-1,-1,-1,-1,-1,-1,-1],"split_conditions":[1.5322223E0,1E0,2.5677965E1,7.7683334E0,1.12125E1,4.0316668E0,3.3714287E1,3.073148E-3,-5.1783007E-3,-8.1869345E-3,-3.2369295E-4,-3.529245E-3,2.3599908E-2,4.5547998E-3,-2.1861926E-2],"split_indices":[1,1,5,2,2,1,5,0,0,0,0,0,0,0,0],"split_type":[0,0,0,0,0,0,0,0,0,0,0,0,0,0,0],"sum_hessian":[3.1908E4,1.8025E4,1.3883E4,8.355E3,9.67E3,2.556E3,1.1327E4,1.254E3,7.101E3,7.65E2,8.905E3,2.495E3,6.1E1,1.1172E4,1.55E2],"tree_param":{"num_deleted":"0","num_feature":"8","num_nodes":"15","size_leaf_vector":"1"}},{"base_weights":[-2.4187933E-3,-3.6832765E-2,1.9883928E-1,-1.4648573E-1,-1.2519422E-2,2.6544693E-1,-1.9540572E-1,9.129011E-3,-4.9981326E-3,-4.3913917E-4,6.0590886E-2,4.4347914E-3,1.6021842E-2,-1.11163175E-2,1.8404372E-4],"categories":[],"categories_nodes":[],"categories_segments":[],"categories_sizes":[],"default_left":[0,0,0,0,0,0,0,0,0,0,0,0,0,0,0],"id":64,"left_children":[1,3,5,7,9,11,13,-1,-1,-1,-1,-1,-1,-1,-1],"loss_changes":[2.2301164E2,7.3207306E1,1.2367265E2,4.5242653E1,9.5113335E1,1.2624948E2,2.433819E1,0E0,0E0,0E0,0E0,0E0,0E0,0E0,0E0],"parents":[2147483647,0,0,1,1,2,2,3,3,4,4,5,5,6,6],"right_children":[2,4,6,8,10,12,14,-1,-1,-1,-1,-1,-1,-1,-1],"split_conditions":[2.395E0,2.5677965E1,2.2087719E1,6.363636E-1,1.0597329E0,8.9408195E-1,2.7815384E1,9.129011E-3,-4.9981326E-3,-4.3913917E-4,6.0590886E-2,4.4347914E-3,1.6021842E-2,-1.11163175E-2,1.8404372E-4],"split_indices":[1,5,2,6,6,6,5,0,0,0,0,0,0,0,0],"split_type":[0,0,0,0,0,0,0,0,0,0,0,0,0,0,0],"sum_hessian":[3.2216E4,2.7518E4,4.698E3,4.984E3,2.2534E4,4.022E3,6.76E2,2.09E2,4.775E3,2.2514E4,2E1,2.803E3,1.219E3,3.63E2,3.13E2],"tree_param":{"num_deleted":"0","num_feature":"8","num_nodes":"15","size_leaf_vector":"1"}},{"base_weights":[-6.15856E-4,9.648253E-2,-7.6553494E-2,2.5837153E-2,1.8114373E-1,-1.4592247E-1,-2.0526068E-2,1.5825587E-3,-7.950673E-3,1.0667758E-2,2.5412694E-3,3.0316531E-3,-4.945226E-3,-2.9715814E-3,2.7639812E-3],"categories":[],"categories_nodes":[],"categories_segments":[],"categories_sizes":[],"default_left":[0,0,0,0,0,0,0,0,0,0,0,0,0,0,0],"id":65,"left_children":[1,3,5,7,9,11,13,-1,-1,-1,-1,-1,-1,-1,-1],"loss_changes":[2.3654161E2,8.395448E1,6.981771E1,5.9967663E1,1.0705159E2,3.7670715E1,8.8271454E1,0E0,0E0,0E0,0E0,0E0,0E0,0E0,0E0],"parents":[2147483647,0,0,1,1,2,2,3,3,4,4,5,5,6,6],"right_children":[2,4,6,8,10,12,14,-1,-1,-1,-1,-1,-1,-1,-1],"split_conditions":[8.762315E-1,3.255814E-1,2.7333334E1,3.030303E-1,1.7755661E1,6.891667E0,1.2E-1,1.5825587E-3,-7.950673E-3,1.0667758E-2,2.5412694E-3,3.0316531E-3,-4.945226E-3,-2.9715814E-3,2.7639812E-3],"split_indices":[0,7,5,7,2,2,7,0,0,0,0,0,0,0,0],"split_type":[0,0,0,0,0,0,0,0,0,0,0,0,0,0,0],"sum_hessian":[3.2077E4,1.4071E4,1.8006E4,7.679E3,6.392E3,8.035E3,9.971E3,7.034E3,6.45E2,2.269E3,4.123E3,5.67E2,7.468E3,5.881E3,4.09E3],"tree_param":{"num_deleted":"0","num_feature":"8","num_nodes":"15","size_leaf_vector":"1"}},{"base_weights":[7.1516116E-3,-4.100489E-2,1.21073134E-1,-1.0839634E-2,-1.4992087E-1,1.6158691E-1,-1.0406084E-1,-2.6265844E-3,1.0772921E-3,-5.1557194E-3,4.0897653E-3,6.2960563E-3,5.7009736E-5,-1.7849289E-2,1.3637629E-3],"categories":[],"categories_nodes":[],"categories_segments":[],"categories_sizes":[],"default_left":[0,0,0,0,0,0,0,0,0,0,0,0,0,0,0],"id":66,"left_children":[1,3,5,7,9,11,13,-1,-1,-1,-1,-1,-1,-1,-1],"loss_changes":[1.7611525E2,7.391533E1,8.7122574E1,6.34237E1,3.0767288E1,6.2160355E1,1.0728303E2,0E0,0E0,0E0,0E0,0E0,0E0,0E0,0E0],"parents":[2147483647,0,0,1,1,2,2,3,3,4,4,5,5,6,6],"right_children":[2,4,6,8,10,12,14,-1,-1,-1,-1,-1,-1,-1,-1],"split_conditions":[1.887931E0,1.0383279E0,1E0,7.507945E-1,2.0715239E1,9.991346E-1,5.92535E-1,-2.6265844E-3,1.0772921E-3,-5.1557194E-3,4.0897653E-3,6.2960563E-3,5.7009736E-5,-1.7849289E-2,1.3637629E-3],"split_indices":[1,0,3,6,2,0,0,0,0,0,0,0,0,0,0],"split_type":[0,0,0,0,0,0,0,0,0,0,0,0,0,0,0],"sum_hessian":[3.2082E4,2.2545E4,9.537E3,1.7665E4,4.88E3,8.087E3,1.45E3,6.696E3,1.0969E4,4.537E3,3.43E2,6.204E3,1.883E3,3.38E2,1.112E3],"tree_param":{"num_deleted":"0","num_feature":"8","num_nodes":"15","size_leaf_vector":"1"}},{"base_weights":[-4.513391E-3,8.829873E-2,-7.645274E-2,1.066312E-1,-1.6638891E-1,-8.843434E-2,5.0820553E-1,-4.03167E-4,4.4443454E-3,4.8514446E-3,-1.3494833E-2,-2.8843707E-3,1.0331989E-2,2.4497809E-2,3.429803E-3],"categories":[],"categories_nodes":[],"categories_segments":[],"categories_sizes":[],"default_left":[0,0,0,0,0,0,0,0,0,0,0,0,0,0,0],"id":67,"left_children":[1,3,5,7,9,11,13,-1,-1,-1,-1,-1,-1,-1,-1],"loss_changes":[2.1311322E2,6.5042694E1,1.25723564E2,6.494978E1,8.727287E1,5.8698746E1,4.251731E1,0E0,0E0,0E0,0E0,0E0,0E0,0E0,0E0],"parents":[2147483647,0,0,1,1,2,2,3,3,4,4,5,5,6,6],"right_children":[2,4,6,8,10,12,14,-1,-1,-1,-1,-1,-1,-1,-1],"split_conditions":[8.762315E-1,3.0636364E1,9.6107614E-1,1.5466288E1,1.735625E1,3.0466666E0,2.066131E1,-4.03167E-4,4.4443454E-3,4.8514446E-3,-1.3494833E-2,-2.8843707E-3,1.0331989E-2,2.4497809E-2,3.429803E-3],"split_indices":[0,5,6,2,2,1,2,0,0,0,0,0,0,0,0],"split_type":[0,0,0,0,0,0,0,0,0,0,0,0,0,0,0],"sum_hessian":[3.1914E4,1.3929E4,1.7985E4,1.2999E4,9.3E2,1.7628E4,3.57E2,3.334E3,9.665E3,4.3E2,5E2,1.7324E4,3.04E2,1.97E2,1.6E2],"tree_param":{"num_deleted":"0","num_feature":"8","num_nodes":"15","size_leaf_vector":"1"}},{"base_weights":[-7.5511066E-3,-9.727013E-2,3.289024E-2,1.4207122E-1,-1.1614946E-1,-9.1128476E-2,5.9766654E-2,1.0825591E-2,-7.326912E-3,-6.368824E-3,-2.2529566E-3,-8.797229E-3,-9.599681E-4,1.1406419E-3,6.7917383E-3],"categories":[],"categories_nodes":[],"categories_segments":[],"categories_sizes":[],"default_left":[0,0,0,0,0,0,0,0,0,0,0,0,0,0,0],"id":68,"left_children":[1,3,5,7,9,11,13,-1,-1,-1,-1,-1,-1,-1,-1],"loss_changes":[1.164971E2,4.511022E1,7.368821E1,6.182399E1,3.6188698E1,4.6649185E1,6.5588524E1,0E0,0E0,0E0,0E0,0E0,0E0,0E0,0E0],"parents":[2147483647,0,0,1,1,2,2,3,3,4,4,5,5,6,6],"right_children":[2,4,6,8,10,12,14,-1,-1,-1,-1,-1,-1,-1,-1],"split_conditions":[9.090909E-2,2.41875E1,2.5677965E1,3E0,1E0,1.4278788E1,9.082535E-1,1.0825591E-2,-7.326912E-3,-6.368824E-3,-2.2529566E-3,-8.797229E-3,-9.599681E-4,1.1406419E-3,6.7917383E-3],"split_indices":[7,5,5,4,0,2,6,0,0,0,0,0,0,0,0],"split_type":[0,0,0,0,0,0,0,0,0,0,0,0,0,0,0],"sum_hessian":[3.2084E4,9.975E3,2.2109E4,7.24E2,9.251E3,3.93E3,1.8179E4,4.64E2,2.6E2,2.757E3,6.494E3,8.83E2,3.047E3,1.6089E4,2.09E3],"tree_param":{"num_deleted":"0","num_feature":"8","num_nodes":"15","size_leaf_vector":"1"}},{"base_weights":[2.0668241E-3,-6.2117994E-2,7.995247E-2,1.149009E-1,-7.856039E-2,9.266853E-2,-4.3026045E-1,5.0685E-3,-7.460785E-3,-3.1261537E-3,1.5079009E-3,-2.6031616E-3,4.0597618E-3,-1.9855874E-2,-7.544402E-4],"categories":[],"categories_nodes":[],"categories_segments":[],"categories_sizes":[],"default_left":[0,0,0,0,0,0,0,0,0,0,0,0,0,0,0],"id":69,"left_children":[1,3,5,7,9,11,13,-1,-1,-1,-1,-1,-1,-1,-1],"loss_changes":[1.598332E2,5.0981804E1,9.353218E1,2.9229406E1,5.30503E1,1.0803341E2,3.210176E1,0E0,0E0,0E0,0E0,0E0,0E0,0E0,0E0],"parents":[2147483647,0,0,1,1,2,2,3,3,4,4,5,5,6,6],"right_children":[2,4,6,8,10,12,14,-1,-1,-1,-1,-1,-1,-1,-1],"split_conditions":[1.5E0,3.0277777E-1,3.196923E1,3E0,2.9939394E1,2.5677965E1,1.8283333E1,5.0685E-3,-7.460785E-3,-3.1261537E-3,1.5079009E-3,-2.6031616E-3,4.0597618E-3,-1.9855874E-2,-7.544402E-4],"split_indices":[1,1,5,4,5,5,2,0,0,0,0,0,0,0,0],"split_type":[0,0,0,0,0,0,0,0,0,0,0,0,0,0,0],"sum_hessian":[3.1963E4,1.7516E4,1.4447E4,1.482E3,1.6034E4,1.41E4,3.47E2,1.294E3,1.88E2,1.3379E4,2.655E3,2.703E3,1.1397E4,2.18E2,1.29E2],"tree_param":{"num_deleted":"0","num_feature":"8","num_nodes":"15","size_leaf_vector":"1"}},{"base_weights":[1.73636E-3,-5.9684273E-2,8.402137E-2,-1.2455527E-1,7.431472E-4,-3.5346833E-1,9.782584E-2,3.7491603E-3,-4.298856E-3,8.9562135E-3,-4.4677808E-4,-6.0633346E-3,-1.921153E-2,3.9235293E-3,-3.0290778E-3],"categories":[],"categories_nodes":[],"categories_segments":[],"categories_sizes":[],"default_left":[0,0,0,0,0,0,0,0,0,0,0,0,0,0,0],"id":70,"left_children":[1,3,5,7,9,11,13,-1,-1,-1,-1,-1,-1,-1,-1],"loss_changes":[1.6136296E2,7.175009E1,8.2290794E1,4.131546E1,4.432215E1,1.683477E1,8.680461E1,0E0,0E0,0E0,0E0,0E0,0E0,0E0,0E0],"parents":[2147483647,0,0,1,1,2,2,3,3,4,4,5,5,6,6],"right_children":[2,4,6,8,10,12,14,-1,-1,-1,-1,-1,-1,-1,-1],"split_conditions":[2.0833333E-1,2.7666666E1,7.047117E-1,6.363636E-1,2.784375E1,2E0,2.1914743E1,3.7491603E-3,-4.298856E-3,8.9562135E-3,-4.4677808E-4,-6.0633346E-3,-1.921153E-2,3.9235293E-3,-3.0290778E-3],"split_indices":[7,5,6,6,5,4,2,0,0,0,0,0,0,0,0],"split_type":[0,0,0,0,0,0,0,0,0,0,0,0,0,0,0],"sum_hessian":[3.1917E4,1.8269E4,1.3648E4,8.817E3,9.452E3,4.13E2,1.3235E4,6.11E2,8.206E3,4.72E2,8.98E3,2.76E2,1.37E2,1.1358E4,1.877E3],"tree_param":{"num_deleted":"0","num_feature":"8","num_nodes":"15","size_leaf_vector":"1"}},{"base_weights":[-5.313128E-3,-9.600244E-2,2.6279027E-2,1.0456493E-1,-1.3266964E-1,-6.874946E-2,6.1668813E-2,1.6152538E-2,1.620032E-3,-8.246456E-3,-2.0903083E-3,-2.3618182E-3,2.6494242E-2,3.8210728E-4,4.7533195E-3],"categories":[],"categories_nodes":[],"categories_segments":[],"categories_sizes":[],"default_left":[0,0,0,0,0,0,0,0,0,0,0,0,0,0,0],"id":71,"left_children":[1,3,5,7,9,11,13,-1,-1,-1,-1,-1,-1,-1,-1],"loss_changes":[9.1856964E1,6.0999626E1,7.988451E1,2.7356201E1,6.239588E1,6.0560455E1,8.182083E1,0E0,0E0,0E0,0E0,0E0,0E0,0E0,0E0],"parents":[2147483647,0,0,1,1,2,2,3,3,4,4,5,5,6,6],"right_children":[2,4,6,8,10,12,14,-1,-1,-1,-1,-1,-1,-1,-1],"split_conditions":[1.3606884E1,6.891667E0,2.64E1,2.41875E1,3.7037037E-2,1.0331141E0,3.3333334E-1,1.6152538E-2,1.620032E-3,-8.246456E-3,-2.0903083E-3,-2.3618182E-3,2.6494242E-2,3.8210728E-4,4.7533195E-3],"split_indices":[2,2,5,5,7,6,7,0,0,0,0,0,0,0,0],"split_type":[0,0,0,0,0,0,0,0,0,0,0,0,0,0,0],"sum_hessian":[3.2031E4,8.282E3,2.3749E4,1.275E3,7.007E3,6.436E3,1.7313E4,1.28E2,1.147E3,2.143E3,4.864E3,6.373E3,6.3E1,1.1508E4,5.805E3],"tree_param":{"num_deleted":"0","num_feature":"8","num_nodes":"15","size_leaf_vector":"1"}},{"base_weights":[-8.041398E-3,-2.3570374E-2,3.2143342E-1,-6.2478814E-2,5.0277594E-2,4.315005E-1,-2.2196078E-1,3.376321E-3,-2.2206476E-3,-4.8665786E-3,2.8866434E-3,3.6831465E-2,1.0086586E-2,-1.9981372E-4,-2.3875812E-2],"categories":[],"categories_nodes":[],"categories_segments":[],"categories_sizes":[],"default_left":[0,0,0,0,0,0,0,0,0,0,0,0,0,0,0],"id":72,"left_children":[1,3,5,7,9,11,13,-1,-1,-1,-1,-1,-1,-1,-1],"loss_changes":[1.6371593E2,8.798799E1,8.6622986E1,4.0514694E1,1.03048035E2,8.8234695E1,2.9206846E1,0E0,0E0,0E0,0E0,0E0,0E0,0E0,0E0],"parents":[2147483647,0,0,1,1,2,2,3,3,4,4,5,5,6,6],"right_children":[2,4,6,8,10,12,14,-1,-1,-1,-1,-1,-1,-1,-1],"split_conditions":[3.0944445E0,1.68E0,9.8613864E-1,6.363636E-1,2.562745E1,5.217391E-1,2.92E1,3.376321E-3,-2.2206476E-3,-4.8665786E-3,2.8866434E-3,3.6831465E-2,1.0086586E-2,-1.9981372E-4,-2.3875812E-2],"split_indices":[1,1,6,6,5,7,5,0,0,0,0,0,0,0,0],"split_type":[0,0,0,0,0,0,0,0,0,0,0,0,0,0,0],"sum_hessian":[3.2049E4,3.0612E4,1.437E3,2.0058E4,1.0554E4,1.197E3,2.4E2,1.234E3,1.8824E4,1.871E3,8.683E3,1.23E2,1.074E3,1.78E2,6.2E1],"tree_param":{"num_deleted":"0","num_feature":"8","num_nodes":"15","size_leaf_vector":"1"}},{"base_weights":[-2.9463926E-3,-5.038696E-2,1.0750295E-1,-8.181447E-2,1.056331E-2,-1.7039683E-1,1.585223E-1,-5.5860933E-3,-1.4369874E-3,1.8571566E-3,-3.6173272E-3,-7.756564E-3,9.069996E-3,5.207484E-3,-2.2626344E-2],"categories":[],"categories_nodes":[],"categories_segments":[],"categories_sizes":[],"default_left":[0,0,0,0,0,0,0,0,0,0,0,0,0,0,0],"id":73,"left_children":[1,3,5,7,9,11,13,-1,-1,-1,-1,-1,-1,-1,-1],"loss_changes":[1.671867E2,4.285495E1,1.3595364E2,5.1948364E1,5.106737E1,6.2076107E1,1.1118417E2,0E0,0E0,0E0,0E0,0E0,0E0,0E0,0E0],"parents":[2147483647,0,0,1,1,2,2,3,3,4,4,5,5,6,6],"right_children":[2,4,6,8,10,12,14,-1,-1,-1,-1,-1,-1,-1,-1],"split_conditions":[1.887931E0,2.89375E1,2.5307692E1,1.26E1,1.7706738E1,3.1554167E0,3.3714287E1,-5.5860933E-3,-1.4369874E-3,1.8571566E-3,-3.6173272E-3,-7.756564E-3,9.069996E-3,5.207484E-3,-2.2626344E-2],"split_indices":[1,5,5,2,2,1,5,0,0,0,0,0,0,0,0],"split_type":[0,0,0,0,0,0,0,0,0,0,0,0,0,0,0],"sum_hessian":[3.1912E4,2.2331E4,9.581E3,1.4744E4,7.587E3,1.482E3,8.099E3,3.605E3,1.1139E4,5.459E3,2.128E3,1.252E3,2.3E2,7.971E3,1.28E2],"tree_param":{"num_deleted":"0","num_feature":"8","num_nodes":"15","size_leaf_vector":"1"}},{"base_weights":[-1.9491938E-3,-3.129013E-2,1.6810197E-1,-8.359948E-2,5.4994244E-3,-1.7309694E-1,2.487033E-1,-2.7024266E-3,2.3835152E-2,1.787531E-2,-9.970788E-5,-1.7183706E-2,-7.588283E-4,3.4701983E-3,1.44368885E-2],"categories":[],"categories_nodes":[],"categories_segments":[],"categories_sizes":[],"default_left":[0,0,0,0,0,0,0,0,0,0,0,0,0,0,0],"id":74,"left_children":[1,3,5,7,9,11,13,-1,-1,-1,-1,-1,-1,-1,-1],"loss_changes":[1.5983606E2,5.2710926E1,1.298174E2,6.384533E1,8.4186386E1,5.2526604E1,1.1727637E2,0E0,0E0,0E0,0E0,0E0,0E0,0E0,0E0],"parents":[2147483647,0,0,1,1,2,2,3,3,4,4,5,5,6,6],"right_children":[2,4,6,8,10,12,14,-1,-1,-1,-1,-1,-1,-1,-1],"split_conditions":[2.395E0,7.621212E-1,2.5653847E1,2.2307142E1,7.637242E-1,8.095749E-1,8.9245284E-1,-2.7024266E-3,2.3835152E-2,1.787531E-2,-9.970788E-5,-1.7183706E-2,-7.588283E-4,3.4701983E-3,1.44368885E-2],"split_indices":[1,6,5,2,6,6,6,0,0,0,0,0,0,0,0],"split_type":[0,0,0,0,0,0,0,0,0,0,0,0,0,0,0],"sum_hessian":[3.2056E4,2.7346E4,4.71E3,1.1301E4,1.6045E4,8.97E2,3.813E3,1.1222E4,7.9E1,2.35E2,1.581E4,2.38E2,6.59E2,2.431E3,1.382E3],"tree_param":{"num_deleted":"0","num_feature":"8","num_nodes":"15","size_leaf_vector":"1"}},{"base_weights":[6.861159E-3,-6.42666E-2,8.147992E-2,1.3943458E-1,-8.203325E-2,3.5270736E-1,5.8537647E-2,-1.4734517E-2,4.790216E-3,-7.103762E-3,-1.5259974E-3,-6.8757404E-4,2.0840509E-2,1.9788895E-4,5.7218284E-3],"categories":[],"categories_nodes":[],"categories_segments":[],"categories_sizes":[],"default_left":[0,0,0,0,0,0,0,0,0,0,0,0,0,0,0],"id":75,"left_children":[1,3,5,7,9,11,13,-1,-1,-1,-1,-1,-1,-1,-1],"loss_changes":[1.7006818E2,5.931907E1,9.686652E1,1.6648323E1,7.245039E1,1.5692126E2,9.8877106E1,0E0,0E0,0E0,0E0,0E0,0E0,0E0,0E0],"parents":[2147483647,0,0,1,1,2,2,3,3,4,4,5,5,6,6],"right_children":[2,4,6,8,10,12,14,-1,-1,-1,-1,-1,-1,-1,-1],"split_conditions":[7.9320985E-1,3.0277777E-1,8E-1,2E1,1.145625E1,1.5E0,2.3575E0,-1.4734517E-2,4.790216E-3,-7.103762E-3,-1.5259974E-3,-6.8757404E-4,2.0840509E-2,1.9788895E-4,5.7218284E-3],"split_indices":[6,1,6,5,2,1,1,0,0,0,0,0,0,0,0],"split_type":[0,0,0,0,0,0,0,0,0,0,0,0,0,0,0],"sum_hessian":[3.2034E4,1.6394E4,1.564E4,1.309E3,1.5085E4,1.213E3,1.4427E4,3.7E1,1.272E3,2.52E3,1.2565E4,5.78E2,6.35E2,1.0365E4,4.062E3],"tree_param":{"num_deleted":"0","num_feature":"8","num_nodes":"15","size_leaf_vector":"1"}},{"base_weights":[-1.1110345E-2,-7.906678E-2,5.0191365E-2,-6.685451E-2,-4.5039883E-1,7.668625E-2,-1.6715613E-1,-1.3058331E-3,-7.178037E-3,-9.111089E-3,-1.7691368E-2,6.736914E-3,1.037134E-3,-8.701644E-3,1.1843236E-3],"categories":[],"categories_nodes":[],"categories_segments":[],"categories_sizes":[],"default_left":[0,0,0,0,0,0,0,0,0,0,0,0,0,0,0],"id":76,"left_children":[1,3,5,7,9,11,13,-1,-1,-1,-1,-1,-1,-1,-1],"loss_changes":[1.3296875E2,6.805852E1,9.651965E1,5.8670296E1,8.358475E0,9.28493E1,4.6478424E1,0E0,0E0,0E0,0E0,0E0,0E0,0E0,0E0],"parents":[2147483647,0,0,1,1,2,2,3,3,4,4,5,5,6,6],"right_children":[2,4,6,8,10,12,14,-1,-1,-1,-1,-1,-1,-1,-1],"split_conditions":[7.8550446E-1,7.8264344E-1,1.0058998E0,1.7801626E1,7.839506E-1,8.095749E-1,1.9234762E1,-1.3058331E-3,-7.178037E-3,-9.111089E-3,-1.7691368E-2,6.736914E-3,1.037134E-3,-8.701644E-3,1.1843236E-3],"split_indices":[6,6,0,2,6,6,2,0,0,0,0,0,0,0,0],"split_type":[0,0,0,0,0,0,0,0,0,0,0,0,0,0,0],"sum_hessian":[3.1906E4,1.5139E4,1.6767E4,1.4663E4,4.76E2,1.4951E4,1.816E3,1.2924E4,1.739E3,2.4E2,2.36E2,3.306E3,1.1645E4,1.141E3,6.75E2],"tree_param":{"num_deleted":"0","num_feature":"8","num_nodes":"15","size_leaf_vector":"1"}},{"base_weights":[6.1635664E-3,-3.8660575E-2,8.99732E-2,1.7582768E-1,-5.215772E-2,1.20033294E-1,-1.913914E-1,6.150875E-3,-2.5175922E-2,-3.5936707E-3,-2.018288E-4,-3.5651722E-3,5.1475014E-3,1.6231342E-3,-1.0288029E-2],"categories":[],"categories_nodes":[],"categories_segments":[],"categories_sizes":[],"default_left":[0,0,0,0,0,0,0,0,0,0,0,0,0,0,0],"id":77,"left_children":[1,3,5,7,9,11,13,-1,-1,-1,-1,-1,-1,-1,-1],"loss_changes":[1.20152E2,6.0183105E1,9.428565E1,3.630986E1,6.0079704E1,1.2420097E2,4.0300682E1,0E0,0E0,0E0,0E0,0E0,0E0,0E0,0E0],"parents":[2147483647,0,0,1,1,2,2,3,3,4,4,5,5,6,6],"right_children":[2,4,6,8,10,12,14,-1,-1,-1,-1,-1,-1,-1,-1],"split_conditions":[1.75E0,6.363636E-1,3.0583334E1,4.1666668E-2,7.528265E-1,2.5428572E1,8.153153E-1,6.150875E-3,-2.5175922E-2,-3.5936707E-3,-2.018288E-4,-3.5651722E-3,5.1475014E-3,1.6231342E-3,-1.0288029E-2],"split_indices":[1,6,5,7,6,5,6,0,0,0,0,0,0,0,0],"split_type":[0,0,0,0,0,0,0,0,0,0,0,0,0,0,0],"sum_hessian":[3.1964E4,2.0819E4,1.1145E4,1.226E3,1.9593E4,1.0074E4,1.071E3,1.195E3,3.1E1,7.862E3,1.1731E4,1.784E3,8.29E3,4.07E2,6.64E2],"tree_param":{"num_deleted":"0","num_feature":"8","num_nodes":"15","size_leaf_vector":"1"}},{"base_weights":[-6.2483116E-3,-3.8425654E-2,1.6963916E-1,-4.0333096E-2,5.744195E-2,-1.3731113E-1,2.3220663E-1,-7.4433075E-4,-4.0665264E-3,1.9761648E-3,-1.3900243E-2,8.982023E-3,-4.2981817E-3],"categories":[],"categories_nodes":[],"categories_segments":[],"categories_sizes":[],"default_left":[0,0,0,0,0,0,0,0,0,0,0,0,0],"id":78,"left_children":[1,3,5,7,-1,9,11,-1,-1,-1,-1,-1,-1],"loss_changes":[1.813405E2,9.9356384E1,9.533263E1,3.9863514E1,0E0,5.6001434E1,1.0420726E2,0E0,0E0,0E0,0E0,0E0,0E0],"parents":[2147483647,0,0,1,1,2,2,3,3,5,5,6,6],"right_children":[2,4,6,8,-1,10,12,-1,-1,-1,-1,-1,-1],"split_conditions":[2.3575E0,1.0597329E0,7.97379E-1,1E0,5.744195E-2,2.7397223E0,1E0,-7.4433075E-4,-4.0665264E-3,1.9761648E-3,-1.3900243E-2,8.982023E-3,-4.2981817E-3],"split_indices":[1,6,6,3,0,1,3,0,0,0,0,0,0],"split_type":[0,0,0,0,0,0,0,0,0,0,0,0,0],"sum_hessian":[3.2058E4,2.7107E4,4.951E3,2.7084E4,2.3E1,8.35E2,4.116E3,2.33E4,3.784E3,5.14E2,3.21E2,3.494E3,6.22E2],"tree_param":{"num_deleted":"0","num_feature":"8","num_nodes":"13","size_leaf_vector":"1"}},{"base_weights":[-6.0948282E-3,-1.14898555E-1,1.8444128E-2,3.1646807E-3,-1.715722E-1,-1.9493373E-2,1.16395794E-1,-8.802134E-4,1.4734114E-2,-7.4190777E-3,-2.5633494E-3,-4.4045798E-4,-1.3367893E-2,3.449126E-2,2.583042E-3],"categories":[],"categories_nodes":[],"categories_segments":[],"categories_sizes":[],"default_left":[0,0,0,0,0,0,0,0,0,0,0,0,0,0,0],"id":79,"left_children":[1,3,5,7,9,11,13,-1,-1,-1,-1,-1,-1,-1,-1],"loss_changes":[8.528159E1,3.9506844E1,9.682111E1,3.0705524E1,2.5550156E1,3.7973072E1,2.2616946E2,0E0,0E0,0E0,0E0,0E0,0E0,0E0,0E0],"parents":[2147483647,0,0,1,1,2,2,3,3,4,4,5,5,6,6],"right_children":[2,4,6,8,10,12,14,-1,-1,-1,-1,-1,-1,-1,-1],"split_conditions":[2.5677965E1,2.4327272E1,1.950244E0,2.4288462E1,2.4981482E1,1.9266666E0,1.9744186E0,-8.802134E-4,1.4734114E-2,-7.4190777E-3,-2.5633494E-3,-4.4045798E-4,-1.3367893E-2,3.449126E-2,2.583042E-3],"split_indices":[5,5,1,5,5,1,1,0,0,0,0,0,0,0,0],"split_type":[0,0,0,0,0,0,0,0,0,0,0,0,0,0,0],"sum_hessian":[3.19E4,5.876E3,2.6024E4,1.901E3,3.975E3,1.8753E4,7.271E3,1.783E3,1.18E2,2.106E3,1.869E3,1.8549E4,2.04E2,2.03E2,7.068E3],"tree_param":{"num_deleted":"0","num_feature":"8","num_nodes":"15","size_leaf_vector":"1"}},{"base_weights":[1.1004039E-2,-5.406512E-2,7.5384974E-2,1.4478798E-1,-7.065829E-2,-7.9267204E-2,1.05333604E-1,3.6548865E-3,3.0321635E-2,-3.86005E-3,-9.134203E-4,-1.13347E-2,-5.538976E-4,4.3131476E-3,-3.0508738E-3],"categories":[],"categories_nodes":[],"categories_segments":[],"categories_sizes":[],"default_left":[0,0,0,0,0,0,0,0,0,0,0,0,0,0,0],"id":80,"left_children":[1,3,5,7,9,11,13,-1,-1,-1,-1,-1,-1,-1,-1],"loss_changes":[1.3402133E2,5.2423534E1,7.455538E1,2.2772085E1,3.407927E1,4.6890526E1,1.0738086E2,0E0,0E0,0E0,0E0,0E0,0E0,0E0,0E0],"parents":[2147483647,0,0,1,1,2,2,3,3,4,4,5,5,6,6],"right_children":[2,4,6,8,10,12,14,-1,-1,-1,-1,-1,-1,-1,-1],"split_conditions":[1.4E0,6.363636E-1,7.545255E-1,1.0833333E1,9.258621E-1,1.1954925E1,2.1742708E1,3.6548865E-3,3.0321635E-2,-3.86005E-3,-9.134203E-4,-1.13347E-2,-5.538976E-4,4.3131476E-3,-3.0508738E-3],"split_indices":[1,6,6,2,1,2,2,0,0,0,0,0,0,0,0],"split_type":[0,0,0,0,0,0,0,0,0,0,0,0,0,0,0],"sum_hessian":[3.1981E4,1.5898E4,1.6083E4,1.218E3,1.468E4,2.603E3,1.348E4,1.191E3,2.7E1,5.997E3,8.683E3,4.35E2,2.168E3,1.1374E4,2.106E3],"tree_param":{"num_deleted":"0","num_feature":"8","num_nodes":"15","size_leaf_vector":"1"}},{"base_weights":[-2.17574E-3,-3.428112E-2,1.0511602E-1,-1.4118285E-2,-2.291007E-1,1.284113E-1,-3.9681524E-1,-2.7104907E-3,8.3265477E-4,-1.55333765E-2,-4.5205057E-3,2.6846161E-2,3.4405342E-3,-1.4753916E-2,2.0073337E-2],"categories":[],"categories_nodes":[],"categories_segments":[],"categories_sizes":[],"default_left":[0,0,0,0,0,0,0,0,0,0,0,0,0,0,0],"id":81,"left_children":[1,3,5,7,9,11,13,-1,-1,-1,-1,-1,-1,-1,-1],"loss_changes":[1.1002386E2,9.6406204E1,8.587202E1,7.127566E1,5.12313E1,7.266667E1,3.3714115E1,0E0,0E0,0E0,0E0,0E0,0E0,0E0,0E0],"parents":[2147483647,0,0,1,1,2,2,3,3,4,4,5,5,6,6],"right_children":[2,4,6,8,10,12,14,-1,-1,-1,-1,-1,-1,-1,-1],"split_conditions":[8.520833E-1,8.333619E-1,3.1666666E1,1.3606884E1,2.6016666E1,2.1333334E1,2.3772223E1,-2.7104907E-3,8.3265477E-4,-1.55333765E-2,-4.5205057E-3,2.6846161E-2,3.4405342E-3,-1.4753916E-2,2.0073337E-2],"split_indices":[6,6,5,2,5,5,2,0,0,0,0,0,0,0,0],"split_type":[0,0,0,0,0,0,0,0,0,0,0,0,0,0,0],"sum_hessian":[3.1955E4,2.4604E4,7.351E3,2.2304E4,2.3E3,7.029E3,3.22E2,7.915E3,1.4389E4,4.85E2,1.815E3,1.19E2,6.91E3,2.98E2,2.4E1],"tree_param":{"num_deleted":"0","num_feature":"8","num_nodes":"15","size_leaf_vector":"1"}},{"base_weights":[5.857587E-3,-9.699895E-3,3.33232E-1,-7.2417185E-2,3.6282968E-2,1.572E-1,6.564101E-1,-1.8409535E-3,-1.8386506E-2,2.0175232E-3,-3.790423E-3,-1.3838306E-2,9.424631E-3,5.5697914E-2,1.1255739E-2],"categories":[],"categories_nodes":[],"categories_segments":[],"categories_sizes":[],"default_left":[0,0,0,0,0,0,0,0,0,0,0,0,0,0,0],"id":82,"left_children":[1,3,5,7,9,11,13,-1,-1,-1,-1,-1,-1,-1,-1],"loss_changes":[1.6267137E2,8.779596E1,8.130998E1,7.616062E1,8.834854E1,9.192418E1,1.6713615E2,0E0,0E0,0E0,0E0,0E0,0E0,0E0,0E0],"parents":[2147483647,0,0,1,1,2,2,3,3,4,4,5,5,6,6],"right_children":[2,4,6,8,10,12,14,-1,-1,-1,-1,-1,-1,-1,-1],"split_conditions":[3.0944445E0,2.72E1,6.689775E-1,5.833333E-1,1.0383279E0,6E-1,7.2975636E-1,-1.8409535E-3,-1.8386506E-2,2.0175232E-3,-3.790423E-3,-1.3838306E-2,9.424631E-3,5.5697914E-2,1.1255739E-2],"split_indices":[1,5,0,7,0,7,0,0,0,0,0,0,0,0,0],"split_type":[0,0,0,0,0,0,0,0,0,0,0,0,0,0,0],"sum_hessian":[3.1871E4,3.0425E4,1.446E3,1.2879E4,1.7546E4,9.41E2,5.05E2,1.2626E4,2.53E2,1.4746E4,2.8E3,1.88E2,7.53E2,9.2E1,4.13E2],"tree_param":{"num_deleted":"0","num_feature":"8","num_nodes":"15","size_leaf_vector":"1"}},{"base_weights":[-5.3389734E-3,-5.5151023E-2,4.5109812E-2,-3.2726265E-2,-1.1759938E-1,-2.5923306E-1,5.7243753E-2,-1.4916492E-3,4.369494E-3,-7.029798E-3,-4.3240466E-4,3.3387513E-4,-1.3276833E-2,2.5513016E-3,-1.8428835E-3],"categories":[],"categories_nodes":[],"categories_segments":[],"categories_sizes":[],"default_left":[0,0,0,0,0,0,0,0,0,0,0,0,0,0,0],"id":83,"left_children":[1,3,5,7,9,11,13,-1,-1,-1,-1,-1,-1,-1,-1],"loss_changes":[8.048239E1,2.2416603E1,5.8559307E1,3.5937798E1,5.089455E1,3.0532158E1,5.0501884E1,0E0,0E0,0E0,0E0,0E0,0E0,0E0,0E0],"parents":[2147483647,0,0,1,1,2,2,3,3,4,4,5,5,6,6],"right_children":[2,4,6,8,10,12,14,-1,-1,-1,-1,-1,-1,-1,-1],"split_conditions":[1.4033333E0,1.7568518E1,1.1954925E1,1.6616667E1,1E0,1.6473684E0,2.094111E1,-1.4916492E-3,4.369494E-3,-7.029798E-3,-4.3240466E-4,3.3387513E-4,-1.3276833E-2,2.5513016E-3,-1.8428835E-3],"split_indices":[1,2,2,2,0,1,2,0,0,0,0,0,0,0,0],"split_type":[0,0,0,0,0,0,0,0,0,0,0,0,0,0,0],"sum_hessian":[3.2017E4,1.612E4,1.5897E4,1.1876E4,4.244E3,6.04E2,1.5293E4,1.085E4,1.026E3,1.985E3,2.259E3,2.43E2,3.61E2,1.2398E4,2.895E3],"tree_param":{"num_deleted":"0","num_feature":"8","num_nodes":"15","size_leaf_vector":"1"}},{"base_weights":[-2.4464624E-3,-4.8811663E-2,5.2377924E-2,1.4330235E-1,-6.362607E-2,-3.024068E-1,6.645715E-2,1.1530368E-2,4.8953725E-4,3.382678E-2,-1.9679442E-3,-5.661603E-3,-2.3008613E-2,1.5422714E-2,1.7333527E-3],"categories":[],