{"learner":{"attributes":{"scikit_learn":"{\"_estimator_type\": \"regressor\"}"},"feature_names":[],"feature_types":[],"gradient_booster":{"model":{"cats":{"enc":[],"feature_segments":[],"sorted_idx":[]},"gbtree_model_param":{"num_parallel_tree":"1","num_trees":"400"},"iteration_indptr":[0,1,2,3,4,5,6,7,8,9,10,11,12,13,14,15,16,17,18,19,20,21,22,23,24,25,26,27,28,29,30,31,32,33,34,35,36,37,38,39,40,41,42,43,44,45,46,47,48,49,50,51,52,53,54,55,56,57,58,59,60,61,62,63,64,65,66,67,68,69,70,71,72,73,74,75,76,77,78,79,80,81,82,83,84,85,86,87,88,89,90,91,92,93,94,95,96,97,98,99,100,101,102,103,104,105,106,107,108,109,110,111,112,113,114,115,116,117,118,119,120,121,122,123,124,125,126,127,128,129,130,131,132,133,134,135,136,137,138,139,140,141,142,143,144,145,146,147,148,149,150,151,152,153,154,155,156,157,158,159,160,161,162,163,164,165,166,167,168,169,170,171,172,173,174,175,176,177,178,179,180,181,182,183,184,185,186,187,188,189,190,191,192,193,194,195,196,197,198,199,200,201,202,203,204,205,206,207,208,209,210,211,212,213,214,215,216,217,218,219,220,221,222,223,224,225,226,227,228,229,230,231,232,233,234,235,236,237,238,239,240,241,242,243,244,245,246,247,248,249,250,251,252,253,254,255,256,257,258,259,260,261,262,263,264,265,266,267,268,269,270,271,272,273,274,275,276,277,278,279,280,281,282,283,284,285,286,287,288,289,290,291,292,293,294,295,296,297,298,299,300,301,302,303,304,305,306,307,308,309,310,311,312,313,314,315,316,317,318,319,320,321,322,323,324,325,326,327,328,329,330,331,332,333,334,335,336,337,338,339,340,341,342,343,344,345,346,347,348,349,350,351,352,353,354,355,356,357,358,359,360,361,362,363,364,365,366,367,368,369,370,371,372,373,374,375,376,377,378,379,380,381,382,383,384,385,386,387,388,389,390,391,392,393,394,395,396,397,398,399,400],"tree_info":[0,0,0,0,0,0,0,0,0,0,0,0,0,0,0,0,0,0,0,0,0,0,0,0,0,0,0,0,0,0,0,0,0,0,0,0,0,0,0,0,0,0,0,0,0,0,0,0,0,0,0,0,0,0,0,0,0,0,0,0,0,0,0,0,0,0,0,0,0,0,0,0,0,0,0,0,0,0,0,0,0,0,0,0,0,0,0,0,0,0,0,0,0,0,0,0,0,0,0,0,0,0,0,0,0,0,0,0,0,0,0,0,0,0,0,0,0,0,0,0,0,0,0,0,0,0,0,0,0,0,0,0,0,0,0,0,0,0,0,0,0,0,0,0,0,0,0,0,0,0,0,0,0,0,0,0,0,0,0,0,0,0,0,0,0,0,0,0,0,0,0,0,0,0,0,0,0,0,0,0,0,0,0,0,0,0,0,0,0,0,0,0,0,0,0,0,0,0,0,0,0,0,0,0,0,0,0,0,0,0,0,0,0,0,0,0,0,0,0,0,0,0,0,0,0,0,0,0,0,0,0,0,0,0,0,0,0,0,0,0,0,0,0,0,0,0,0,0,0,0,0,0,0,0,0,0,0,0,0,0,0,0,0,0,0,0,0,0,0,0,0,0,0,0,0,0,0,0,0,0,0,0,0,0,0,0,0,0,0,0,0,0,0,0,0,0,0,0,0,0,0,0,0,0,0,0,0,0,0,0,0,0,0,0,0,0,0,0,0,0,0,0,0,0,0,0,0,0,0,0,0,0,0,0,0,0,0,0,0,0,0,0,0,0,0,0,0,0,0,0,0,0,0,0,0,0,0,0,0,0,0,0,0,0,0,0,0,0,0,0,0,0,0,0,0,0,0,0,0,0,0,0,0,0,0,0,0,0,0,0,0,0,0,0,0,0,0,0,0,0],"trees":[{"base_weights":[-5.8057153E-4,1.3595665E0,-3.983526E-2,5.907301E-2,9.8666847E-1,-1.7213024E-2,-1.7786329E0,5.543753E-1,4.608744E-2,9.773254E-2,-1.8663967E-1,-9.4335383E-1,-2.422459E0,9.759968E-3,3.0011525E-2,1.7427562E-3,1.2677197E-2,-2.4480373E-2,-6.1271684E-3,-6.404745E-2,-2.0165343E-2,-1.07894264E-1,-4.5532692E-2],"categories":[],"categories_nodes":[],"categories_segments":[],"categories_sizes":[],"default_left":[0,0,0,0,0,0,0,0,0,0,0,0,0,0,0,0,0,0,0,0,0,0,0],"id":0,"left_children":[1,3,5,-1,7,9,11,13,-1,15,17,19,21,-1,-1,-1,-1,-1,-1,-1,-1,-1,-1],"loss_changes":[7.120255E2,9.521118E0,5.089381E2,0E0,3.5728302E0,2.4987335E2,7.9151E1,6.028843E-1,0E0,9.028529E1,7.279169E1,1.7989197E1,1.9168762E1,0E0,0E0,0E0,0E0,0E0,0E0,0E0,0E0,0E0,0E0],"parents":[2147483647,0,0,1,1,2,2,4,4,5,5,6,6,7,7,9,9,10,10,11,11,12,12],"right_children":[2,4,6,-1,8,10,12,14,-1,16,18,20,22,-1,-1,-1,-1,-1,-1,-1,-1,-1,-1],"split_conditions":[3.4333333E-1,6.3497806E-1,1E0,5.907301E-2,1.1676811E1,1.9929167E0,3.7466667E0,1.6615385E0,4.608744E-2,1.648125E1,1.4387357E1,1.5620833E1,1.6666667E-1,9.759968E-3,3.0011525E-2,1.7427562E-3,1.2677197E-2,-2.4480373E-2,-6.1271684E-3,-6.404745E-2,-2.0165343E-2,-1.07894264E-1,-4.5532692E-2],"split_indices":[0,6,9,0,4,0,0,3,0,4,4,4,7,0,0,0,0,0,0,0,0,0,0],"split_type":[0,0,0,0,0,0,0,0,0,0,0,0,0,0,0,0,0,0,0,0,0,0,0],"sum_hessian":[1.3354447E4,3.7106125E2,1.2983386E4,2.7349655E2,9.756469E1,1.2820196E4,1.6318948E2,3.229844E1,6.526625E1,7.6354087E3,5.184788E3,7.492854E1,8.826094E1,1.708E1,1.5218437E1,6.1290737E3,1.5063346E3,3.7214148E2,4.8126465E3,2.5909636E1,4.9018906E1,6.93375E1,1.8923437E1],"tree_param":{"num_deleted":"0","num_feature":"14","num_nodes":"23","size_leaf_vector":"1"}},{"base_weights":[4.7541945E-3,1.345258E0,-3.4151036E-2,1.452762E0,1.0079043E0,-1.2898958E-2,-1.8040967E0,4.843698E-2,6.6007026E-2,1.2511306E-2,4.522396E-2,9.4534464E-2,-1.716787E-1,-1.0146477E0,-2.4666898E0,1.7038112E-3,1.2507545E-2,-1.5700545E-2,-4.123894E-3,-6.424815E-2,-2.4140874E-2,-1.11835904E-1,-3.439159E-2],"categories":[],"categories_nodes":[],"categories_segments":[],"categories_sizes":[],"default_left":[0,0,0,0,0,0,0,0,0,0,0,0,0,0,0,0,0,0,0,0,0,0,0],"id":1,"left_children":[1,3,5,7,9,11,13,-1,-1,-1,-1,15,17,19,21,-1,-1,-1,-1,-1,-1,-1,-1],"loss_changes":[7.0155084E2,6.9067993E0,4.889022E2,4.4490967E0,6.3429947E0,2.2011685E2,6.968396E1,0E0,0E0,0E0,0E0,8.673958E1,7.8279205E1,1.3404976E1,3.2016693E1,0E0,0E0,0E0,0E0,0E0,0E0,0E0,0E0],"parents":[2147483647,0,0,1,1,2,2,3,3,4,4,5,5,6,6,11,11,12,12,13,13,14,14],"right_children":[2,4,6,8,10,12,14,-1,-1,-1,-1,16,18,20,22,-1,-1,-1,-1,-1,-1,-1,-1],"split_conditions":[3.4333333E-1,6.7194443E0,1E0,1E0,9.96E0,1.9929167E0,3.7466667E0,4.843698E-2,6.6007026E-2,1.2511306E-2,4.522396E-2,1.6557823E1,1.646E1,1.5620833E1,1.6666667E-1,1.7038112E-3,1.2507545E-2,-1.5700545E-2,-4.123894E-3,-6.424815E-2,-2.4140874E-2,-1.11835904E-1,-3.439159E-2],"split_indices":[0,4,9,1,5,0,0,0,0,0,0,4,5,4,7,0,0,0,0,0,0,0,0],"split_type":[0,0,0,0,0,0,0,0,0,0,0,0,0,0,0,0,0,0,0,0,0,0,0],"sum_hessian":[1.3421102E4,3.7641626E2,1.3044685E4,2.756819E2,1.00734375E2,1.2893458E4,1.5122737E2,1.3579562E2,1.3988625E2,1.7933125E1,8.280125E1,7.6871206E3,5.206337E3,7.316174E1,7.806563E1,6.2154795E3,1.4716412E3,1.2269034E3,3.9794336E3,2.542526E1,4.7736485E1,6.243281E1,1.56328125E1],"tree_param":{"num_deleted":"0","num_feature":"14","num_nodes":"23","size_leaf_vector":"1"}},{"base_weights":[2.4723648E-3,2.411189E-2,-1.7246042E0,1.1327461E0,-3.9162724E-3,-1.8108056E0,-9.748785E-3,1.2678013E0,6.0911037E-2,6.28086E-2,-2.0032753E-1,-1.9906965E0,-9.1970235E-1,5.313713E-2,-5.76766E-3,1.13790305E-2,-1.4673384E-2,7.6584285E-3,6.899943E-4,-5.3837327E-3,-1.8556463E-2,-8.3027445E-2,-3.598353E-2,8.5393206E-4,-5.7031613E-2],"categories":[],"categories_nodes":[],"categories_segments":[],"categories_sizes":[],"default_left":[0,0,0,0,0,0,0,0,0,0,0,0,0,0,0,0,0,0,0,0,0,0,0,0,0],"id":2,"left_children":[1,3,5,7,9,11,-1,13,15,17,19,21,23,-1,-1,-1,-1,-1,-1,-1,-1,-1,-1,-1,-1],"loss_changes":[4.965279E2,4.102634E2,1.7607208E1,4.5565643E1,1.6850137E2,1.6323212E1,0E0,2.6425232E1,4.0951138E0,5.5964146E1,5.5723083E1,2.9987488E0,1.6935143E1,0E0,0E0,0E0,0E0,0E0,0E0,0E0,0E0,0E0,0E0,0E0,0E0],"parents":[2147483647,0,0,1,1,2,2,3,3,4,4,5,5,7,7,8,8,9,9,10,10,11,11,12,12],"right_children":[2,4,6,8,10,12,-1,14,16,18,20,22,24,-1,-1,-1,-1,-1,-1,-1,-1,-1,-1,-1,-1],"split_conditions":[1E0,6.3497806E-1,2.0072465E0,6.2733335E0,4.1666666E-1,1.6666667E-1,-9.748785E-3,4E0,7.4074075E-2,1E-1,7.676817E-1,1.869281E0,3.75E-1,5.313713E-2,-5.76766E-3,1.13790305E-2,-1.4673384E-2,7.6584285E-3,6.899943E-4,-5.3837327E-3,-1.8556463E-2,-8.3027445E-2,-3.598353E-2,8.5393206E-4,-5.7031613E-2],"split_indices":[9,6,3,5,9,7,0,10,9,9,8,3,7,0,0,0,0,0,0,0,0,0,0,0,0],"split_type":[0,0,0,0,0,0,0,0,0,0,0,0,0,0,0,0,0,0,0,0,0,0,0,0,0],"sum_hessian":[1.3324859E4,1.3163464E4,1.6139539E2,3.2255273E2,1.2840911E4,1.5124774E2,1.0147656E1,2.8514227E2,3.7410465E1,9.582494E3,3.2584177E3,1.2182938E2,2.941836E1,2.742524E2,1.0889844E1,2.6764463E1,1.0646E1,2.4977131E3,7.084781E3,2.614679E3,6.437389E2,1.0966375E2,1.2165625E1,1.06019535E1,1.8816406E1],"tree_param":{"num_deleted":"0","num_feature":"14","num_nodes":"25","size_leaf_vector":"1"}},{"base_weights":[-9.39141E-3,1.0370792E0,-3.5607945E-2,1.157512E0,-1.9910413E-1,-1.1474203E-1,3.3270177E-2,-9.0998136E-2,1.3020866E0,-1.6020464E-2,-0E0,-3.229877E-1,-9.271873E-2,4.3111403E-2,-4.8070085E-1,-1.3135301E-2,5.450168E-3,4.1990247E-2,5.8972076E-2,1.2739161E-2,-1.4843851E-2,-7.932423E-3,-1.9138101E-3,-7.590852E-4,4.254419E-3,-2.5541648E-2,6.3868747E-3],"categories":[],"categories_nodes":[],"categories_segments":[],"categories_sizes":[],"default_left":[0,0,0,0,0,0,0,0,0,0,0,0,0,0,0,0,0,0,0,0,0,0,0,0,0,0,0],"id":3,"left_children":[1,3,5,7,9,11,13,15,17,-1,-1,19,21,23,25,-1,-1,-1,-1,-1,-1,-1,-1,-1,-1,-1,-1],"loss_changes":[3.6678125E2,5.0288574E1,7.1375656E1,5.5515045E1,1.486812E0,2.7439926E1,3.496877E1,2.1121886E0,4.5126343E0,0E0,0E0,1.8220322E1,2.5876312E1,2.7036938E1,1.3886242E1,0E0,0E0,0E0,0E0,0E0,0E0,0E0,0E0,0E0,0E0,0E0,0E0],"parents":[2147483647,0,0,1,1,2,2,3,3,4,4,5,5,6,6,7,7,8,8,11,11,12,12,13,13,14,14],"right_children":[2,4,6,8,10,12,14,16,18,-1,-1,20,22,24,26,-1,-1,-1,-1,-1,-1,-1,-1,-1,-1,-1,-1],"split_conditions":[6.2733335E0,3E0,2.7547619E1,2E0,2.7547619E1,5.763505E-1,3.3333334E-1,1E0,1.6153846E0,-1.6020464E-2,-0E0,2.4363636E1,2.5192308E1,1E0,7.3600866E-2,-1.3135301E-2,5.450168E-3,4.1990247E-2,5.8972076E-2,1.2739161E-2,-1.4843851E-2,-7.932423E-3,-1.9138101E-3,-7.590852E-4,4.254419E-3,-2.5541648E-2,6.3868747E-3],"split_indices":[5,10,2,10,2,8,7,1,3,0,0,2,2,1,13,0,0,0,0,0,0,0,0,0,0,0,0],"split_type":[0,0,0,0,0,0,0,0,0,0,0,0,0,0,0,0,0,0,0,0,0,0,0,0,0,0,0],"sum_hessian":[1.3398647E4,3.2370438E2,1.3074942E4,2.958788E2,2.7825562E1,6.090308E3,6.984635E3,3.0103924E1,2.657749E2,1.3886855E1,1.3938705E1,5.742232E2,5.516085E3,6.8580156E3,1.26619385E2,1.6222988E1,1.3880935E1,1.1880091E2,1.4697398E2,3.743458E1,5.3678864E2,1.635364E3,3.8807207E3,3.4538394E3,3.404176E3,1.0284107E2,2.3778313E1],"tree_param":{"num_deleted":"0","num_feature":"14","num_nodes":"27","size_leaf_vector":"1"}},{"base_weights":[3.1023673E-4,1.224882E0,-3.5045475E-2,7.4235266E-1,1.2733997E0,-1.4990697E-2,-1.6722714E0,9.7847385E-3,3.4588777E-2,1.1590453E0,6.0537416E-2,3.0939113E-2,-3.190338E-1,-9.629023E-1,-2.23387E0,2.5135068E-2,4.778017E-2,8.768639E-3,-6.6428113E-4,-3.0825578E-2,-9.209128E-3,-5.161468E-2,-1.6530965E-2,-1.0045452E-1,-3.49325E-2],"categories":[],"categories_nodes":[],"categories_segments":[],"categories_sizes":[],"default_left":[0,0,0,0,0,0,0,0,0,0,0,0,0,0,0,0,0,0,0,0,0,0,0,0,0],"id":4,"left_children":[1,3,5,7,9,11,13,-1,-1,15,-1,17,19,21,23,-1,-1,-1,-1,-1,-1,-1,-1,-1,-1],"loss_changes":[5.795373E2,3.942566E0,4.2450726E2,8.9919853E-1,1.267456E0,1.794704E2,5.268518E1,0E0,0E0,4.9224854E-1,0E0,9.998392E1,6.611534E1,1.0231125E1,2.1852203E1,0E0,0E0,0E0,0E0,0E0,0E0,0E0,0E0,0E0,0E0],"parents":[2147483647,0,0,1,1,2,2,3,3,4,4,5,5,6,6,9,9,11,11,12,12,13,13,14,14],"right_children":[2,4,6,8,10,12,14,-1,-1,16,-1,18,20,22,24,-1,-1,-1,-1,-1,-1,-1,-1,-1,-1],"split_conditions":[3.4333333E-1,2E0,1E0,9.74E0,1.781457E0,2.8213725E0,3.7466667E0,9.7847385E-3,3.4588777E-2,-9.826272E-2,6.0537416E-2,1.0644444E0,1.7216667E1,1.7356667E1,1.6666667E-1,2.5135068E-2,4.778017E-2,8.768639E-3,-6.6428113E-4,-3.0825578E-2,-9.209128E-3,-5.161468E-2,-1.6530965E-2,-1.0045452E-1,-3.49325E-2],"split_indices":[0,10,9,5,3,0,0,0,0,13,0,0,5,5,7,0,0,0,0,0,0,0,0,0,0],"split_type":[0,0,0,0,0,0,0,0,0,0,0,0,0,0,0,0,0,0,0,0,0,0,0,0,0],"sum_hessian":[1.3352136E4,3.72645E2,1.297949E4,4.039656E1,3.3224844E2,1.282602E4,1.5347078E2,1.1359688E1,2.9036875E1,2.3970407E2,9.254437E1,1.114224E4,1.6837798E3,7.2198906E1,8.127187E1,2.0297812E1,2.1940625E2,2.2485317E3,8.893708E3,2.7105945E2,1.4127203E3,4.156953E1,3.0629375E1,6.4785934E1,1.6485937E1],"tree_param":{"num_deleted":"0","num_feature":"14","num_nodes":"25","size_leaf_vector":"1"}},{"base_weights":[-2.9290896E-3,1.6285725E-2,-1.613246E0,1.010053E0,-9.169626E-3,-1.7986301E0,-7.1188813E-1,1.1062527E0,-2.2455236E-2,5.3330123E-2,-1.8921062E-1,-1.9546931E0,-3.0002674E-2,8.079203E-3,-5.0544422E-2,4.701959E-2,-0E0,7.1334844E-3,3.8151743E-4,-4.4169105E-3,-1.9888809E-2,-1.07583165E-1,-6.730398E-2],"categories":[],"categories_nodes":[],"categories_segments":[],"categories_sizes":[],"default_left":[0,0,0,0,0,0,0,0,0,0,0,0,0,0,0,0,0,0,0,0,0,0,0],"id":5,"left_children":[1,3,5,7,9,11,13,15,-1,17,19,21,-1,-1,-1,-1,-1,-1,-1,-1,-1,-1,-1],"loss_changes":[4.17863E2,3.3733145E2,2.0258118E1,5.2753754E1,1.4604716E2,1.4038788E1,1.8491667E1,2.3203247E1,0E0,5.2479797E1,8.041483E1,3.998932E0,0E0,0E0,0E0,0E0,0E0,0E0,0E0,0E0,0E0,0E0,0E0],"parents":[2147483647,0,0,1,1,2,2,3,3,4,4,5,5,6,6,7,7,9,9,10,10,11,11],"right_children":[2,4,6,8,10,12,14,16,-1,18,20,22,-1,-1,-1,-1,-1,-1,-1,-1,-1,-1,-1],"split_conditions":[1E0,6.2733335E0,1.6666667E-1,3.846154E-2,4.1666666E-1,1.869281E0,3.75E-1,3E0,-2.2455236E-2,1E-1,7.676817E-1,1.4116667E1,-3.0002674E-2,8.079203E-3,-5.0544422E-2,4.701959E-2,-0E0,7.1334844E-3,3.8151743E-4,-4.4169105E-3,-1.9888809E-2,-1.07583165E-1,-6.730398E-2],"split_indices":[9,5,7,9,9,3,7,10,0,9,8,4,0,0,0,0,0,0,0,0,0,0,0],"split_type":[0,0,0,0,0,0,0,0,0,0,0,0,0,0,0,0,0,0,0,0,0,0,0],"sum_hessian":[1.3447586E4,1.3291338E4,1.5624782E2,3.300377E2,1.2961301E4,1.2619682E2,3.005099E1,3.1243552E2,1.7602177E1,9.618777E3,3.3425225E3,1.0676089E2,1.9435938E1,1.1346302E1,1.8704687E1,2.9316348E2,1.9272032E1,2.4871194E3,7.1316587E3,2.6675054E3,6.7501697E2,2.0652344E1,8.610854E1],"tree_param":{"num_deleted":"0","num_feature":"14","num_nodes":"23","size_leaf_vector":"1"}},{"base_weights":[5.169147E-3,1.1211246E0,-2.6938984E-2,1.1682502E0,2.7052337E-1,2.2263108E-3,-1.0385102E0,4.0489145E-2,1.3004014E0,-0E0,2.0744137E-2,6.034404E-2,-1.622906E-1,-2.0821362E0,-7.479986E-1,5.606295E-2,3.5625372E-2,1.3492714E-6,8.563153E-3,-2.2073168E-2,-2.9075637E-3,-6.5100804E-2,-1.2033819E-1,2.0044334E-2,-3.421815E-2],"categories":[],"categories_nodes":[],"categories_segments":[],"categories_sizes":[],"default_left":[0,0,0,0,0,0,0,0,0,0,0,0,0,0,0,0,0,0,0,0,0,0,0,0,0],"id":6,"left_children":[1,3,5,7,9,11,13,-1,15,-1,-1,17,19,21,23,-1,-1,-1,-1,-1,-1,-1,-1,-1,-1],"loss_changes":[4.779406E2,1.2567291E1,3.8267715E2,9.8498535E-1,1.7521574E0,1.2016198E2,1.02696045E2,0E0,1.2709045E0,0E0,0E0,8.600499E1,1.13702255E2,1.2981079E1,4.0532013E1,0E0,0E0,0E0,0E0,0E0,0E0,0E0,0E0,0E0,0E0],"parents":[2147483647,0,0,1,1,2,2,3,3,4,4,5,5,6,6,8,8,11,11,12,12,13,13,14,14],"right_children":[2,4,6,8,10,12,14,-1,16,-1,-1,18,20,22,24,-1,-1,-1,-1,-1,-1,-1,-1,-1,-1],"split_conditions":[3.4333333E-1,1.0027006E0,3.812069E0,1E0,9.714705E0,2.3107407E0,1.7216667E1,4.0489145E-2,6.7194443E0,-0E0,2.0744137E-2,1.658E1,1.6590197E1,4.725E0,1.6983334E1,5.606295E-2,3.5625372E-2,1.3492714E-6,8.563153E-3,-2.2073168E-2,-2.9075637E-3,-6.5100804E-2,-1.2033819E-1,2.0044334E-2,-3.421815E-2],"split_indices":[0,8,0,1,4,0,5,0,4,0,0,5,4,0,4,0,0,0,0,0,0,0,0,0,0],"split_type":[0,0,0,0,0,0,0,0,0,0,0,0,0,0,0,0,0,0,0,0,0,0,0,0,0],"sum_hessian":[1.3302589E4,3.7006155E2,1.2932527E4,3.4846E2,2.1601562E1,1.2572059E4,3.604687E2,1.7518156E2,1.7327844E2,1.13925E1,1.0209063E1,9.296077E3,3.2759817E3,7.371464E1,2.8675403E2,1.3118657E2,4.2091873E1,6.6836E3,2.6124773E3,6.076431E2,2.6683384E3,5.571933E1,1.7995312E1,2.1106474E1,2.6564755E2],"tree_param":{"num_deleted":"0","num_feature":"14","num_nodes":"25","size_leaf_vector":"1"}},{"base_weights":[-2.082749E-3,1.0699204E0,-3.176488E-2,1.1200563E0,4.138252E-3,2.3196058E-4,-8.373632E-1,3.897017E-2,1.2375197E0,6.1576996E-2,-1.5047862E-1,-6.1517906E-1,-1.9341265E0,5.3725127E-2,3.3701725E-2,5.2699994E-5,9.330255E-3,-1.5935846E-2,-1.6819957E-3,-2.7485367E-2,2.5861528E-2,-8.8128634E-2,-3.180261E-2],"categories":[],"categories_nodes":[],"categories_segments":[],"categories_sizes":[],"default_left":[0,0,0,0,0,0,0,0,0,0,0,0,0,0,0,0,0,0,0,0,0,0,0],"id":7,"left_children":[1,3,5,7,-1,9,11,-1,13,15,17,19,21,-1,-1,-1,-1,-1,-1,-1,-1,-1,-1],"loss_changes":[4.2501645E2,1.5865082E1,3.3670035E2,8.117676E-3,0E0,1.1581828E2,1.1546509E2,0E0,1.6710815E0,9.199068E1,9.687445E1,3.9508453E1,1.6847382E1,0E0,0E0,0E0,0E0,0E0,0E0,0E0,0E0,0E0,0E0],"parents":[2147483647,0,0,1,1,2,2,3,3,5,5,6,6,8,8,9,9,10,10,11,11,12,12],"right_children":[2,4,6,8,-1,10,12,-1,14,16,18,20,22,-1,-1,-1,-1,-1,-1,-1,-1,-1,-1],"split_conditions":[3.4333333E-1,1.0027006E0,3.6004918E0,1E0,4.138252E-3,2.2060466E0,1E0,3.897017E-2,6.7194443E0,1.658E1,1.7217857E1,2.2444761E1,1.6666667E-1,5.3725127E-2,3.3701725E-2,5.2699994E-5,9.330255E-3,-1.5935846E-2,-1.6819957E-3,-2.7485367E-2,2.5861528E-2,-8.8128634E-2,-3.180261E-2],"split_indices":[0,8,0,1,0,0,9,0,4,5,4,4,7,0,0,0,0,0,0,0,0,0,0],"split_type":[0,0,0,0,0,0,0,0,0,0,0,0,0,0,0,0,0,0,0,0,0,0,0],"sum_hessian":[1.3383597E4,3.5684686E2,1.302675E4,3.3781125E2,1.9035625E1,1.2530808E4,4.9594214E2,1.6696312E2,1.7084813E2,8.911778E3,3.619029E3,4.1704993E2,7.889219E1,1.27124374E2,4.372375E1,6.6029795E3,2.3087993E3,1.0959475E3,2.5230815E3,3.965913E2,2.0458645E1,6.083906E1,1.8053125E1],"tree_param":{"num_deleted":"0","num_feature":"14","num_nodes":"23","size_leaf_vector":"1"}},{"base_weights":[-4.2499723E-3,1.2699129E-2,-1.4709407E0,8.7481135E-1,-8.24908E-3,-1.6458378E0,-5.891656E-1,9.487319E-1,-3.819977E-2,4.4497307E-2,-1.6314983E-1,-8.090517E-2,-1.3390317E0,7.5387727E-3,-4.2352527E-2,5.0762533E-3,4.0332247E-2,6.4343195E-3,1.4230746E-4,-2.3674263E-2,-4.750309E-3,-6.227942E-2,-8.576121E-5],"categories":[],"categories_nodes":[],"categories_segments":[],"categories_sizes":[],"default_left":[0,0,0,0,0,0,0,0,0,0,0,0,0,0,0,0,0,0,0,0,0,0,0],"id":8,"left_children":[1,3,5,7,9,11,13,15,-1,17,19,-1,21,-1,-1,-1,-1,-1,-1,-1,-1,-1,-1],"loss_changes":[3.3351685E2,2.393686E2,1.84935E1,4.5239777E1,1.0548776E2,2.9962463E0,1.2786303E1,1.3376251E1,0E0,4.564214E1,6.151425E1,0E0,2.1564697E1,0E0,0E0,0E0,0E0,0E0,0E0,0E0,0E0,0E0,0E0],"parents":[2147483647,0,0,1,1,2,2,3,3,4,4,5,5,6,6,7,7,9,9,10,10,12,12],"right_children":[2,4,6,8,10,12,14,16,-1,18,20,-1,22,-1,-1,-1,-1,-1,-1,-1,-1,-1,-1],"split_conditions":[1E0,6.3497806E-1,1.6666667E-1,9.259259E-2,4.1666666E-1,7.837219E-1,3.75E-1,2E0,-3.819977E-2,1E-1,1.399177E0,-8.090517E-2,1.869281E0,7.5387727E-3,-4.2352527E-2,5.0762533E-3,4.0332247E-2,6.4343195E-3,1.4230746E-4,-2.3674263E-2,-4.750309E-3,-6.227942E-2,-8.576121E-5],"split_indices":[9,6,7,9,9,6,7,10,0,9,3,0,3,0,0,0,0,0,0,0,0,0,0],"split_type":[0,0,0,0,0,0,0,0,0,0,0,0,0,0,0,0,0,0,0,0,0,0,0],"sum_hessian":[1.335238E4,1.3202108E4,1.5027156E2,3.1141577E2,1.2890692E4,1.2228346E2,2.7988098E1,3.0123743E2,1.0178358E1,9.612986E3,3.2777058E3,4.5889324E1,7.639414E1,1.0413099E1,1.7575E1,2.2130062E1,2.7910736E2,2.493271E3,7.119716E3,3.019704E2,2.9757356E3,6.461758E1,1.1776563E1],"tree_param":{"num_deleted":"0","num_feature":"14","num_nodes":"23","size_leaf_vector":"1"}},{"base_weights":[-6.5223416E-3,1.024495E0,-3.4981627E-2,1.0696882E0,2.0019668E-1,-1.8826276E-2,-1.3364475E0,9.599216E-1,5.210223E-2,1.1523453E-2,-0E0,2.2950286E-2,-2.9229656E-1,-7.1844363E-1,-1.8036023E0,9.640543E-3,3.942269E-2,7.27446E-3,-8.256761E-4,-2.541351E-2,-7.7046594E-3,-5.198504E-2,-1.0436818E-2,-9.708835E-2,-5.3776793E-2],"categories":[],"categories_nodes":[],"categories_segments":[],"categories_sizes":[],"default_left":[0,0,0,0,0,0,0,0,0,0,0,0,0,0,0,0,0,0,0,0,0,0,0,0,0],"id":9,"left_children":[1,3,5,7,9,11,13,15,-1,-1,-1,17,19,21,23,-1,-1,-1,-1,-1,-1,-1,-1,-1,-1],"loss_changes":[3.910128E2,1.1421204E1,2.7192715E2,2.612732E0,1.6336638E-1,1.4704556E2,3.9380554E1,2.5536346E0,0E0,0E0,0E0,7.7362404E1,5.712982E1,1.714869E1,1.1471191E1,0E0,0E0,0E0,0E0,0E0,0E0,0E0,0E0,0E0,0E0],"parents":[2147483647,0,0,1,1,2,2,3,3,4,4,5,5,6,6,7,7,11,11,12,12,13,13,14,14],"right_children":[2,4,6,8,10,12,14,16,-1,-1,-1,18,20,22,24,-1,-1,-1,-1,-1,-1,-1,-1,-1,-1],"split_conditions":[3.4333333E-1,1.2426655E0,1E0,1.781457E0,-4.0161032E-2,2.8213725E0,3.5009615E0,-1.2017836E-1,5.210223E-2,1.1523453E-2,-0E0,1.095E0,2.6133333E1,1.5620833E1,8.0498725E-1,9.640543E-3,3.942269E-2,7.27446E-3,-8.256761E-4,-2.541351E-2,-7.7046594E-3,-5.198504E-2,-1.0436818E-2,-9.708835E-2,-5.3776793E-2],"split_indices":[0,8,9,3,13,0,0,13,0,0,0,0,2,4,6,0,0,0,0,0,0,0,0,0,0],"split_type":[0,0,0,0,0,0,0,0,0,0,0,0,0,0,0,0,0,0,0,0,0,0,0,0,0],"sum_hessian":[1.3353095E4,3.5492188E2,1.2998173E4,3.344775E2,2.0444374E1,1.2842567E4,1.5560555E2,2.4068625E2,9.379125E1,1.029E1,1.0154375E1,1.113988E4,1.7026873E3,7.118654E1,8.4419014E1,1.0707812E1,2.2997844E2,2.4009324E3,8.738948E3,3.7747675E2,1.3252104E3,2.7960938E1,4.3225597E1,2.9423698E1,5.499531E1],"tree_param":{"num_deleted":"0","num_feature":"14","num_nodes":"25","size_leaf_vector":"1"}},{"base_weights":[1.1963982E-3,9.623719E-1,-2.6452167E-2,1.0045038E0,2.644047E-1,-6.8764007E-3,-1.21025E0,3.368886E-2,4.348119E-2,-0E0,1.565392E-2,6.918532E-2,-1.19718075E-1,-8.920434E-1,-1.9912425E0,4.464202E-4,1.1033115E-2,-9.311378E-3,3.9687744E-5,-5.939937E-2,-2.7556602E-2,-8.662106E-2,-3.3934016E-2],"categories":[],"categories_nodes":[],"categories_segments":[],"categories_sizes":[],"default_left":[0,0,0,0,0,0,0,0,0,0,0,0,0,0,0,0,0,0,0,0,0,0,0],"id":10,"left_children":[1,3,5,7,9,11,13,-1,-1,-1,-1,15,17,19,21,-1,-1,-1,-1,-1,-1,-1,-1],"loss_changes":[3.5453882E2,8.904602E0,2.984607E2,3.5095215E-3,5.82348E-1,1.09304504E2,4.3861084E1,0E0,0E0,0E0,0E0,9.081508E1,7.0256714E1,1.3452408E1,2.8910217E0,0E0,0E0,0E0,0E0,0E0,0E0,0E0,0E0],"parents":[2147483647,0,0,1,1,2,2,3,3,4,4,5,5,6,6,11,11,12,12,13,13,14,14],"right_children":[2,4,6,8,10,12,14,-1,-1,-1,-1,16,18,20,22,-1,-1,-1,-1,-1,-1,-1,-1],"split_conditions":[3.4333333E-1,1.0027006E0,8.333333E-1,1.5520362E0,9.714705E0,1.9929167E0,4.35E0,3.368886E-2,4.348119E-2,-0E0,1.565392E-2,1.646E1,1.675E0,7.66242E-1,3.0333334E1,4.464202E-4,1.1033115E-2,-9.311378E-3,3.9687744E-5,-5.939937E-2,-2.7556602E-2,-8.662106E-2,-3.3934016E-2],"split_indices":[0,8,9,3,4,0,0,0,0,0,0,5,3,6,2,0,0,0,0,0,0,0,0],"split_type":[0,0,0,0,0,0,0,0,0,0,0,0,0,0,0,0,0,0,0,0,0,0,0],"sum_hessian":[1.3299911E4,3.70055E2,1.2929855E4,3.46395E2,2.366E1,1.272332E4,2.0653587E2,1.3218843E2,2.1420656E2,1.0688125E1,1.2971875E1,7.5956904E3,5.1276294E3,1.5222182E2,5.4314064E1,5.9366836E3,1.6590072E3,2.6504841E3,2.4771453E3,3.275469E1,1.19467125E2,4.4039062E1,1.0275E1],"tree_param":{"num_deleted":"0","num_feature":"14","num_nodes":"23","size_leaf_vector":"1"}},{"base_weights":[6.1318045E-3,9.3843704E-1,-2.032413E-2,9.8478144E-1,2.4404696E-3,-1.8507435E-3,-1.08595E0,1.2870202E-2,1.003533E0,8.906111E-2,-1.0552279E-1,-8.179718E-1,-8.122354E-2,3.4243144E-2,4.511328E-2,9.422551E-4,1.12235965E-2,-1.586144E-2,-2.2096385E-3,-5.597386E-2,-2.495058E-2],"categories":[],"categories_nodes":[],"categories_segments":[],"categories_sizes":[],"default_left":[0,0,0,0,0,0,0,0,0,0,0,0,0,0,0,0,0,0,0,0,0],"id":11,"left_children":[1,3,5,7,-1,9,11,-1,13,15,17,19,-1,-1,-1,-1,-1,-1,-1,-1,-1],"loss_changes":[3.2829214E2,1.3709412E1,2.5297404E2,2.0274353E0,0E0,1.1965006E2,4.7606293E1,0E0,1.2621765E0,8.445818E1,8.6335075E1,1.5280754E1,0E0,0E0,0E0,0E0,0E0,0E0,0E0,0E0,0E0],"parents":[2147483647,0,0,1,1,2,2,3,3,5,5,6,6,8,8,9,9,10,10,11,11],"right_children":[2,4,6,8,-1,10,12,-1,14,16,18,20,-1,-1,-1,-1,-1,-1,-1,-1,-1],"split_conditions":[3.4333333E-1,1.3743685E0,8.333333E-1,-1.2017836E-1,2.4404696E-3,1.8283334E0,4.725E0,1.2870202E-2,1E0,1.5509615E1,1.5223148E1,7.66242E-1,-8.122354E-2,3.4243144E-2,4.511328E-2,9.422551E-4,1.12235965E-2,-1.586144E-2,-2.2096385E-3,-5.597386E-2,-2.495058E-2],"split_indices":[0,8,9,13,0,0,0,0,1,4,4,6,0,0,0,0,0,0,0,0,0],"split_type":[0,0,0,0,0,0,0,0,0,0,0,0,0,0,0,0,0,0,0,0,0],"sum_hessian":[1.3267494E4,3.6429095E2,1.2903203E4,3.4458374E2,1.9707188E1,1.2687205E4,2.1599815E2,1.24425E1,3.3214127E2,6.7546816E3,5.932523E3,1.734497E2,4.254844E1,1.6642282E2,1.6571844E2,5.0396587E3,1.7150227E3,8.680446E2,5.0644785E3,3.748125E1,1.3596846E2],"tree_param":{"num_deleted":"0","num_feature":"14","num_nodes":"21","size_leaf_vector":"1"}},{"base_weights":[8.015875E-5,8.8052845E-1,-2.4311112E-2,9.212161E-1,1.5371613E-1,1.4968367E-3,-7.2829866E-1,7.383773E-1,4.0332474E-2,-0E0,1.0019226E-2,1.3376632E-1,-5.937332E-2,-3.305063E-1,-1.4206802E0,3.1632114E-2,7.8459205E-3,1.4715983E-3,1.0236315E-2,-1.631211E-2,-9.172222E-4,-3.0131122E-2,-3.8698583E-3,-4.4239793E-2,-8.939343E-2],"categories":[],"categories_nodes":[],"categories_segments":[],"categories_sizes":[],"default_left":[0,0,0,0,0,0,0,0,0,0,0,0,0,0,0,0,0,0,0,0,0,0,0,0,0],"id":12,"left_children":[1,3,5,7,9,11,13,15,-1,-1,-1,17,19,21,23,-1,-1,-1,-1,-1,-1,-1,-1,-1,-1],"loss_changes":[2.8836084E2,9.205109E0,2.3738785E2,1.4483948E0,3.0856758E-1,1.01276276E2,1.2408855E2,2.0982742E0,0E0,0E0,0E0,4.6663383E1,1.0878081E2,2.8406883E1,3.1967133E1,0E0,0E0,0E0,0E0,0E0,0E0,0E0,0E0,0E0,0E0],"parents":[2147483647,0,0,1,1,2,2,3,3,4,4,5,5,6,6,7,7,11,11,12,12,13,13,14,14],"right_children":[2,4,6,8,10,12,14,16,-1,-1,-1,18,20,22,24,-1,-1,-1,-1,-1,-1,-1,-1,-1,-1],"split_conditions":[3.4333333E-1,1.3743685E0,3.6666667E0,1.5436894E0,8.906667E0,1.36E0,7.086764E-1,1.5156951E0,4.0332474E-2,-0E0,1.0019226E-2,1.3043333E1,1.285E1,2.6807018E1,4.725E0,3.1632114E-2,7.8459205E-3,1.4715983E-3,1.0236315E-2,-1.631211E-2,-9.172222E-4,-3.0131122E-2,-3.8698583E-3,-4.4239793E-2,-8.939343E-2],"split_indices":[0,8,0,3,5,0,8,3,0,0,0,5,5,2,0,0,0,0,0,0,0,0,0,0,0],"split_type":[0,0,0,0,0,0,0,0,0,0,0,0,0,0,0,0,0,0,0,0,0,0,0,0,0],"sum_hessian":[1.3381727E4,3.5899063E2,1.3022736E4,3.3789658E2,2.1094063E1,1.2563728E4,4.590089E2,1.2190281E2,2.1599376E2,1.0101875E1,1.09921875E1,3.963647E3,8.60008E3,2.9525378E2,1.6375514E2,1.0822E2,1.3682813E1,2.2161714E3,1.7474757E3,8.0883124E2,7.791249E3,1.0122882E2,1.9402495E2,1.2409421E2,3.966094E1],"tree_param":{"num_deleted":"0","num_feature":"14","num_nodes":"25","size_leaf_vector":"1"}},{"base_weights":[-1.4409046E-3,8.0342674E-1,-2.7686428E-2,8.586848E-1,3.849251E-1,2.3805318E-2,-3.5915184E-1,3.9169678E-1,8.812038E-1,2.2171779E-1,2.5564313E-2,1.7925082E-1,-1.3488837E-2,-3.1669077E-1,-1.6736898E0,4.018712E-3,2.1597052E-2,2.9477354E-2,4.030926E-2,-0E0,1.2263951E-2,4.4964678E-3,1.7427484E-2,-3.221103E-3,5.117976E-3,-2.3592332E-2,-6.0348623E-3,-9.493228E-2,-3.296235E-2],"categories":[],"categories_nodes":[],"categories_segments":[],"categories_sizes":[],"default_left":[0,0,0,0,0,0,0,0,0,0,0,0,0,0,0,0,0,0,0,0,0,0,0,0,0,0,0,0,0],"id":13,"left_children":[1,3,5,7,9,11,13,15,17,19,-1,21,23,25,27,-1,-1,-1,-1,-1,-1,-1,-1,-1,-1,-1,-1,-1,-1],"loss_changes":[2.8108817E2,7.4812317E0,2.2092517E2,1.5468445E0,1.0601978E0,6.501764E1,9.356198E1,2.4623466E-1,2.3304749E0,7.149904E-1,0E0,3.649417E1,8.549789E1,7.554582E1,2.2451538E1,0E0,0E0,0E0,0E0,0E0,0E0,0E0,0E0,0E0,0E0,0E0,0E0,0E0,0E0],"parents":[2147483647,0,0,1,1,2,2,3,3,4,4,5,5,6,6,7,7,8,8,9,9,11,11,12,12,13,13,14,14],"right_children":[2,4,6,8,10,12,14,16,18,20,-1,22,24,26,28,-1,-1,-1,-1,-1,-1,-1,-1,-1,-1,-1,-1,-1,-1],"split_conditions":[4.25E-1,3.4333333E-1,2.868793E0,-1.1106115E-1,1.103141E1,1.0575E0,4.725E0,1.6031746E0,1E0,2.6575758E1,2.5564313E-2,1.4286296E1,1.7314444E1,1.8622093E1,1E-1,4.018712E-3,2.1597052E-2,2.9477354E-2,4.030926E-2,-0E0,1.2263951E-2,4.4964678E-3,1.7427484E-2,-3.221103E-3,5.117976E-3,-2.3592332E-2,-6.0348623E-3,-9.493228E-2,-3.296235E-2],"split_indices":[0,0,0,13,4,0,0,3,1,2,0,4,4,4,7,0,0,0,0,0,0,0,0,0,0,0,0,0,0],"split_type":[0,0,0,0,0,0,0,0,0,0,0,0,0,0,0,0,0,0,0,0,0,0,0,0,0,0,0,0,0],"sum_hessian":[1.3337033E4,4.1715845E2,1.2919875E4,3.6360406E2,5.3554375E1,1.118249E4,1.7373848E3,2.1308437E1,3.4229562E2,3.843E1,1.5124375E1,2.1667344E3,9.015755E3,1.6873645E3,5.0020313E1,1.11606245E1,1.0147813E1,1.7319313E2,1.6910251E2,1.2158125E1,2.6271875E1,1.7252654E3,4.4146906E2,6.122284E3,2.8934712E3,6.322676E2,1.0550969E3,2.3835938E1,2.6184376E1],"tree_param":{"num_deleted":"0","num_feature":"14","num_nodes":"29","size_leaf_vector":"1"}},{"base_weights":[-0E0,8.457348E-1,-2.380832E-2,8.813286E-1,7.019591E-3,-9.158133E-3,-1.2050115E0,7.08521E-1,3.8928773E-2,6.5710716E-2,-1.1920674E-1,-5.789398E-1,-1.6669623E0,8.426985E-3,2.9837646E-2,5.0641125E-4,1.1226829E-2,-2.1608118E-3,-1.2881212E-2,-4.6382487E-2,-7.2420347E-3,-7.545253E-2,-3.0957827E-2],"categories":[],"categories_nodes":[],"categories_segments":[],"categories_sizes":[],"default_left":[0,0,0,0,0,0,0,0,0,0,0,0,0,0,0,0,0,0,0,0,0,0,0],"id":14,"left_children":[1,3,5,7,-1,9,11,13,-1,15,17,19,21,-1,-1,-1,-1,-1,-1,-1,-1,-1,-1],"loss_changes":[2.6876736E2,7.197357E0,2.2405135E2,1.7256165E0,0E0,1.0606421E2,4.073958E1,1.0780258E0,0E0,8.695776E1,6.8517296E1,1.4864265E1,1.034845E1,0E0,0E0,0E0,0E0,0E0,0E0,0E0,0E0,0E0,0E0],"parents":[2147483647,0,0,1,1,2,2,3,3,5,5,6,6,7,7,9,9,10,10,11,11,12,12],"right_children":[2,4,6,8,-1,10,12,14,-1,16,18,20,22,-1,-1,-1,-1,-1,-1,-1,-1,-1,-1],"split_conditions":[3.4333333E-1,1.3743685E0,1E0,1.5520362E0,7.019591E-3,1.9929167E0,3.5009615E0,2E0,3.8928773E-2,1.648125E1,7.917961E-1,1.5620833E1,1.25E-1,8.426985E-3,2.9837646E-2,5.0641125E-4,1.1226829E-2,-2.1608118E-3,-1.2881212E-2,-4.6382487E-2,-7.2420347E-3,-7.545253E-2,-3.0957827E-2],"split_indices":[0,8,9,3,0,0,0,10,0,4,8,4,7,0,0,0,0,0,0,0,0,0,0],"split_type":[0,0,0,0,0,0,0,0,0,0,0,0,0,0,0,0,0,0,0,0,0,0,0],"sum_hessian":[1.3378835E4,3.624403E2,1.3016395E4,3.4184937E2,2.0590937E1,1.2860755E4,1.5563908E2,1.3152344E2,2.1032594E2,7.649041E3,5.211714E3,6.987013E1,8.576896E1,1.2453438E1,1.1907E2,6.1412563E3,1.5077847E3,3.9507068E3,1.2610072E3,2.5053905E1,4.4816223E1,6.5278076E1,2.0490885E1],"tree_param":{"num_deleted":"0","num_feature":"14","num_nodes":"23","size_leaf_vector":"1"}},{"base_weights":[2.8565375E-4,1.636658E-2,-9.470834E-1,6.8013567E-1,-5.896091E-4,-1.5071187E0,-6.489023E-1,7.504604E-1,-1.3074145E-2,-6.0972415E-2,8.866784E-2,-7.158142E-2,-9.8738736E-1,-7.46232E-1,7.89676E-3,3.196414E-2,-1.7894531E-3,-1.8585479E-4,-7.2767064E-3,-8.77609E-4,4.7975923E-3,-5.202215E-2,-1.1352903E-2,-2.096797E-2,-4.8644274E-2],"categories":[],"categories_nodes":[],"categories_segments":[],"categories_sizes":[],"default_left":[0,0,0,0,0,0,0,0,0,0,0,0,0,0,0,0,0,0,0,0,0,0,0,0,0],"id":15,"left_children":[1,3,5,7,9,11,13,15,-1,17,19,-1,21,23,-1,-1,-1,-1,-1,-1,-1,-1,-1,-1,-1],"loss_changes":[2.0224715E2,1.4829016E2,3.1909409E1,2.4398071E1,6.892095E1,2.7174988E0,1.3430325E1,1.2797394E1,0E0,5.1839394E1,1.7938423E1,0E0,4.7628937E0,1.0653442E1,0E0,0E0,0E0,0E0,0E0,0E0,0E0,0E0,0E0,0E0,0E0],"parents":[2147483647,0,0,1,1,2,2,3,3,4,4,5,5,6,6,7,7,9,9,10,10,12,12,13,13],"right_children":[2,4,6,8,10,12,14,16,-1,18,20,-1,22,24,-1,-1,-1,-1,-1,-1,-1,-1,-1,-1,-1],"split_conditions":[8.333333E-1,6.2733335E0,8.041667E-1,6.666667E-2,2.827451E1,1E0,1.968254E0,1.0465887E0,-1.3074145E-2,3.75E-1,1.6533333E0,-7.158142E-2,2.7214285E1,9.2233723E-1,7.89676E-3,3.196414E-2,-1.7894531E-3,-1.8585479E-4,-7.2767064E-3,-8.77609E-4,4.7975923E-3,-5.202215E-2,-1.1352903E-2,-2.096797E-2,-4.8644274E-2],"split_indices":[9,5,6,9,2,1,3,8,0,9,3,0,2,6,0,0,0,0,0,0,0,0,0,0,0],"split_type":[0,0,0,0,0,0,0,0,0,0,0,0,0,0,0,0,0,0,0,0,0,0,0,0,0],"sum_hessian":[1.3330577E4,1.3112014E4,2.1856352E2,3.2515356E2,1.278686E4,7.054713E1,1.480164E2,3.0557083E2,1.9582724E1,7.634359E3,5.1525015E3,3.9713535E1,3.0833593E1,1.3412766E2,1.38887415E1,2.891274E2,1.6443438E1,5.21639E3,2.4179688E3,1.1288191E3,4.0236826E3,1.8591406E1,1.22421875E1,9.6841606E1,3.7286053E1],"tree_param":{"num_deleted":"0","num_feature":"14","num_nodes":"25","size_leaf_vector":"1"}},{"base_weights":[5.423885E-4,4.970928E-1,-3.368371E-2,6.871638E-1,2.0822452E-1,-6.498309E-3,-5.573962E-1,8.017422E-1,4.537095E-1,1.7575012E-1,2.2602731E-2,-6.3753046E-2,9.320763E-2,-4.3946472E-1,-1.6370304E0,2.6664121E-2,3.6843874E-2,1.25801405E-2,3.580636E-2,-1.0076163E-3,7.978501E-3,3.3231965E-5,-6.462011E-3,9.7383576E-4,7.708225E-3,-2.4966082E-2,-5.4341936E-3,-9.283339E-2,-3.752314E-2],"categories":[],"categories_nodes":[],"categories_segments":[],"categories_sizes":[],"default_left":[0,0,0,0,0,0,0,0,0,0,0,0,0,0,0,0,0,0,0,0,0,0,0,0,0,0,0,0,0],"id":16,"left_children":[1,3,5,7,9,11,13,15,17,19,-1,21,23,25,27,-1,-1,-1,-1,-1,-1,-1,-1,-1,-1,-1,-1,-1,-1],"loss_changes":[2.2745616E2,4.6066986E1,1.7729723E2,1.1487991E1,3.0048685E0,6.7816605E1,7.402605E1,2.0567322E0,9.010773E0,1.7462692E0,0E0,4.788411E1,2.9429092E1,3.033432E1,1.8214386E1,0E0,0E0,0E0,0E0,0E0,0E0,0E0,0E0,0E0,0E0,0E0,0E0,0E0,0E0],"parents":[2147483647,0,0,1,1,2,2,3,3,4,4,5,5,6,6,7,7,8,8,9,9,11,11,12,12,13,13,14,14],"right_children":[2,4,6,8,10,12,14,16,18,20,-1,22,24,26,28,-1,-1,-1,-1,-1,-1,-1,-1,-1,-1,-1,-1,-1,-1],"split_conditions":[7.0214283E-1,1.0154907E0,3.5009615E0,3.4333333E-1,1.3247916E1,2.8605263E1,4.725E0,1E0,1.4356667E1,7.11E0,2.2602731E-2,1.9929167E0,1.677E1,2.0699074E1,1E-1,2.6664121E-2,3.6843874E-2,1.25801405E-2,3.580636E-2,-1.0076163E-3,7.978501E-3,3.3231965E-5,-6.462011E-3,9.7383576E-4,7.708225E-3,-2.4966082E-2,-5.4341936E-3,-9.283339E-2,-3.752314E-2],"split_indices":[0,8,0,0,4,2,0,1,5,5,0,0,5,4,7,0,0,0,0,0,0,0,0,0,0,0,0,0,0],"split_type":[0,0,0,0,0,0,0,0,0,0,0,0,0,0,0,0,0,0,0,0,0,0,0,0,0,0,0,0,0],"sum_hessian":[1.33505E4,8.6014905E2,1.2490351E4,5.1420905E2,3.4594E2,1.1878687E4,6.1166437E2,3.3715063E2,1.7705844E2,3.2375656E2,2.2183437E1,7.5527417E3,4.325945E3,5.560706E2,5.559375E1,1.7131406E2,1.6583656E2,1.4023843E2,3.682E1,2.9701876E1,2.940547E2,4.5444224E3,3.0083196E3,2.564713E3,1.7612318E3,3.4173224E2,2.1433835E2,2.3859375E1,3.1734375E1],"tree_param":{"num_deleted":"0","num_feature":"14","num_nodes":"29","size_leaf_vector":"1"}},{"base_weights":[-3.6550607E-3,2.5562906E-1,-6.4044386E-2,7.246225E-1,1.7422526E-1,-4.7641817E-2,-1.1122663E0,7.573577E-1,1.662264E-1,9.670504E-2,4.1280523E-1,-1.3880406E-1,3.2777786E-2,-5.869132E-1,-1.5818057E0,2.6543004E-2,3.874781E-2,-0E0,1.1357739E-2,3.0801948E-3,1.5595961E-2,1.3470028E-2,2.9982908E-2,-3.4107533E-3,-1.3596298E-2,-1.4714333E-2,2.1230474E-3,-3.9532498E-2,-1.2941686E-2,-8.155632E-2,-4.079693E-2],"categories":[],"categories_nodes":[],"categories_segments":[],"categories_sizes":[],"default_left":[0,0,0,0,0,0,0,0,0,0,0,0,0,0,0,0,0,0,0,0,0,0,0,0,0,0,0,0,0,0,0],"id":17,"left_children":[1,3,5,7,9,11,13,15,17,19,21,23,25,27,29,-1,-1,-1,-1,-1,-1,-1,-1,-1,-1,-1,-1,-1,-1,-1,-1],"loss_changes":[2.0864879E2,9.479631E1,1.8473239E2,5.4515076E0,3.9135605E1,7.8258575E1,3.590634E1,3.3054657E0,4.6297735E-1,8.857062E0,1.1556946E1,5.333914E1,4.5767853E1,6.6038914E0,1.2455139E1,0E0,0E0,0E0,0E0,0E0,0E0,0E0,0E0,0E0,0E0,0E0,0E0,0E0,0E0,0E0,0E0],"parents":[2147483647,0,0,1,1,2,2,3,3,4,4,5,5,6,6,7,7,8,8,9,9,10,10,11,11,12,12,13,13,14,14],"right_children":[2,4,6,8,10,12,14,16,18,20,22,24,26,28,30,-1,-1,-1,-1,-1,-1,-1,-1,-1,-1,-1,-1,-1,-1,-1,-1],"split_conditions":[1.0458333E0,3.4333333E-1,1E0,1.0027006E0,1.3816667E1,1.6380597E0,3.7466667E0,1.781457E0,7.091156E-1,8.041667E-1,3E1,2.61E0,2.562745E1,1.5566667E1,1.7393333E1,2.6543004E-2,3.874781E-2,-0E0,1.1357739E-2,3.0801948E-3,1.5595961E-2,1.3470028E-2,2.9982908E-2,-3.4107533E-3,-1.3596298E-2,-1.4714333E-2,2.1230474E-3,-3.9532498E-2,-1.2941686E-2,-8.155632E-2,-4.079693E-2],"split_indices":[0,0,9,8,5,3,0,3,6,6,2,0,2,5,5,0,0,0,0,0,0,0,0,0,0,0,0,0,0,0,0],"split_type":[0,0,0,0,0,0,0,0,0,0,0,0,0,0,0,0,0,0,0,0,0,0,0,0,0,0,0,0,0,0,0],"sum_hessian":[1.3331484E4,2.5134827E3,1.0818002E4,3.6642157E2,2.147061E3,1.0655357E4,1.626446E2,3.4342874E2,2.2992813E1,1.6268628E3,5.201983E2,4.998923E3,5.6564346E3,8.095086E1,8.169375E1,2.4975125E2,9.36775E1,1.1342188E1,1.1650625E1,1.5311791E3,9.56837E1,4.3167856E2,8.85197E1,3.9552502E3,1.0436729E3,2.6791312E2,5.3885215E3,2.7295572E1,5.3655285E1,3.9717186E1,4.1976562E1],"tree_param":{"num_deleted":"0","num_feature":"14","num_nodes":"31","size_leaf_vector":"1"}},{"base_weights":[-6.4701783E-3,7.0420694E-1,-2.6569728E-2,6.254943E-1,3.5030924E-2,-3.4404036E-3,-4.9669182E-1,6.4969665E-1,5.303455E-3,1.22358546E-1,-5.1099926E-2,-3.6359856E-1,-1.2804248E0,1.0741565E-2,2.74249E-2,1.8326789E-3,1.062011E-2,-6.0397214E-3,2.0604802E-3,-1.6946085E-2,3.2461427E-2,-6.5389395E-2,-1.1859334E-3],"categories":[],"categories_nodes":[],"categories_segments":[],"categories_sizes":[],"default_left":[0,0,0,0,0,0,0,0,0,0,0,0,0,0,0,0,0,0,0,0,0,0,0],"id":18,"left_children":[1,3,5,7,-1,9,11,13,-1,15,17,19,21,-1,-1,-1,-1,-1,-1,-1,-1,-1,-1],"loss_changes":[1.9153693E2,1.8349762E0,1.4179424E2,2.1476593E0,0E0,7.476006E1,6.0755768E1,1.9449615E0,0E0,3.7162815E1,9.2964035E1,3.7912247E1,3.6525955E1,0E0,0E0,0E0,0E0,0E0,0E0,0E0,0E0,0E0,0E0],"parents":[2147483647,0,0,1,1,2,2,3,3,5,5,6,6,7,7,9,9,10,10,11,11,12,12],"right_children":[2,4,6,8,-1,10,12,14,-1,16,18,20,22,-1,-1,-1,-1,-1,-1,-1,-1,-1,-1],"split_conditions":[3.4333333E-1,1.781457E0,3.5009615E0,1.755102E0,3.5030924E-2,1.2716666E0,1E0,-9.5292136E-2,5.303455E-3,1.3483334E1,1.692E1,2.2444761E1,1.25E-1,1.0741565E-2,2.74249E-2,1.8326789E-3,1.062011E-2,-6.0397214E-3,2.0604802E-3,-1.6946085E-2,3.2461427E-2,-6.5389395E-2,-1.1859334E-3],"split_indices":[0,3,0,3,0,0,9,13,0,5,5,4,7,0,0,0,0,0,0,0,0,0,0],"split_type":[0,0,0,0,0,0,0,0,0,0,0,0,0,0,0,0,0,0,0,0,0,0,0],"sum_hessian":[1.3449431E4,3.6574124E2,1.3083689E4,2.6426532E2,1.0147594E2,1.2475083E4,6.086069E2,2.4905344E2,1.5211875E1,3.4206018E3,9.05448E3,5.25102E2,8.35049E1,2.6039999E1,2.2301344E2,2.235949E3,1.1846528E3,4.592244E3,4.4622363E3,5.0220682E2,2.2895153E1,6.3731197E1,1.9773699E1],"tree_param":{"num_deleted":"0","num_feature":"14","num_nodes":"23","size_leaf_vector":"1"}},{"base_weights":[-5.907091E-3,5.6654825E-3,-9.7464275E-1,1.6820887E-1,-4.3240923E-2,-1.1609595E0,-2.5606138E-1,6.00392E-1,1.2025739E-1,-1.1899628E-1,2.3565847E-2,-5.671647E-2,-8.976198E-1,2.362376E-1,-3.9626956E-2,2.5651574E-2,1.0234048E-3,1.4371501E-3,8.320646E-3,-1.9870324E-3,-1.0785688E-2,-1.8228262E-3,3.8970169E-3,-4.2444527E-2,-3.1372587E-5,2.9829064E-2,-1.1541483E-2],"categories":[],"categories_nodes":[],"categories_segments":[],"categories_sizes":[],"default_left":[0,0,0,0,0,0,0,0,0,0,0,0,0,0,0,0,0,0,0,0,0,0,0,0,0,0,0],"id":19,"left_children":[1,3,5,7,9,11,13,15,17,19,21,-1,23,25,-1,-1,-1,-1,-1,-1,-1,-1,-1,-1,-1,-1,-1],"loss_changes":[1.5073409E2,1.0509369E2,1.8941711E1,6.245294E1,5.145263E1,2.2628021E0,1.506719E1,6.3986588E0,2.0152988E1,4.937034E1,2.7573E1,0E0,9.401886E0,7.5572653E0,0E0,0E0,0E0,0E0,0E0,0E0,0E0,0E0,0E0,0E0,0E0,0E0,0E0],"parents":[2147483647,0,0,1,1,2,2,3,3,4,4,5,5,6,6,7,7,8,8,9,9,10,10,12,12,13,13],"right_children":[2,4,6,8,10,12,14,16,18,20,22,-1,24,26,-1,-1,-1,-1,-1,-1,-1,-1,-1,-1,-1,-1,-1],"split_conditions":[1E0,1.0714286E-1,1.25E-1,6.2733335E0,1.6380597E0,8.0498725E-1,5.555556E-1,6.3497806E-1,1.2695833E1,4.2105263E-1,1.677E1,-5.671647E-2,1.869281E0,9.147836E-1,-3.9626956E-2,2.5651574E-2,1.0234048E-3,1.4371501E-3,8.320646E-3,-1.9870324E-3,-1.0785688E-2,-1.8228262E-3,3.8970169E-3,-4.2444527E-2,-3.1372587E-5,2.9829064E-2,-1.1541483E-2],"split_indices":[9,9,7,5,3,6,7,6,5,9,5,0,3,6,0,0,0,0,0,0,0,0,0,0,0,0,0],"split_type":[0,0,0,0,0,0,0,0,0,0,0,0,0,0,0,0,0,0,0,0,0,0,0,0,0,0,0],"sum_hessian":[1.3354568E4,1.3198844E4,1.5572398E2,3.0558086E3,1.0143035E4,1.2108901E2,3.4634975E1,2.9965186E2,2.7561567E3,4.759096E3,5.3839395E3,5.270854E1,6.838047E1,2.1141224E1,1.349375E1,2.7779977E2,2.1852085E1,1.4135142E3,1.3426426E3,3.2665872E3,1.4925089E3,2.774484E3,2.6094553E3,5.6428905E1,1.1951563E1,1.1052813E1,1.0088411E1],"tree_param":{"num_deleted":"0","num_feature":"14","num_nodes":"27","size_leaf_vector":"1"}},{"base_weights":[5.2662347E-3,2.3448528E-1,-4.890217E-2,6.63317E-1,1.6295922E-1,-3.4781426E-2,-9.979316E-1,5.745164E-1,3.4273528E-2,1.2319361E-1,6.984373E-1,-2.491597E-1,-3.710293E-3,-4.7034103E-1,-1.4243206E0,2.1009506E-3,2.4970774E-2,1.9629835E-3,7.890581E-3,6.747138E-3,3.038003E-2,-7.417683E-3,-2.4788694E-2,2.485924E-3,-4.7036493E-3,-4.0738843E-2,-5.966524E-3,-7.6473236E-2,-3.488924E-2],"categories":[],"categories_nodes":[],"categories_segments":[],"categories_sizes":[],"default_left":[0,0,0,0,0,0,0,0,0,0,0,0,0,0,0,0,0,0,0,0,0,0,0,0,0,0,0,0,0],"id":20,"left_children":[1,3,5,7,9,11,13,15,-1,17,19,21,23,25,27,-1,-1,-1,-1,-1,-1,-1,-1,-1,-1,-1,-1,-1,-1],"loss_changes":[1.6521188E2,7.688165E1,1.4288583E2,3.2902985E0,4.5475285E1,7.030901E1,3.1283066E1,5.974327E0,0E0,1.0927546E1,3.4996185E0,3.0416382E1,6.952612E1,1.1657511E1,1.4815903E1,0E0,0E0,0E0,0E0,0E0,0E0,0E0,0E0,0E0,0E0,0E0,0E0,0E0,0E0],"parents":[2147483647,0,0,1,1,2,2,3,3,4,4,5,5,6,6,7,7,9,9,10,10,11,11,12,12,13,13,14,14],"right_children":[2,4,6,8,10,12,14,16,-1,18,20,22,24,26,28,-1,-1,-1,-1,-1,-1,-1,-1,-1,-1,-1,-1,-1,-1],"split_conditions":[1.0575E0,3.4333333E-1,1E0,1.781457E0,1.638E1,1.2646667E1,3.5009615E0,-9.826272E-2,3.4273528E-2,1.141E1,1E0,1.9366666E0,2.3107407E0,1.54E1,1.707E1,2.1009506E-3,2.4970774E-2,1.9629835E-3,7.890581E-3,6.747138E-3,3.038003E-2,-7.417683E-3,-2.4788694E-2,2.485924E-3,-4.7036493E-3,-4.0738843E-2,-5.966524E-3,-7.6473236E-2,-3.488924E-2],"split_indices":[0,0,9,3,5,5,0,13,0,5,10,0,0,5,5,0,0,0,0,0,0,0,0,0,0,0,0,0,0],"split_type":[0,0,0,0,0,0,0,0,0,0,0,0,0,0,0,0,0,0,0,0,0,0,0,0,0,0,0,0,0],"sum_hessian":[1.3285192E4,2.5410322E3,1.074416E4,3.5769345E2,2.1833389E3,1.0590742E4,1.5341748E2,2.5688907E2,1.00804375E2,2.0375819E3,1.4575697E2,1.3339292E3,9.256813E3,7.24394E1,8.097807E1,2.464E1,2.3224907E2,1.0277015E3,1.00988043E3,1.7923582E1,1.278334E2,1.1443563E3,1.8957281E2,5.860319E3,3.3964944E3,2.3207031E1,4.923237E1,3.811844E1,4.2859634E1],"tree_param":{"num_deleted":"0","num_feature":"14","num_nodes":"29","size_leaf_vector":"1"}},{"base_weights":[4.530627E-3,3.6471307E-1,-2.7085433E-2,5.364462E-1,1.432959E-1,-1.5439782E-2,-9.069816E-1,6.5182793E-1,3.680375E-1,1.2014028E-1,2.6312463E-2,1.978644E-2,-1.4717418E-1,-1.0726503E0,-1.4350133E-1,7.876774E-3,2.6644392E-2,1.1130987E-2,3.2647397E-2,-1.261029E-3,5.932087E-3,-1.518762E-3,5.5077765E-3,-2.409739E-2,-3.3303883E-3,-2.0893337E-2,-5.7895787E-2,2.3672994E-2,-2.4615433E-2],"categories":[],"categories_nodes":[],"categories_segments":[],"categories_sizes":[],"default_left":[0,0,0,0,0,0,0,0,0,0,0,0,0,0,0,0,0,0,0,0,0,0,0,0,0,0,0,0,0],"id":21,"left_children":[1,3,5,7,9,11,13,15,17,19,-1,21,23,25,27,-1,-1,-1,-1,-1,-1,-1,-1,-1,-1,-1,-1,-1,-1],"loss_changes":[1.5231532E2,4.013716E1,1.2473356E2,1.0003204E1,4.681905E0,5.6336315E1,1.8440811E1,1.025238E0,8.526932E0,2.108849E0,0E0,6.516463E1,7.369894E1,2.2398682E1,1.253222E1,0E0,0E0,0E0,0E0,0E0,0E0,0E0,0E0,0E0,0E0,0E0,0E0,0E0,0E0],"parents":[2147483647,0,0,1,1,2,2,3,3,4,4,5,5,6,6,7,7,8,8,9,9,11,11,12,12,13,13,14,14],"right_children":[2,4,6,8,10,12,14,16,18,20,-1,22,24,26,28,-1,-1,-1,-1,-1,-1,-1,-1,-1,-1,-1,-1,-1,-1],"split_conditions":[7.640625E-1,1.0154907E0,1E0,3.4333333E-1,1.2903225E-1,2.525893E0,1.6666667E-1,-1.1106115E-1,1.5509615E1,8.42037E0,2.6312463E-2,1.648125E1,1.6557823E1,3.5009615E0,3.75E-1,7.876774E-3,2.6644392E-2,1.1130987E-2,3.2647397E-2,-1.261029E-3,5.932087E-3,-1.518762E-3,5.5077765E-3,-2.409739E-2,-3.3303883E-3,-2.0893337E-2,-5.7895787E-2,2.3672994E-2,-2.4615433E-2],"split_indices":[0,8,9,0,9,0,7,13,4,4,0,4,4,0,7,0,0,0,0,0,0,0,0,0,0,0,0,0,0],"split_type":[0,0,0,0,0,0,0,0,0,0,0,0,0,0,0,0,0,0,0,0,0,0,0,0,0,0,0,0,0],"sum_hessian":[1.3340351E4,1.0764972E3,1.2263854E4,6.013219E2,4.7517532E2,1.2107792E4,1.5606058E2,3.4820624E2,2.5311563E2,4.6011218E2,1.5063125E1,9.549249E3,2.558543E3,1.2616023E2,2.990034E1,1.4080937E1,3.341253E2,2.1678781E2,3.6327812E1,6.643875E1,3.9367343E2,6.4052734E3,3.143976E3,3.0993857E2,2.2486045E3,5.5098045E1,7.106219E1,1.0561276E1,1.9339062E1],"tree_param":{"num_deleted":"0","num_feature":"14","num_nodes":"29","size_leaf_vector":"1"}},{"base_weights":[-1.4336407E-3,1.0694285E-2,-7.5488687E-1,4.870402E-1,-1.5939542E-3,-1.9775231E-1,-8.741056E-1,5.5127025E-1,-1.4608799E-2,-6.4896695E-2,6.100297E-2,-2.2921607E-2,8.638639E-2,-7.109892E-1,-1.1971239E0,2.3687057E-2,-3.2547961E-3,-2.691278E-4,-7.5750872E-3,6.210594E-4,5.0202883E-3,-1.7667076E-2,2.9186381E-2,-4.0954597E-2,-1.0986891E-2,-5.9189323E-2,-2.3182746E-2],"categories":[],"categories_nodes":[],"categories_segments":[],"categories_sizes":[],"default_left":[0,0,0,0,0,0,0,0,0,0,0,0,0,0,0,0,0,0,0,0,0,0,0,0,0,0,0],"id":22,"left_children":[1,3,5,7,9,11,13,15,-1,17,19,-1,21,23,25,-1,-1,-1,-1,-1,-1,-1,-1,-1,-1,-1,-1],"loss_changes":[1.225956E2,7.730051E1,1.2527283E1,1.896759E1,5.071102E1,5.201339E0,4.63945E0,8.705788E0,0E0,4.5926567E1,1.870405E1,0E0,9.903469E0,1.4814911E1,4.358124E0,0E0,0E0,0E0,0E0,0E0,0E0,0E0,0E0,0E0,0E0,0E0,0E0],"parents":[2147483647,0,0,1,1,2,2,3,3,4,4,5,5,6,6,7,7,9,9,10,10,12,12,13,13,14,14],"right_children":[2,4,6,8,10,12,14,16,-1,18,20,-1,22,24,26,-1,-1,-1,-1,-1,-1,-1,-1,-1,-1,-1,-1],"split_conditions":[8.333333E-1,6.2733335E0,5.361533E-1,6.666667E-2,2.778125E1,8.903411E-1,9.003669E-1,3E0,-1.4608799E-2,3.75E-1,1.677E1,-2.2921607E-2,-1.6935715E-2,8.0498725E-1,9.6313345E-1,2.3687057E-2,-3.2547961E-3,-2.691278E-4,-7.5750872E-3,6.210594E-4,5.0202883E-3,-1.7667076E-2,2.9186381E-2,-4.0954597E-2,-1.0986891E-2,-5.9189323E-2,-2.3182746E-2],"split_indices":[9,5,8,9,2,6,6,10,0,9,5,0,13,6,6,0,0,0,0,0,0,0,0,0,0,0,0],"split_type":[0,0,0,0,0,0,0,0,0,0,0,0,0,0,0,0,0,0,0,0,0,0,0,0,0,0,0],"sum_hessian":[1.3329187E4,1.3119638E4,2.0954945E2,3.290662E2,1.2790571E4,3.98211E1,1.6972836E2,3.0808075E2,2.0985462E1,6.367321E3,6.4232505E3,1.7360554E1,2.2460543E1,1.21216194E2,4.8512165E1,2.9103513E2,1.7045626E1,4.3471406E3,2.0201799E3,3.778544E3,2.6447068E3,1.1997453E1,1.0463091E1,6.690672E1,5.430947E1,2.9297321E1,1.9214844E1],"tree_param":{"num_deleted":"0","num_feature":"14","num_nodes":"27","size_leaf_vector":"1"}},{"base_weights":[-2.7597105E-4,2.2629809E-2,-4.8835266E-1,5.4550415E-1,4.718405E-3,-3.6017898E-1,-1.2502633E0,4.709352E-1,2.9228836E-2,-9.479812E-3,3.2808238E-1,-4.2700902E-1,1.068927E-1,-6.941352E-2,-8.779295E-1,1.1285945E-2,2.0275306E-2,4.905737E-4,-1.1098387E-2,-6.4009493E-3,1.6438952E-2,-3.184728E-2,-1.1490083E-2,3.953308E-2,-1.5096863E-2,-8.373671E-3,-4.2523984E-2],"categories":[],"categories_nodes":[],"categories_segments":[],"categories_sizes":[],"default_left":[0,0,0,0,0,0,0,0,0,0,0,0,0,0,0,0,0,0,0,0,0,0,0,0,0,0,0],"id":23,"left_children":[1,3,5,7,9,11,13,15,-1,17,19,21,23,-1,25,-1,-1,-1,-1,-1,-1,-1,-1,-1,-1,-1,-1],"loss_changes":[1.49867E2,1.1896873E2,5.5730698E1,3.5782928E0,5.7004948E1,1.6682152E1,8.025009E0,9.0148926E-1,0E0,6.918224E1,2.157956E1,2.1819687E1,2.9730024E1,0E0,4.853981E0,0E0,0E0,0E0,0E0,0E0,0E0,0E0,0E0,0E0,0E0,0E0,0E0],"parents":[2147483647,0,0,1,1,2,2,3,3,4,4,5,5,6,6,7,7,9,9,10,10,11,11,12,12,14,14],"right_children":[2,4,6,8,10,12,14,16,-1,18,20,22,24,-1,26,-1,-1,-1,-1,-1,-1,-1,-1,-1,-1,-1,-1],"split_conditions":[3.5009615E0,4.25E-1,1E0,1.7777778E0,9.417892E-1,9.886179E-1,8.041667E-1,-6.484067E-2,2.9228836E-2,2.868793E0,-7.739533E-2,6.5217394E-1,1.0391744E0,-6.941352E-2,-4.7654655E-2,1.1285945E-2,2.0275306E-2,4.905737E-4,-1.1098387E-2,-6.4009493E-3,1.6438952E-2,-3.184728E-2,-1.1490083E-2,3.953308E-2,-1.5096863E-2,-8.373671E-3,-4.2523984E-2],"split_indices":[0,0,9,3,6,6,6,13,0,0,13,9,6,0,13,0,0,0,0,0,0,0,0,0,0,0,0],"split_type":[0,0,0,0,0,0,0,0,0,0,0,0,0,0,0,0,0,0,0,0,0,0,0,0,0,0,0],"sum_hessian":[1.3357564E4,1.2759562E4,5.980031E2,4.1783438E2,1.2341727E4,5.167951E2,8.120802E1,3.0932562E2,1.0850875E2,1.1822448E4,5.1927875E2,4.5420444E2,6.259065E1,2.9329636E1,5.1878384E1,5.8174374E1,2.5115125E2,1.09343545E4,8.8809344E2,7.322688E1,4.4605188E2,1.1889444E2,3.3531E2,2.1820639E1,4.0770008E1,1.3809375E1,3.806901E1],"tree_param":{"num_deleted":"0","num_feature":"14","num_nodes":"27","size_leaf_vector":"1"}},{"base_weights":[6.66224E-3,3.8227156E-1,-1.9591114E-2,5.330012E-1,1.4560725E-1,-4.394759E-3,-5.457621E-1,5.552772E-1,-0E0,6.4009845E-2,2.7727935E-1,-1.7813625E-2,3.294095E-1,-1.6921088E-1,-1.0194399E0,2.6081285E-2,1.7395068E-2,-2.4566404E-3,3.6687353E-3,5.2806144E-3,-3.937948E-3,6.2386394E-3,1.827791E-2,1.9594465E-4,-9.224676E-3,-5.979819E-3,1.6489973E-2,-2.6670171E-2,1.1217271E-2,-3.2083463E-2,-6.1278217E-2],"categories":[],"categories_nodes":[],"categories_segments":[],"categories_sizes":[],"default_left":[0,0,0,0,0,0,0,0,0,0,0,0,0,0,0,0,0,0,0,0,0,0,0,0,0,0,0,0,0,0,0],"id":24,"left_children":[1,3,5,7,9,11,13,15,17,19,21,23,25,27,29,-1,-1,-1,-1,-1,-1,-1,-1,-1,-1,-1,-1,-1,-1,-1,-1],"loss_changes":[1.3209178E2,3.030867E1,9.9264175E1,6.0952606E0,3.3361802E0,5.4077938E1,6.04647E1,3.9916992E0,1.6899697E-1,2.5359538E0,1.9471302E0,5.6658012E1,1.8950191E1,4.5458645E1,1.0978699E1,0E0,0E0,0E0,0E0,0E0,0E0,0E0,0E0,0E0,0E0,0E0,0E0,0E0,0E0,0E0,0E0],"parents":[2147483647,0,0,1,1,2,2,3,3,4,4,5,5,6,6,7,7,8,8,9,9,10,10,11,11,12,12,13,13,14,14],"right_children":[2,4,6,8,10,12,14,16,18,20,22,24,26,28,30,-1,-1,-1,-1,-1,-1,-1,-1,-1,-1,-1,-1,-1,-1,-1,-1],"split_conditions":[7.0214283E-1,1.0096488E0,3.812069E0,1E0,1.103141E1,9.5417196E-1,6.070827E-1,6.7194443E0,1E0,3.7024643E-2,1.2426655E0,2.868793E0,-6.761905E-2,2.7742857E1,4.725E0,2.6081285E-2,1.7395068E-2,-2.4566404E-3,3.6687353E-3,5.2806144E-3,-3.937948E-3,6.2386394E-3,1.827791E-2,1.9594465E-4,-9.224676E-3,-5.979819E-3,1.6489973E-2,-2.6670171E-2,1.1217271E-2,-3.2083463E-2,-6.1278217E-2],"split_indices":[0,8,0,11,4,6,8,4,1,13,8,0,13,2,0,0,0,0,0,0,0,0,0,0,0,0,0,0,0,0,0],"split_type":[0,0,0,0,0,0,0,0,0,0,0,0,0,0,0,0,0,0,0,0,0,0,0,0,0,0,0,0,0,0,0],"sum_hessian":[1.3353311E4,8.721913E2,1.2481119E4,5.279575E2,3.4423376E2,1.2135558E4,3.4556168E2,5.059797E2,2.1977812E1,2.1997063E2,1.2426312E2,1.1672174E4,4.633834E2,1.9596315E2,1.4959851E2,2.6858783E2,2.3739188E2,1.1300625E1,1.0677187E1,1.5979688E2,6.017375E1,8.084563E1,4.34175E1,1.0544955E4,1.1272188E3,6.619845E1,3.9718494E2,9.339459E1,1.0256856E2,1.1182195E2,3.777656E1],"tree_param":{"num_deleted":"0","num_feature":"14","num_nodes":"31","size_leaf_vector":"1"}},{"base_weights":[1.0516843E-3,1.0110088E-2,-7.8478986E-1,4.6814784E-1,-1.2342064E-3,-5.0525256E-2,-5.120655E-1,5.2793366E-1,-1.4805297E-2,9.8388016E-2,-2.8187715E-2,-7.045368E-1,5.586413E-2,7.810777E-4,2.2703698E-2,2.795733E-3,1.4005917E-2,-5.812477E-3,5.2414153E-4,-5.3307866E-3,-4.463249E-2,2.6679697E-2,-2.1657616E-2],"categories":[],"categories_nodes":[],"categories_segments":[],"categories_sizes":[],"default_left":[0,0,0,0,0,0,0,0,0,0,0,0,0,0,0,0,0,0,0,0,0,0,0],"id":25,"left_children":[1,3,5,7,9,-1,11,13,-1,15,17,19,21,-1,-1,-1,-1,-1,-1,-1,-1,-1,-1],"loss_changes":[9.421487E1,6.902071E1,1.5957939E1,1.6831322E1,3.450954E1,0E0,1.1962633E1,5.4682693E0,0E0,1.9122692E1,4.9194183E1,1.663863E1,1.1207002E1,0E0,0E0,0E0,0E0,0E0,0E0,0E0,0E0,0E0,0E0],"parents":[2147483647,0,0,1,1,2,2,3,3,4,4,6,6,7,7,9,9,10,10,11,11,12,12],"right_children":[2,4,6,8,10,-1,12,14,-1,16,18,20,22,-1,-1,-1,-1,-1,-1,-1,-1,-1,-1],"split_conditions":[1E0,6.2733335E0,1.5403704E1,6.666667E-2,1.0714286E-1,-5.0525256E-2,1.25E-1,2E0,-1.4805297E-2,1.6416666E1,7.6148146E-1,8.3014184E-1,9.199238E-1,7.810777E-4,2.2703698E-2,2.795733E-3,1.4005917E-2,-5.812477E-3,5.2414153E-4,-5.3307866E-3,-4.463249E-2,2.6679697E-2,-2.1657616E-2],"split_indices":[9,5,4,9,9,0,7,10,0,4,6,6,6,0,0,0,0,0,0,0,0,0,0],"split_type":[0,0,0,0,0,0,0,0,0,0,0,0,0,0,0,0,0,0,0,0,0,0,0],"sum_hessian":[1.3337753E4,1.3189946E4,1.4780672E2,3.17993E2,1.2871953E4,4.8383595E1,9.942313E1,2.9897388E2,1.9019135E1,2.7314082E3,1.0140545E4,7.503346E1,2.4389662E1,2.3782742E1,2.7519116E2,2.4607056E3,2.7070267E2,2.6474927E3,7.4930522E3,3.408815E1,4.0945312E1,1.2709844E1,1.1679818E1],"tree_param":{"num_deleted":"0","num_feature":"14","num_nodes":"23","size_leaf_vector":"1"}},{"base_weights":[-1.975428E-3,2.0103128E-1,-4.8977036E-2,5.2486044E-1,1.4334953E-1,-2.5078194E-2,-4.4167846E-1,5.56534E-1,-0E0,9.893931E-2,4.3394288E-1,-1.076182E-1,6.8243444E-2,-2.0983246E-1,-8.394573E-1,1.53241325E-2,2.627265E-2,-1.8855399E-3,1.8828078E-3,2.476278E-3,9.747394E-3,1.3453249E-2,2.8806383E-2,-2.268424E-3,-1.7267711E-2,1.7019773E-3,1.2198622E-2,-1.1378711E-2,2.6366668E-2,-2.5688507E-2,-5.220032E-2],"categories":[],"categories_nodes":[],"categories_segments":[],"categories_sizes":[],"default_left":[0,0,0,0,0,0,0,0,0,0,0,0,0,0,0,0,0,0,0,0,0,0,0,0,0,0,0,0,0,0,0],"id":26,"left_children":[1,3,5,7,9,11,13,15,17,19,21,23,25,27,29,-1,-1,-1,-1,-1,-1,-1,-1,-1,-1,-1,-1,-1,-1,-1,-1],"loss_changes":[1.2729614E2,4.5936913E1,1.01326775E2,6.2057114E0,2.6888859E1,7.888374E1,5.5585487E1,4.359276E0,6.094266E-2,9.612211E0,6.015362E0,8.913739E1,2.8802488E1,2.5948225E1,1.6259598E1,0E0,0E0,0E0,0E0,0E0,0E0,0E0,0E0,0E0,0E0,0E0,0E0,0E0,0E0,0E0,0E0],"parents":[2147483647,0,0,1,1,2,2,3,3,4,4,5,5,6,6,7,7,8,8,9,9,10,10,11,11,12,12,13,13,14,14],"right_children":[2,4,6,8,10,12,14,16,18,20,22,24,26,28,30,-1,-1,-1,-1,-1,-1,-1,-1,-1,-1,-1,-1,-1,-1,-1,-1],"split_conditions":[1.0458333E0,3.4333333E-1,3.5009615E0,1.3743685E0,7.957839E-1,1.6557823E1,6.3887656E-1,1.5520362E0,6.9525546E-1,1.3756863E1,2.9790323E1,2.2175E0,9.417892E-1,2.2086666E1,4.35E0,1.53241325E-2,2.627265E-2,-1.8855399E-3,1.8828078E-3,2.476278E-3,9.747394E-3,1.3453249E-2,2.8806383E-2,-2.268424E-3,-1.7267711E-2,1.7019773E-3,1.2198622E-2,-1.1378711E-2,2.6366668E-2,-2.5688507E-2,-5.220032E-2],"split_indices":[0,0,0,8,6,4,8,3,6,4,2,0,6,4,0,0,0,0,0,0,0,0,0,0,0,0,0,0,0,0,0],"split_type":[0,0,0,0,0,0,0,0,0,0,0,0,0,0,0,0,0,0,0,0,0,0,0,0,0,0,0,0,0,0,0],"sum_hessian":[1.3350956E4,2.504134E3,1.0846822E4,3.723125E2,2.1318215E3,1.0229988E4,6.1683386E2,3.508444E2,2.1468124E1,1.8556869E3,2.7613458E2,5.434024E3,4.7959644E3,3.941812E2,2.2265262E2,1.3749312E2,2.1335126E2,1.0084375E1,1.138375E1,1.4865524E3,3.6913446E2,2.1338174E2,6.2752834E1,4.702014E3,7.320101E2,4.3333794E3,4.625849E2,3.6592212E2,2.8259087E1,1.6291512E2,5.97375E1],"tree_param":{"num_deleted":"0","num_feature":"14","num_nodes":"31","size_leaf_vector":"1"}},{"base_weights":[-2.6111412E-3,1.3888137E-2,-6.005629E-1,5.0693417E-1,-2.7416593E-3,-2.274467E-2,-8.1640834E-1,5.559701E-1,1.7753845E-1,4.645341E-2,-7.843732E-2,5.177018E-1,-6.2554497E-1,-6.9635177E-1,-1.3938001E0,1.7862936E-2,2.6214417E-2,-4.4103335E-3,1.0557053E-2,5.540031E-4,1.3832336E-2,-2.0616138E-2,-1.897006E-3,-1.8585939E-2,3.8309455E-2,-7.251352E-3,-4.4739205E-2,-2.4691101E-2,-5.0015725E-2,-7.501865E-2,-1.3869537E-2],"categories":[],"categories_nodes":[],"categories_segments":[],"categories_sizes":[],"default_left":[0,0,0,0,0,0,0,0,0,0,0,0,0,0,0,0,0,0,0,0,0,0,0,0,0,0,0,0,0,0,0],"id":27,"left_children":[1,3,5,7,9,11,13,15,17,19,21,23,25,27,29,-1,-1,-1,-1,-1,-1,-1,-1,-1,-1,-1,-1,-1,-1,-1,-1],"loss_changes":[1.3286923E2,1.07484276E2,4.4211914E1,5.8783493E0,4.70467E1,3.4538727E1,1.3157166E1,2.0236206E0,1.7940372E0,7.423335E1,6.686444E1,2.5568316E1,9.213425E0,5.6433487E0,1.633519E1,0E0,0E0,0E0,0E0,0E0,0E0,0E0,0E0,0E0,0E0,0E0,0E0,0E0,0E0,0E0,0E0],"parents":[2147483647,0,0,1,1,2,2,3,3,4,4,5,5,6,6,7,7,8,8,9,9,10,10,11,11,12,12,13,13,14,14],"right_children":[2,4,6,8,10,12,14,16,18,20,22,24,26,28,30,-1,-1,-1,-1,-1,-1,-1,-1,-1,-1,-1,-1,-1,-1,-1,-1],"split_conditions":[3.812069E0,4.25E-1,4.8801118E-1,1.0027006E0,2E0,1.6585366E0,4.725E0,1E0,7.11E0,1.8133333E1,1.39E1,1.4428571E0,1.9829166E1,2.2963333E1,2E-1,1.7862936E-2,2.6214417E-2,-4.4103335E-3,1.0557053E-2,5.540031E-4,1.3832336E-2,-2.0616138E-2,-1.897006E-3,-1.8585939E-2,3.8309455E-2,-7.251352E-3,-4.4739205E-2,-2.4691101E-2,-5.0015725E-2,-7.501865E-2,-1.3869537E-2],"split_indices":[0,0,8,8,0,3,0,1,5,5,5,3,4,5,7,0,0,0,0,0,0,0,0,0,0,0,0,0,0,0,0],"split_type":[0,0,0,0,0,0,0,0,0,0,0,0,0,0,0,0,0,0,0,0,0,0,0,0,0,0,0,0,0,0,0],"sum_hessian":[1.3402695E4,1.3044029E4,3.586659E2,4.2467908E2,1.2619351E4,9.970493E1,2.5896094E2,3.6521188E2,5.9467186E1,7.641222E3,4.9781284E3,5.1920074E1,4.7784855E1,2.2129689E2,3.7664062E1,1.8648875E2,1.7872313E2,1.0865313E1,4.8601875E1,6.8965815E3,7.446407E2,3.2465048E2,4.653478E3,1.53072405E1,3.661283E1,2.8358517E1,1.942634E1,2.0078734E2,2.0509558E1,2.3517187E1,1.4146875E1],"tree_param":{"num_deleted":"0","num_feature":"14","num_nodes":"31","size_leaf_vector":"1"}},{"base_weights":[-5.0902516E-3,1.7454294E-2,-4.679881E-1,3.354067E-1,-5.93833E-3,-6.9826776E-1,-1.526021E-1,4.7261706E-1,1.23119645E-1,-1.5303795E-1,2.4365801E-2,-4.293331E-1,-9.110006E-1,-1.1047741E-2,-9.423886E-1,-1.7442423E-3,1.9840298E-2,3.588895E-3,1.706087E-2,-1.372831E-4,-8.827552E-3,-4.0067923E-3,2.181122E-3,-5.7329456E-3,-2.3497337E-2,-2.5351265E-2,-4.9126294E-2,-4.8745736E-3,6.297501E-2,8.357871E-3,-5.940496E-2],"categories":[],"categories_nodes":[],"categories_segments":[],"categories_sizes":[],"default_left":[0,0,0,0,0,0,0,0,0,0,0,0,0,0,0,0,0,0,0,0,0,0,0,0,0,0,0,0,0,0,0],"id":28,"left_children":[1,3,5,7,9,11,13,15,17,19,21,23,25,27,29,-1,-1,-1,-1,-1,-1,-1,-1,-1,-1,-1,-1,-1,-1,-1,-1],"loss_changes":[1.394056E2,9.476067E1,4.3889633E1,2.465866E1,5.2854305E1,1.7849426E1,2.8921711E1,6.872841E0,2.9119377E0,2.0279366E1,3.6791042E1,6.475376E0,1.2857941E1,3.969995E1,2.6919895E1,0E0,0E0,0E0,0E0,0E0,0E0,0E0,0E0,0E0,0E0,0E0,0E0,0E0,0E0,0E0,0E0],"parents":[2147483647,0,0,1,1,2,2,3,3,4,4,5,5,6,6,7,7,8,8,9,9,10,10,11,11,12,12,13,13,14,14],"right_children":[2,4,6,8,10,12,14,16,18,20,22,24,26,28,30,-1,-1,-1,-1,-1,-1,-1,-1,-1,-1,-1,-1,-1,-1,-1,-1],"split_conditions":[3.5009615E0,7.0214283E-1,2.0433332E1,1.0096488E0,2.562745E1,5.4210025E-1,2.3446667E1,1E0,7.6722276E-1,1.4053571E0,1.2646667E1,1.6315789E0,2.7925E1,2.2444761E1,3.812069E0,-1.7442423E-3,1.9840298E-2,3.588895E-3,1.706087E-2,-1.372831E-4,-8.827552E-3,-4.0067923E-3,2.181122E-3,-5.7329456E-3,-2.3497337E-2,-2.5351265E-2,-4.9126294E-2,-4.8745736E-3,6.297501E-2,8.357871E-3,-5.940496E-2],"split_indices":[0,0,4,8,2,8,5,10,6,0,5,3,2,4,0,0,0,0,0,0,0,0,0,0,0,0,0,0,0,0,0],"split_type":[0,0,0,0,0,0,0,0,0,0,0,0,0,0,0,0,0,0,0,0,0,0,0,0,0,0,0,0,0,0,0],"sum_hessian":[1.3309852E4,1.2692419E4,6.1743317E2,8.700081E2,1.1822411E4,3.529288E2,2.6450433E2,5.2335284E2,3.466553E2,2.023067E3,9.799344E3,1.6194939E2,1.9097943E2,2.2795569E2,3.654864E1,2.072E1,5.026328E2,3.1875156E2,2.790375E1,6.355406E2,1.3875265E3,1.9028074E3,7.896536E3,6.1940826E1,1.0000856E2,1.0838806E2,8.259136E1,2.162412E2,1.1714499E1,1.1710025E1,2.4838615E1],"tree_param":{"num_deleted":"0","num_feature":"14","num_nodes":"31","size_leaf_vector":"1"}},{"base_weights":[6.3517196E-3,3.4364358E-1,-1.7444327E-2,4.74E-1,1.3711822E-1,1.5257778E-2,-2.087215E-1,4.0628034E-1,8.0610454E-1,-2.168704E-3,1.5945645E-1,-1.2115062E-1,5.8675304E-2,-1.1694125E-2,-4.7616848E-1,2.0624446E-2,9.465227E-3,1.26141105E-2,3.4835476E-2,1.12016555E-2,-5.77022E-3,8.57514E-3,9.3493063E-4,-6.291029E-4,-1.3033624E-2,-5.62497E-4,5.012296E-3,-3.2722343E-2,1.7320567E-3,-3.221059E-2,-1.2856073E-2],"categories":[],"categories_nodes":[],"categories_segments":[],"categories_sizes":[],"default_left":[0,0,0,0,0,0,0,0,0,0,0,0,0,0,0,0,0,0,0,0,0,0,0,0,0,0,0,0,0,0,0],"id":29,"left_children":[1,3,5,7,9,11,13,15,17,19,21,23,25,27,29,-1,-1,-1,-1,-1,-1,-1,-1,-1,-1,-1,-1,-1,-1,-1,-1],"loss_changes":[1.0765529E2,2.2993286E1,7.832418E1,9.899246E0,1.2450175E0,6.311612E1,9.582789E1,7.3251953E0,7.090988E-1,1.7915858E0,2.043336E0,5.5104153E1,3.9358986E1,4.7794216E1,3.748123E1,0E0,0E0,0E0,0E0,0E0,0E0,0E0,0E0,0E0,0E0,0E0,0E0,0E0,0E0,0E0,0E0],"parents":[2147483647,0,0,1,1,2,2,3,3,4,4,5,5,6,6,7,7,8,8,9,9,10,10,11,11,12,12,13,13,14,14],"right_children":[2,4,6,8,10,12,14,16,18,20,22,24,26,28,30,-1,-1,-1,-1,-1,-1,-1,-1,-1,-1,-1,-1,-1,-1,-1,-1],"split_conditions":[7.0214283E-1,1.0096488E0,2.8213725E0,1.44E1,1E0,1.295E1,6.3887656E-1,6.2733335E0,2.3E1,8.763333E0,3.3617426E-2,1.3369231E0,1.6398714E0,-1.0064183E-1,1.7216667E1,2.0624446E-2,9.465227E-3,1.26141105E-2,3.4835476E-2,1.12016555E-2,-5.77022E-3,8.57514E-3,9.3493063E-4,-6.291029E-4,-1.3033624E-2,-5.62497E-4,5.012296E-3,-3.2722343E-2,1.7320567E-3,-3.221059E-2,-1.2856073E-2],"split_indices":[0,8,0,5,10,5,8,5,2,5,13,0,3,13,5,0,0,0,0,0,0,0,0,0,0,0,0,0,0,0,0],"split_type":[0,0,0,0,0,0,0,0,0,0,0,0,0,0,0,0,0,0,0,0,0,0,0,0,0,0,0,0,0,0,0],"sum_hessian":[1.3367078E4,8.810156E2,1.24860625E4,5.347562E2,3.4625937E2,1.0660928E4,1.8251353E3,4.5222406E2,8.253219E1,4.204375E1,3.0421564E2,2.5671375E3,8.09379E3,1.0548793E3,7.7025604E2,2.676953E2,1.8452875E2,1.3477187E1,6.9055E1,1.0747188E1,3.1296562E1,2.1027562E2,9.394E1,1.6997949E3,8.673425E2,3.863562E3,4.230228E3,6.5854546E1,9.890247E2,2.4027151E2,5.299845E2],"tree_param":{"num_deleted":"0","num_feature":"14","num_nodes":"31","size_leaf_vector":"1"}},{"base_weights":[-3.2046696E-3,1.8333127E-1,-4.554109E-2,4.4053605E-1,1.2937191E-1,-3.4299515E-2,-7.986095E-1,4.850381E-1,9.317788E-2,9.577736E-2,5.64126E-1,-2.4917799E-1,-9.227127E-3,-4.428573E-1,-1.0612658E0,9.428294E-5,2.0145478E-2,-4.6808324E-3,7.3752105E-3,2.1973923E-3,1.1918242E-2,-0E0,2.5429249E-2,-6.7653325E-3,-1.9925734E-2,9.562835E-4,-6.074893E-3,-2.7496416E-2,-0E0,-6.9235735E-2,-3.424532E-2],"categories":[],"categories_nodes":[],"categories_segments":[],"categories_sizes":[],"default_left":[0,0,0,0,0,0,0,0,0,0,0,0,0,0,0,0,0,0,0,0,0,0,0,0,0,0,0,0,0,0,0],"id":30,"left_children":[1,3,5,7,9,11,13,15,17,19,21,23,25,27,29,-1,-1,-1,-1,-1,-1,-1,-1,-1,-1,-1,-1,-1,-1,-1,-1],"loss_changes":[1.0501119E2,3.3380417E1,9.098727E1,5.8076935E0,2.8968208E1,5.738466E1,1.187072E1,2.818367E0,1.170687E0,1.5279963E1,5.5792274E0,2.1276672E1,4.546458E1,7.6520977E0,4.953308E0,0E0,0E0,0E0,0E0,0E0,0E0,0E0,0E0,0E0,0E0,0E0,0E0,0E0,0E0,0E0,0E0],"parents":[2147483647,0,0,1,1,2,2,3,3,4,4,5,5,6,6,7,7,8,8,9,9,10,10,11,11,12,12,13,13,14,14],"right_children":[2,4,6,8,10,12,14,16,18,20,22,24,26,28,30,-1,-1,-1,-1,-1,-1,-1,-1,-1,-1,-1,-1,-1,-1,-1,-1],"split_conditions":[1.0333333E0,4.25E-1,1E0,1.1858541E0,1.638E1,1.224E1,3.5009615E0,-1.352657E-1,7.9333334E0,2.9941177E1,1E0,1.6742105E0,2.7641177E0,4E0,1.3816667E1,9.428294E-5,2.0145478E-2,-4.6808324E-3,7.3752105E-3,2.1973923E-3,1.1918242E-2,-0E0,2.5429249E-2,-6.7653325E-3,-1.9925734E-2,9.562835E-4,-6.074893E-3,-2.7496416E-2,-0E0,-6.9235735E-2,-3.424532E-2],"split_indices":[0,0,9,8,5,5,0,13,5,2,10,0,0,10,5,0,0,0,0,0,0,0,0,0,0,0,0,0,0,0,0],"split_type":[0,0,0,0,0,0,0,0,0,0,0,0,0,0,0,0,0,0,0,0,0,0,0,0,0,0,0,0,0,0,0],"sum_hessian":[1.3308438E4,2.455555E3,1.0852884E4,4.1888E2,2.0366749E3,1.0697656E4,1.5522678E2,3.6770343E2,5.1176563E1,1.8961182E3,1.4055675E2,1.1108253E3,9.586831E3,7.096901E1,8.425776E1,1.5763125E1,3.519403E2,1.1910937E1,3.9265625E1,1.5847422E3,3.1137598E2,1.6712904E1,1.2384385E2,8.474249E2,2.6340036E2,7.7760625E3,1.8107692E3,4.389427E1,2.707474E1,1.33828125E1,7.087495E1],"tree_param":{"num_deleted":"0","num_feature":"14","num_nodes":"31","size_leaf_vector":"1"}},{"base_weights":[7.412632E-4,1.8780598E-2,-4.9753106E-1,1.7856027E-1,-1.8596161E-2,-3.4877336E-1,-1.125748E0,1.4554913E-1,5.9928E-1,2.3374695E-2,-1.7512976E-1,-4.4148535E-2,-2.990903E-1,-1.2393738E0,-1.0736586E-2,1.5343919E-2,4.077987E-3,-0E0,2.6390605E-2,-2.4778082E-3,3.3424268E-3,-2.2463787E-3,-1.2677254E-2,-3.1185633E-2,-8.391326E-3,-5.3128455E-2,-2.0945594E-2],"categories":[],"categories_nodes":[],"categories_segments":[],"categories_sizes":[],"default_left":[0,0,0,0,0,0,0,0,0,0,0,0,0,0,0,0,0,0,0,0,0,0,0,0,0,0,0],"id":31,"left_children":[1,3,5,7,9,11,13,15,17,19,21,-1,23,25,-1,-1,-1,-1,-1,-1,-1,-1,-1,-1,-1,-1,-1],"loss_changes":[1.19531586E2,7.7130905E1,4.076082E1,3.2998466E1,6.8762665E1,1.190641E1,5.901932E0,2.302414E1,6.1339836E0,4.2305653E1,3.6908546E1,0E0,1.4101219E1,7.8902435E-1,0E0,0E0,0E0,0E0,0E0,0E0,0E0,0E0,0E0,0E0,0E0,0E0,0E0],"parents":[2147483647,0,0,1,1,2,2,3,3,4,4,5,5,6,6,7,7,8,8,9,9,10,10,12,12,13,13],"right_children":[2,4,6,8,10,12,14,16,18,20,22,-1,24,26,-1,-1,-1,-1,-1,-1,-1,-1,-1,-1,-1,-1,-1],"split_conditions":[3.6666667E0,1.0333333E0,1E0,1.6033333E1,9.9479616E-1,1.646E1,1.8303572E0,3.4333333E-1,1E0,1.625E0,1.738125E0,-4.4148535E-2,3.7466667E0,1.6666667E-1,-1.0736586E-2,1.5343919E-2,4.077987E-3,-0E0,2.6390605E-2,-2.4778082E-3,3.3424268E-3,-2.2463787E-3,-1.2677254E-2,-3.1185633E-2,-8.391326E-3,-5.3128455E-2,-2.0945594E-2],"split_indices":[0,0,9,4,8,5,3,0,10,3,0,0,0,7,0,0,0,0,0,0,0,0,0,0,0,0,0],"split_type":[0,0,0,0,0,0,0,0,0,0,0,0,0,0,0,0,0,0,0,0,0,0,0,0,0,0,0],"sum_hessian":[1.3345421E4,1.288387E4,4.6155078E2,2.4454375E3,1.0438433E4,3.782427E2,8.3308075E1,2.273468E3,1.7196953E2,8.228354E3,2.2100786E3,1.8182625E1,3.600601E2,7.13487E1,1.1959375E1,3.4476312E2,1.928705E3,1.6519035E1,1.5545049E2,3.3966067E3,4.831747E3,1.2079008E3,1.00217786E3,5.103894E1,3.0902115E2,5.994401E1,1.1404688E1],"tree_param":{"num_deleted":"0","num_feature":"14","num_nodes":"27","size_leaf_vector":"1"}},{"base_weights":[-4.250851E-3,3.69758E-2,-2.0884421E-1,2.9949084E-1,1.4288819E-2,-6.9249403E-1,-1.619029E-1,4.332125E-1,1.997645E-1,-8.4087856E-2,6.0598347E-2,4.5253164E-3,-7.5628954E-1,-1.0787044E-1,-4.3135765E-1,1.2472344E-2,2.0120282E-2,5.6276345E-3,2.7298454E-2,-1.2590998E-4,-9.9097695E-3,9.062499E-3,1.1265716E-3,-5.388812E-2,-2.5536276E-2,-2.4428746E-2,-2.6027288E-3,-1.3471723E-2,-4.5148294E-2],"categories":[],"categories_nodes":[],"categories_segments":[],"categories_sizes":[],"default_left":[0,0,0,0,0,0,0,0,0,0,0,0,0,0,0,0,0,0,0,0,0,0,0,0,0,0,0,0,0],"id":32,"left_children":[1,3,5,7,9,11,13,15,17,19,21,-1,23,25,27,-1,-1,-1,-1,-1,-1,-1,-1,-1,-1,-1,-1,-1,-1],"loss_changes":[1.1249993E2,6.5662865E1,4.960813E1,1.0812477E1,4.6485195E1,1.0929817E1,2.9100372E1,1.8337479E0,1.3506163E1,4.2940044E1,3.7124332E1,0E0,8.1381E0,3.6027065E1,1.9653633E1,0E0,0E0,0E0,0E0,0E0,0E0,0E0,0E0,0E0,0E0,0E0,0E0,0E0,0E0],"parents":[2147483647,0,0,1,1,2,2,3,3,4,4,5,5,6,6,7,7,8,8,9,9,10,10,12,12,13,13,14,14],"right_children":[2,4,6,8,10,12,14,16,18,20,22,-1,24,26,28,-1,-1,-1,-1,-1,-1,-1,-1,-1,-1,-1,-1,-1,-1],"split_conditions":[2.675E0,7.0214283E-1,1.5935715E1,3.4333333E-1,1.3673333E1,3.7777779E-1,3.812069E0,1.5520362E0,1.4356667E1,1.4053571E0,1.29E0,4.5253164E-3,7.126256E-1,-1.0298317E-1,4E0,1.2472344E-2,2.0120282E-2,5.6276345E-3,2.7298454E-2,-1.2590998E-4,-9.9097695E-3,9.062499E-3,1.1265716E-3,-5.388812E-2,-2.5536276E-2,-2.4428746E-2,-2.6027288E-3,-1.3471723E-2,-4.5148294E-2],"split_indices":[0,0,4,0,5,9,0,3,5,0,0,0,6,13,10,0,0,0,0,0,0,0,0,0,0,0,0,0,0],"split_type":[0,0,0,0,0,0,0,0,0,0,0,0,0,0,0,0,0,0,0,0,0,0,0,0,0,0,0,0,0],"sum_hessian":[1.3311629E4,1.1077104E4,2.2345254E3,8.7473315E2,1.020237E4,1.9215337E2,2.0423721E3,3.6510687E2,5.0962625E2,3.257765E3,6.944606E3,1.2779185E1,1.7937418E2,1.7078228E3,3.3454938E2,1.4449532E2,2.2061156E2,4.5935532E2,5.027094E1,2.185863E3,1.0719019E3,1.1273256E3,5.8172803E3,2.3218433E1,1.5615575E2,1.2901086E2,1.5788118E3,2.9978033E2,3.4769028E1],"tree_param":{"num_deleted":"0","num_feature":"14","num_nodes":"29","size_leaf_vector":"1"}},{"base_weights":[4.7131353E-3,1.1271896E-2,-5.435921E-1,-2.5697464E-2,8.730411E-2,-3.884797E-2,-2.4091166E-1,3.061883E-1,-3.3512913E-2,-5.724637E-2,1.1037796E-1,2.700373E-1,-5.4924476E-1,1.4040189E-2,-8.216945E-3,-1.6838302E-3,1.0005184E-2,-4.177362E-3,2.6856339E-2,2.1192734E-3,6.9254E-3,-5.795164E-3,2.591122E-2,-3.1696197E-2,3.799165E-3],"categories":[],"categories_nodes":[],"categories_segments":[],"categories_sizes":[],"default_left":[0,0,0,0,0,0,0,0,0,0,0,0,0,0,0,0,0,0,0,0,0,0,0,0,0],"id":33,"left_children":[1,3,5,7,9,-1,11,13,15,17,19,21,23,-1,-1,-1,-1,-1,-1,-1,-1,-1,-1,-1,-1],"loss_changes":[4.737452E1,3.706976E1,1.8233425E1,2.2715061E1,1.4467907E1,0E0,1.5927928E1,4.970003E0,2.0887955E1,1.9934385E1,1.317831E1,6.600794E0,1.0697475E1,0E0,0E0,0E0,0E0,0E0,0E0,0E0,0E0,0E0,0E0,0E0,0E0],"parents":[2147483647,0,0,1,1,2,2,3,3,4,4,6,6,7,7,8,8,9,9,10,10,11,11,12,12],"right_children":[2,4,6,8,10,-1,12,14,16,18,20,22,24,-1,-1,-1,-1,-1,-1,-1,-1,-1,-1,-1,-1],"split_conditions":[1E0,2.8954546E1,8.0498725E-1,6.3497806E-1,1E0,-3.884797E-2,8.6873704E-1,2.0833334E-2,9.6313345E-1,9.364916E-1,7.963951E-1,3E0,1.6666667E-1,1.4040189E-2,-8.216945E-3,-1.6838302E-3,1.0005184E-2,-4.177362E-3,2.6856339E-2,2.1192734E-3,6.9254E-3,-5.795164E-3,2.591122E-2,-3.1696197E-2,3.799165E-3],"split_indices":[9,2,6,6,10,0,6,9,6,6,6,10,7,0,0,0,0,0,0,0,0,0,0,0,0],"split_type":[0,0,0,0,0,0,0,0,0,0,0,0,0,0,0,0,0,0,0,0,0,0,0,0,0],"sum_hessian":[1.3313395E4,1.31607295E4,1.5266492E2,8.847579E3,4.3131504E3,5.915906E1,9.350586E1,1.9797606E2,8.649604E3,5.8713715E2,3.726013E3,3.4110157E1,5.9395702E1,1.8469354E2,1.3282505E1,8.401461E3,2.4814244E2,5.551294E2,3.2007763E1,1.9573416E3,1.7686714E3,1.5875E1,1.8235157E1,4.3746094E1,1.564961E1],"tree_param":{"num_deleted":"0","num_feature":"14","num_nodes":"25","size_leaf_vector":"1"}},{"base_weights":[8.9048466E-4,1.6105892E-1,-3.7765738E-2,1.23073325E-1,4.4357E-1,5.806936E-3,-1.999683E-1,3.9369246E-1,8.146164E-2,5.000962E-1,6.68247E-2,-5.2292585E-2,8.090509E-2,-1.7847359E-1,-4.8413754E-2,1.2213547E-2,2.4042897E-2,6.2645064E-4,9.299861E-3,1.6134538E-2,2.8960835E-2,-8.936553E-3,1.0891272E-2,-6.927556E-4,-6.7575215E-3,1.9068553E-3,1.3038189E-2,-1.0248721E-2,5.891238E-4],"categories":[],"categories_nodes":[],"categories_segments":[],"categories_sizes":[],"default_left":[0,0,0,0,0,0,0,0,0,0,0,0,0,0,0,0,0,0,0,0,0,0,0,0,0,0,0,0,0],"id":34,"left_children":[1,3,5,7,9,11,13,15,17,19,21,23,25,27,-1,-1,-1,-1,-1,-1,-1,-1,-1,-1,-1,-1,-1,-1,-1],"loss_changes":[8.246378E1,2.7070824E1,7.58799E1,2.5226063E1,5.780716E0,3.6861706E1,4.7314987E1,4.0641174E0,1.954324E1,3.6391983E0,2.930996E0,1.919191E1,2.9627998E1,3.374182E1,0E0,0E0,0E0,0E0,0E0,0E0,0E0,0E0,0E0,0E0,0E0,0E0,0E0,0E0,0E0],"parents":[2147483647,0,0,1,1,2,2,3,3,4,4,5,5,6,6,7,7,8,8,9,9,10,10,11,11,12,12,13,13],"right_children":[2,4,6,8,10,12,14,16,18,20,22,24,26,28,-1,-1,-1,-1,-1,-1,-1,-1,-1,-1,-1,-1,-1,-1,-1],"split_conditions":[1.0644444E0,8.0498725E-1,9.9479616E-1,6.3497806E-1,1.020452E0,1.7023809E0,4.725E0,1.7865169E0,1.291E1,2.9754717E1,1.5369128E0,2.61E0,9.147836E-1,1.7E1,-4.8413754E-2,1.2213547E-2,2.4042897E-2,6.2645064E-4,9.299861E-3,1.6134538E-2,2.8960835E-2,-8.936553E-3,1.0891272E-2,-6.927556E-4,-6.7575215E-3,1.9068553E-3,1.3038189E-2,-1.0248721E-2,5.891238E-4],"split_indices":[0,6,8,6,8,3,0,3,5,2,3,0,6,5,0,0,0,0,0,0,0,0,0,0,0,0,0,0,0],"split_type":[0,0,0,0,0,0,0,0,0,0,0,0,0,0,0,0,0,0,0,0,0,0,0,0,0,0,0,0,0],"sum_hessian":[1.3292996E4,2.587656E3,1.0705341E4,2.2878809E3,2.9977505E2,8.435917E3,2.2694233E3,2.9832526E2,1.9895555E3,2.5750317E2,4.2271885E1,4.749259E3,3.6866587E3,2.226575E3,4.284844E1,2.177798E2,8.054547E1,1.3927274E3,5.968282E2,1.8880952E2,6.869364E1,1.5394909E1,2.6876978E1,3.6630024E3,1.0862561E3,3.2531323E3,4.3352634E2,1.5906815E3,6.358933E2],"tree_param":{"num_deleted":"0","num_feature":"14","num_nodes":"29","size_leaf_vector":"1"}},{"base_weights":[4.6137692E-3,-5.1869214E-2,5.8748905E-2,-9.089212E-3,-2.0047878E-1,-1.460693E-2,1.3383937E-1,-1.5261156E-2,6.0253125E-1,-8.380556E-2,-3.1617323E-1,-1.2987085E-1,4.8036885E-2,9.643706E-2,4.7957373E-1,4.7764215E-3,-1.5578938E-3,3.0757073E-2,-0E0,-4.97008E-3,2.1516092E-2,-1.63164E-2,-3.9051326E-3,-2.5355793E-3,-1.4791237E-2,2.4058423E-3,-3.6036924E-2,-4.2081363E-3,4.7336794E-3,5.3597018E-2,9.080877E-3],"categories":[],"categories_nodes":[],"categories_segments":[],"categories_sizes":[],"default_left":[0,0,0,0,0,0,0,0,0,0,0,0,0,0,0,0,0,0,0,0,0,0,0,0,0,0,0,0,0,0,0],"id":35,"left_children":[1,3,5,7,9,11,13,15,17,19,21,23,25,27,29,-1,-1,-1,-1,-1,-1,-1,-1,-1,-1,-1,-1,-1,-1,-1,-1],"loss_changes":[4.1073326E1,4.151432E1,3.7948944E1,1.8711086E1,1.925241E1,2.5151766E1,4.325474E1,1.606951E1,5.2968826E0,1.8299297E1,1.398217E1,1.908357E1,2.5111988E1,1.3631086E1,6.8913635E1,0E0,0E0,0E0,0E0,0E0,0E0,0E0,0E0,0E0,0E0,0E0,0E0,0E0,0E0,0E0,0E0],"parents":[2147483647,0,0,1,1,2,2,3,3,4,4,5,5,6,6,7,7,8,8,9,9,10,10,11,11,12,12,13,13,14,14],"right_children":[2,4,6,8,10,12,14,16,18,20,22,24,26,28,30,-1,-1,-1,-1,-1,-1,-1,-1,-1,-1,-1,-1,-1,-1,-1,-1],"split_conditions":[2.7710526E1,4.4E-1,1E0,9.6669066E-1,6.26178E-1,-2.5892989E-3,9.147836E-1,2.0833334E-2,3.6666667E-1,6.1408377E-1,3.5587825E-2,1.8776667E1,1E0,1E0,2.847619E1,4.7764215E-3,-1.5578938E-3,3.0757073E-2,-0E0,-4.97008E-3,2.1516092E-2,-1.63164E-2,-3.9051326E-3,-2.5355793E-3,-1.4791237E-2,2.4058423E-3,-3.6036924E-2,-4.2081363E-3,4.7336794E-3,5.3597018E-2,9.080877E-3],"split_indices":[2,9,1,6,8,13,6,9,9,8,13,5,9,10,2,0,0,0,0,0,0,0,0,0,0,0,0,0,0,0,0],"split_type":[0,0,0,0,0,0,0,0,0,0,0,0,0,0,0,0,0,0,0,0,0,0,0,0,0,0,0,0,0,0,0],"sum_hessian":[1.3424452E4,6.5607817E3,6.8636704E3,5.1019917E3,1.4587899E3,3.4664229E3,3.3972473E3,5.0555356E3,4.6455944E1,7.3320184E2,7.255881E2,1.2250635E3,2.2413594E3,3.0716758E3,3.2557153E2,7.480475E2,4.3074883E3,3.632621E1,1.0129735E1,6.921796E2,4.1022232E1,5.060095E2,2.1957858E2,9.654805E2,2.5958298E2,2.2169338E3,2.4425468E1,2.9539838E2,2.7762776E3,7.005238E1,2.5551915E2],"tree_param":{"num_deleted":"0","num_feature":"14","num_nodes":"31","size_leaf_vector":"1"}},{"base_weights":[-1.8927475E-3,1.1912678E-1,-5.021002E-2,3.7818018E-1,9.0575255E-2,-4.7262143E-3,-2.0985362E-1,2.535059E-1,4.933032E-1,3.9504796E-2,2.6047525E-1,-1.46841E-1,2.407985E-2,-3.4796333E-1,-6.647861E-2,-0E0,1.1461901E-2,2.0773483E-2,-0E0,9.5016796E-5,6.0148453E-3,2.1498334E-2,8.300451E-3,6.288516E-4,-9.200571E-3,-4.8480756E-3,2.4778128E-3,-1.1505333E-2,-3.8172513E-2,-1.345277E-3,-3.2848567E-2],"categories":[],"categories_nodes":[],"categories_segments":[],"categories_sizes":[],"default_left":[0,0,0,0,0,0,0,0,0,0,0,0,0,0,0,0,0,0,0,0,0,0,0,0,0,0,0,0,0,0,0],"id":36,"left_children":[1,3,5,7,9,11,13,15,17,19,21,23,25,27,29,-1,-1,-1,-1,-1,-1,-1,-1,-1,-1,-1,-1,-1,-1,-1,-1],"loss_changes":[7.805581E1,2.7581738E1,6.915822E1,4.238098E0,2.9482119E1,3.0606302E1,4.1368095E1,1.8637047E0,1.899643E0,1.0754101E1,1.04958E1,1.7272211E1,3.3993103E1,3.7160263E1,2.4950623E1,0E0,0E0,0E0,0E0,0E0,0E0,0E0,0E0,0E0,0E0,0E0,0E0,0E0,0E0,0E0,0E0],"parents":[2147483647,0,0,1,1,2,2,3,3,4,4,5,5,6,6,7,7,8,8,9,9,10,10,11,11,12,12,13,13,14,14],"right_children":[2,4,6,8,10,12,14,16,18,20,22,24,26,28,30,-1,-1,-1,-1,-1,-1,-1,-1,-1,-1,-1,-1,-1,-1,-1,-1],"split_conditions":[1.2716666E0,3.4333333E-1,9.491188E-1,1.625E0,1.4606667E1,1E0,1.5566667E1,-9.5292136E-2,1.3743685E0,1.781457E0,8.714035E-1,1.885E0,2.6114754E1,2.7641177E0,4.35E0,-0E0,1.1461901E-2,2.0773483E-2,-0E0,9.5016796E-5,6.0148453E-3,2.1498334E-2,8.300451E-3,6.288516E-4,-9.200571E-3,-4.8480756E-3,2.4778128E-3,-1.1505333E-2,-3.8172513E-2,-1.345277E-3,-3.2848567E-2],"split_indices":[0,0,8,3,5,10,5,13,8,3,0,0,2,0,0,0,0,0,0,0,0,0,0,0,0,0,0,0,0,0,0],"split_type":[0,0,0,0,0,0,0,0,0,0,0,0,0,0,0,0,0,0,0,0,0,0,0,0,0,0,0,0,0,0,0],"sum_hessian":[1.3354675E4,3.8033613E3,9.551313E3,3.7044876E2,3.4329126E3,7.4407373E3,2.110576E3,1.8662875E2,1.8382E2,2.6468699E3,7.8604266E2,1.2578E3,6.182937E3,1.0692946E3,1.0412814E3,1.8512812E1,1.6811594E2,1.7260251E2,1.12175E1,1.9918718E3,6.54998E2,1.1874168E2,6.6730096E2,4.2247733E2,8.3532275E2,1.2714899E3,4.9114473E3,9.7805347E2,9.1241135E1,1.00212665E3,3.9154686E1],"tree_param":{"num_deleted":"0","num_feature":"14","num_nodes":"31","size_leaf_vector":"1"}},{"base_weights":[-4.262181E-3,1.1233924E-2,-4.3313888E-1,1.4935769E-1,-2.0878073E-2,-2.0836583E-1,-7.180145E-1,1.2409051E-1,5.412503E-1,-2.0344336E-1,7.3462753E-3,-3.0439547E-1,4.8231844E-2,-6.036171E-2,-6.070165E-1,1.4591036E-2,3.1993466E-3,2.3807196E-2,-0E0,-4.9196472E-3,-1.5975926E-2,-2.4942935E-3,2.7656697E-3,-2.8237361E-2,-3.429077E-3,4.861432E-3,-2.7173392E-2],"categories":[],"categories_nodes":[],"categories_segments":[],"categories_sizes":[],"default_left":[0,0,0,0,0,0,0,0,0,0,0,0,0,0,0,0,0,0,0,0,0,0,0,0,0,0,0],"id":37,"left_children":[1,3,5,7,9,11,13,15,17,19,21,23,-1,-1,25,-1,-1,-1,-1,-1,-1,-1,-1,-1,-1,-1,-1],"loss_changes":[8.965478E1,5.760796E1,2.8749725E1,2.3396729E1,5.4354786E1,3.675225E1,1.3074196E1,2.3971653E1,3.7450256E0,2.1591633E1,3.9219418E1,2.1425875E1,0E0,0E0,1.0567986E1,0E0,0E0,0E0,0E0,0E0,0E0,0E0,0E0,0E0,0E0,0E0,0E0],"parents":[2147483647,0,0,1,1,2,2,3,3,4,4,5,5,6,6,7,7,8,8,9,9,10,10,11,11,14,14],"right_children":[2,4,6,8,10,12,14,16,18,20,22,24,-1,-1,26,-1,-1,-1,-1,-1,-1,-1,-1,-1,-1,-1,-1],"split_conditions":[3.6666667E0,1.0333333E0,6.1058915E-1,1.658E1,1.2646667E1,2.2086666E1,1.3931396E1,3.4333333E-1,1E0,1.61375E0,1.6380597E0,2.672E1,4.8231844E-2,-6.036171E-2,1.568E1,1.4591036E-2,3.1993466E-3,2.3807196E-2,-0E0,-4.9196472E-3,-1.5975926E-2,-2.4942935E-3,2.7656697E-3,-2.8237361E-2,-3.429077E-3,4.861432E-3,-2.7173392E-2],"split_indices":[0,0,8,5,5,4,4,0,11,0,3,2,0,0,5,0,0,0,0,0,0,0,0,0,0,0,0],"split_type":[0,0,0,0,0,0,0,0,0,0,0,0,0,0,0,0,0,0,0,0,0,0,0,0,0,0,0],"sum_hessian":[1.3421522E4,1.2954058E4,4.6746423E2,2.4473643E3,1.0506693E4,2.6616156E2,2.0130267E2,2.3052363E3,1.4212794E2,1.4090774E3,9.097616E3,2.5210367E2,1.4057886E1,1.9012812E1,1.8228987E2,3.5013126E2,1.9551051E3,1.2759125E2,1.4536695E1,1.00602496E3,4.030524E2,4.267633E3,4.8299834E3,8.491574E1,1.6718793E2,1.5027706E1,1.6726216E2],"tree_param":{"num_deleted":"0","num_feature":"14","num_nodes":"27","size_leaf_vector":"1"}},{"base_weights":[-4.8563625E-3,1.2143521E-1,-5.6941338E-2,3.5436606E-1,9.256212E-2,-8.203731E-3,-2.3551519E-1,3.1957096E-1,6.471399E-1,3.8179995E-3,1.9074394E-1,-1.433534E-1,1.6652336E-2,-1.9759639E-1,-7.152218E-1,8.335869E-3,1.6704852E-2,3.13153E-2,1.13492375E-2,-1.2603919E-3,4.0738457E-3,2.517978E-3,1.0734377E-2,9.358479E-3,-7.821711E-3,1.7666539E-4,1.290396E-2,-1.1177478E-2,5.4221377E-3,-2.1049362E-2,-4.2695425E-2],"categories":[],"categories_nodes":[],"categories_segments":[],"categories_sizes":[],"default_left":[0,0,0,0,0,0,0,0,0,0,0,0,0,0,0,0,0,0,0,0,0,0,0,0,0,0,0,0,0,0,0],"id":38,"left_children":[1,3,5,7,9,11,13,15,17,19,21,23,25,27,29,-1,-1,-1,-1,-1,-1,-1,-1,-1,-1,-1,-1,-1,-1,-1,-1],"loss_changes":[8.783482E1,2.5659016E1,8.2138855E1,2.740593E0,3.0076612E1,2.5141115E1,3.5500816E1,3.349743E0,1.980915E-1,6.4291177E0,1.5925758E1,2.3000097E1,2.319354E1,5.159487E1,6.390167E0,0E0,0E0,0E0,0E0,0E0,0E0,0E0,0E0,0E0,0E0,0E0,0E0,0E0,0E0,0E0,0E0],"parents":[2147483647,0,0,1,1,2,2,3,3,4,4,5,5,6,6,7,7,8,8,9,9,10,10,11,11,12,12,13,13,14,14],"right_children":[2,4,6,8,10,12,14,16,18,20,22,24,26,28,30,-1,-1,-1,-1,-1,-1,-1,-1,-1,-1,-1,-1,-1,-1,-1,-1],"split_conditions":[1.29E0,4.25E-1,9.5666087E-1,7.581019E-2,1.2646667E1,2.5675676E1,3.7466667E0,1E0,1.2041612E-1,1.7638377E0,7.363095E-1,2.4291666E1,9.6669066E-1,1.8133333E1,4.725E0,8.335869E-3,1.6704852E-2,3.13153E-2,1.13492375E-2,-1.2603919E-3,4.0738457E-3,2.517978E-3,1.0734377E-2,9.358479E-3,-7.821711E-3,1.7666539E-4,1.290396E-2,-1.1177478E-2,5.4221377E-3,-2.1049362E-2,-4.2695425E-2],"split_indices":[0,0,8,13,5,2,0,1,13,3,6,2,6,5,0,0,0,0,0,0,0,0,0,0,0,0,0,0,0,0,0],"split_type":[0,0,0,0,0,0,0,0,0,0,0,0,0,0,0,0,0,0,0,0,0,0,0,0,0,0,0,0,0,0,0],"sum_hessian":[1.3356683E4,3.893306E3,9.463377E3,4.2182437E2,3.4714814E3,7.441209E3,2.0221682E3,3.8567813E2,3.614625E1,1.8303632E3,1.6411183E3,1.1599816E3,6.2812275E3,1.8798911E3,1.4227715E2,1.8991656E2,1.9576157E2,2.1791874E1,1.4354375E1,1.3394728E3,4.9089038E2,6.270286E2,1.0140896E3,1.3735214E2,1.0226294E3,6.045752E3,2.3547545E2,1.5119543E3,3.679368E2,9.930684E1,4.2970314E1],"tree_param":{"num_deleted":"0","num_feature":"14","num_nodes":"31","size_leaf_vector":"1"}},{"base_weights":[7.0320064E-4,1.9179963E-2,-3.3862355E-1,2.2322845E-1,1.4841076E-4,-5.0491244E-1,-6.8118475E-2,1.961059E-1,6.11053E-1,-6.0615137E-2,8.2679555E-2,-5.112553E-2,-4.5313022E-1,2.2662453E-2,-4.826957E-2,1.3070798E-2,5.154676E-3,2.7131746E-2,6.0043493E-3,-5.0205557E-4,-9.365072E-3,9.2519205E-3,1.6959043E-3,-1.6698552E-3,-2.2705778E-2,-2.6604861E-3,4.956262E-2],"categories":[],"categories_nodes":[],"categories_segments":[],"categories_sizes":[],"default_left":[0,0,0,0,0,0,0,0,0,0,0,0,0,0,0,0,0,0,0,0,0,0,0,0,0,0,0],"id":39,"left_children":[1,3,5,7,9,11,13,15,17,19,21,-1,23,25,-1,-1,-1,-1,-1,-1,-1,-1,-1,-1,-1,-1,-1],"loss_changes":[8.323794E1,4.8868927E1,3.015522E1,1.0130688E1,5.8062927E1,1.3416618E1,2.8833355E1,8.297249E0,9.233551E-1,5.527765E1,2.9119823E1,0E0,1.8215523E1,2.8444113E1,0E0,0E0,0E0,0E0,0E0,0E0,0E0,0E0,0E0,0E0,0E0,0E0,0E0],"parents":[2147483647,0,0,1,1,2,2,3,3,4,4,5,5,6,6,7,7,8,8,9,9,10,10,12,12,13,13],"right_children":[2,4,6,8,10,12,14,16,18,20,22,-1,24,26,-1,-1,-1,-1,-1,-1,-1,-1,-1,-1,-1,-1,-1],"split_conditions":[3.4669445E0,7.640625E-1,2.0699074E1,1.5578395E1,1.648125E1,1.3855128E1,1.1846619E-1,3.4333333E-1,3.0586206E1,1.914E0,1.8283334E0,-5.112553E-2,1.6983334E1,1.0720116E-1,-4.826957E-2,1.3070798E-2,5.154676E-3,2.7131746E-2,6.0043493E-3,-5.0205557E-4,-9.365072E-3,9.2519205E-3,1.6959043E-3,-1.6698552E-3,-2.2705778E-2,-2.6604861E-3,4.956262E-2],"split_indices":[0,0,4,4,4,4,13,0,2,0,0,0,4,13,0,0,0,0,0,0,0,0,0,0,0,0,0],"split_type":[0,0,0,0,0,0,0,0,0,0,0,0,0,0,0,0,0,0,0,0,0,0,0,0,0,0,0],"sum_hessian":[1.3321151E4,1.2638734E4,6.824173E2,1.0710153E3,1.1567719E4,4.1871945E2,2.636978E2,1.00764124E3,6.337406E1,6.6559536E3,4.911765E3,2.0609676E1,3.9810977E2,2.4613574E2,1.7562086E1,3.3336624E2,6.74275E2,5.2178436E1,1.1195625E1,5.219188E3,1.4367655E3,1.0390789E3,3.8726863E3,8.948126E1,3.086285E2,2.3120029E2,1.4935447E1],"tree_param":{"num_deleted":"0","num_feature":"14","num_nodes":"27","size_leaf_vector":"1"}},{"base_weights":[-9.878731E-4,1.4580787E-2,-3.1099442E-1,1.4125703E-1,-1.7322717E-2,-4.616546E-2,-4.8661128E-1,1.1678181E-1,4.801111E-1,-2.1276517E-1,6.685589E-3,-1.4771992E-1,4.3434465E-1,-6.1764985E-1,-1.4170097E-1,1.2861751E-2,3.0024077E-3,2.8106584E-3,2.084607E-2,-4.901178E-3,-1.7453754E-2,-4.2569987E-4,9.848899E-3,1.2469693E-2,-1.4026903E-2,4.8951887E-2,-2.2953818E-2,-4.130809E-3,-3.1031415E-2,1.262195E-3,-3.449026E-2],"categories":[],"categories_nodes":[],"categories_segments":[],"categories_sizes":[],"default_left":[0,0,0,0,0,0,0,0,0,0,0,0,0,0,0,0,0,0,0,0,0,0,0,0,0,0,0,0,0,0,0],"id":40,"left_children":[1,3,5,7,9,11,13,15,17,19,21,23,25,27,29,-1,-1,-1,-1,-1,-1,-1,-1,-1,-1,-1,-1,-1,-1,-1,-1],"loss_changes":[6.488403E1,5.1616398E1,2.9304417E1,2.0545757E1,4.794359E1,1.2689085E1,1.6334946E1,2.0061493E1,2.1477432E0,2.1827477E1,3.7841583E1,2.0901617E1,3.837303E1,2.1274353E1,1.486023E1,0E0,0E0,0E0,0E0,0E0,0E0,0E0,0E0,0E0,0E0,0E0,0E0,0E0,0E0,0E0,0E0],"parents":[2147483647,0,0,1,1,2,2,3,3,4,4,5,5,6,6,7,7,8,8,9,9,10,10,11,11,12,12,13,13,14,14],"right_children":[2,4,6,8,10,12,14,16,18,20,22,24,26,28,30,-1,-1,-1,-1,-1,-1,-1,-1,-1,-1,-1,-1,-1,-1,-1,-1],"split_conditions":[3.4669445E0,1.0575E0,5.4210025E-1,1.642E1,1.224E1,1.01992145E-1,9.6313345E-1,4.25E-1,1E0,1.61375E0,9.335227E-1,-4.9498387E-2,1.1433605E-1,-4.1071776E-2,1.0613873E0,1.2861751E-2,3.0024077E-3,2.8106584E-3,2.084607E-2,-4.901178E-3,-1.7453754E-2,-4.2569987E-4,9.848899E-3,1.2469693E-2,-1.4026903E-2,4.8951887E-2,-2.2953818E-2,-4.130809E-3,-3.1031415E-2,1.262195E-3,-3.449026E-2],"split_indices":[0,0,8,5,5,13,6,0,10,0,6,13,13,13,6,0,0,0,0,0,0,0,0,0,0,0,0,0,0,0,0],"split_type":[0,0,0,0,0,0,0,0,0,0,0,0,0,0,0,0,0,0,0,0,0,0,0,0,0,0,0,0,0,0,0],"sum_hessian":[1.3376369E4,1.2736376E4,6.3999304E2,2.566576E3,1.0169801E4,2.589624E2,3.8103064E2,2.4001963E3,1.663797E2,1.1145708E3,9.0552295E3,2.1721373E2,4.1748653E1,2.723048E2,1.0872584E2,3.988119E2,2.0013844E3,1.8102743E1,1.4827695E2,8.005771E2,3.1399374E2,8.443145E3,6.120846E2,6.454826E1,1.5266547E2,2.3610788E1,1.8137867E1,6.6682915E1,2.0562189E2,8.884425E1,1.9881582E1],"tree_param":{"num_deleted":"0","num_feature":"14","num_nodes":"31","size_leaf_vector":"1"}},{"base_weights":[2.929686E-3,5.2333858E-2,-1.24867655E-1,1.6145408E-2,1.7064324E-1,-4.6873185E-1,-8.981909E-2,1.9608875E-1,-1.3193529E-2,9.3850605E-2,2.6858717E-1,-2.4046133E-1,-6.7592806E-1,-7.9222165E-2,-8.654337E-1,1.1665611E-2,2.664068E-3,-1.2746362E-2,5.3135518E-5,-3.9277796E-4,7.841271E-3,8.338182E-3,2.1419615E-2,-1.5369015E-2,2.824426E-3,-2.9570479E-2,-3.864146E-3,-6.7055677E-3,3.2430282E-4,-4.2372838E-2,-3.4120725E-3],"categories":[],"categories_nodes":[],"categories_segments":[],"categories_sizes":[],"default_left":[0,0,0,0,0,0,0,0,0,0,0,0,0,0,0,0,0,0,0,0,0,0,0,0,0,0,0,0,0,0,0],"id":41,"left_children":[1,3,5,7,9,11,13,15,17,19,21,23,25,27,29,-1,-1,-1,-1,-1,-1,-1,-1,-1,-1,-1,-1,-1,-1,-1,-1],"loss_changes":[8.463998E1,4.125769E1,4.433066E1,3.9384148E1,1.6568138E1,1.4778137E1,2.6761698E1,1.2521793E1,2.8625309E1,1.3726887E1,1.4751602E1,7.986127E0,5.38533E0,2.606737E1,5.2696342E0,0E0,0E0,0E0,0E0,0E0,0E0,0E0,0E0,0E0,0E0,0E0,0E0,0E0,0E0,0E0,0E0],"parents":[2147483647,0,0,1,1,2,2,3,3,4,4,5,5,6,6,7,7,8,8,9,9,10,10,11,11,12,12,13,13,14,14],"right_children":[2,4,6,8,10,12,14,16,18,20,22,24,26,28,30,-1,-1,-1,-1,-1,-1,-1,-1,-1,-1,-1,-1,-1,-1,-1,-1],"split_conditions":[2.28E0,1.692E1,1.5443334E1,7.640625E-1,7.0985896E-3,8.2684547E-1,4.725E0,1.0465887E0,9.066667E0,1.5964912E0,3.877551E-1,7.3029673E-1,1.0966133E-1,1E0,1.6666667E-1,1.1665611E-2,2.664068E-3,-1.2746362E-2,5.3135518E-5,-3.9277796E-4,7.841271E-3,8.338182E-3,2.1419615E-2,-1.5369015E-2,2.824426E-3,-2.9570479E-2,-3.864146E-3,-6.7055677E-3,3.2430282E-4,-4.2372838E-2,-3.4120725E-3],"split_indices":[0,5,5,0,13,8,0,8,5,3,9,8,13,1,7,0,0,0,0,0,0,0,0,0,0,0,0,0,0,0,0],"split_type":[0,0,0,0,0,0,0,0,0,0,0,0,0,0,0,0,0,0,0,0,0,0,0,0,0,0,0,0,0,0,0],"sum_hessian":[1.3411103E4,9.678979E3,3.732124E3,7.420928E3,2.25805E3,3.3914017E2,3.392984E3,1.0427156E3,6.3782124E3,1.2747056E3,9.833446E2,1.6674414E2,1.7239603E2,3.3517854E3,4.1198437E1,5.933725E2,4.4934314E2,2.8973468E2,6.088478E3,6.292311E2,6.454744E2,8.0995386E2,1.7339073E2,1.1575594E2,5.0988205E1,1.5310376E2,1.9292261E1,1.6698435E3,1.6819419E3,3.1110937E1,1.00875E1],"tree_param":{"num_deleted":"0","num_feature":"14","num_nodes":"31","size_leaf_vector":"1"}},{"base_weights":[9.497939E-3,6.363073E-2,-7.17546E-2,3.705508E-2,2.8699782E-1,-1.4713043E-2,-2.2759286E-1,1.922392E-1,9.9843E-3,2.4841368E-1,8.168239E-1,-9.80676E-2,8.382951E-2,-3.731695E-1,-8.5669704E-2,1.1322116E-2,2.7290978E-3,-3.3101542E-3,2.2467116E-3,9.012711E-3,4.762273E-2,4.790761E-2,-3.5903093E-3,1.0050228E-4,-8.229897E-3,-7.074021E-3,6.042924E-3,-1.608899E-2,2.5979003E-2,-3.4127783E-4,-1.6127553E-2],"categories":[],"categories_nodes":[],"categories_segments":[],"categories_sizes":[],"default_left":[0,0,0,0,0,0,0,0,0,0,0,0,0,0,0,0,0,0,0,0,0,0,0,0,0,0,0,0,0,0,0],"id":42,"left_children":[1,3,5,7,9,11,13,15,17,19,21,23,25,27,29,-1,-1,-1,-1,-1,-1,-1,-1,-1,-1,-1,-1,-1,-1,-1,-1],"loss_changes":[5.8574764E1,4.7136845E1,4.702339E1,2.9859943E1,1.562558E1,3.2082893E1,2.878643E1,1.1499817E1,2.6126106E1,1.5075535E1,2.0204666E1,2.3168905E1,3.1323235E1,2.1236946E1,1.737113E1,0E0,0E0,0E0,0E0,0E0,0E0,0E0,0E0,0E0,0E0,0E0,0E0,0E0,0E0,0E0,0E0],"parents":[2147483647,0,0,1,1,2,2,3,3,4,4,5,5,6,6,7,7,8,8,9,9,10,10,11,11,12,12,13,13,14,14],"right_children":[2,4,6,8,10,12,14,16,18,20,22,24,26,28,30,-1,-1,-1,-1,-1,-1,-1,-1,-1,-1,-1,-1,-1,-1,-1,-1],"split_conditions":[1.9929167E0,1.7853333E1,7.917961E-1,7.640625E-1,9.335227E-1,1.6947368E0,1.6956667E1,1.0465887E0,1.2695833E1,1.9828302E0,2.083814E1,2.61E0,7.9691255E-1,1.2581627E-1,3.38E0,1.1322116E-2,2.7290978E-3,-3.3101542E-3,2.2467116E-3,9.012711E-3,4.762273E-2,4.790761E-2,-3.5903093E-3,1.0050228E-4,-8.229897E-3,-7.074021E-3,6.042924E-3,-1.608899E-2,2.5979003E-2,-3.4127783E-4,-1.6127553E-2],"split_indices":[0,5,8,0,6,3,5,8,5,0,4,0,6,13,0,0,0,0,0,0,0,0,0,0,0,0,0,0,0,0,0],"split_type":[0,0,0,0,0,0,0,0,0,0,0,0,0,0,0,0,0,0,0,0,0,0,0,0,0,0,0,0,0,0,0],"sum_hessian":[1.3312942E4,7.9976406E3,5.315302E3,7.154403E3,8.4323804E2,3.8981575E3,1.4171443E3,1.0544559E3,6.099947E3,7.918651E2,5.1372902E1,2.117328E3,1.7808296E3,6.936764E2,7.234679E2,6.018272E2,4.5262875E2,2.0198949E3,4.080052E3,7.775824E2,1.4282743E1,3.6273624E1,1.5099279E1,1.0914675E3,1.0258602E3,3.6112238E2,1.4197073E3,6.772328E2,1.644356E1,5.8707465E2,1.3639326E2],"tree_param":{"num_deleted":"0","num_feature":"14","num_nodes":"31","size_leaf_vector":"1"}},{"base_weights":[-3.2271917E-3,2.9813529E-3,-7.801915E-1,1.20940275E-1,-2.3316747E-2,5.4161154E-2,-1.0419787E0,7.9846695E-2,2.9074422E-1,-1.6946743E-1,-2.560737E-3,-1.6237972E-2,1.7989289E-2,-1.1299114E0,-1.22791E-2,8.800506E-3,1.3978749E-3,1.4109025E-2,1.9354315E-3,-2.2295883E-3,-1.0093584E-2,1.6018712E-3,-3.0758732E-3,-3.6662016E-2,-6.653214E-2],"categories":[],"categories_nodes":[],"categories_segments":[],"categories_sizes":[],"default_left":[0,0,0,0,0,0,0,0,0,0,0,0,0,0,0,0,0,0,0,0,0,0,0,0,0],"id":43,"left_children":[1,3,5,7,9,11,13,15,17,19,21,-1,-1,23,-1,-1,-1,-1,-1,-1,-1,-1,-1,-1,-1],"loss_changes":[6.522453E1,4.1223106E1,2.4569672E1,1.6472225E1,3.269125E1,5.6037736E0,2.8642578E0,1.20592575E1,6.5536613E0,1.2290623E1,3.0121387E1,0E0,0E0,9.819336E-1,0E0,0E0,0E0,0E0,0E0,0E0,0E0,0E0,0E0,0E0,0E0],"parents":[2147483647,0,0,1,1,2,2,3,3,4,4,5,5,6,6,7,7,8,8,9,9,10,10,13,13],"right_children":[2,4,6,8,10,12,14,16,18,20,22,-1,-1,24,-1,-1,-1,-1,-1,-1,-1,-1,-1,-1,-1],"split_conditions":[4.35E0,1.0285715E0,4.7140452E-1,1.4223333E1,1.253E1,2.1371088E1,9.4527364E-1,6.7250955E-1,9.677419E-2,1.3173077E0,2.3107407E0,-1.6237972E-2,1.7989289E-2,9.293042E-1,-1.22791E-2,8.800506E-3,1.3978749E-3,1.4109025E-2,1.9354315E-3,-2.2295883E-3,-1.0093584E-2,1.6018712E-3,-3.0758732E-3,-3.6662016E-2,-6.653214E-2],"split_indices":[0,0,8,5,5,4,6,6,9,0,0,0,0,6,0,0,0,0,0,0,0,0,0,0,0],"split_type":[0,0,0,0,0,0,0,0,0,0,0,0,0,0,0,0,0,0,0,0,0,0,0,0,0],"sum_hessian":[1.3355786E4,1.3251597E4,1.04189064E2,2.4207341E3,1.0830863E4,2.4539062E1,7.965E1,1.9573446E3,4.6338947E2,1.3382289E3,9.492634E3,1.0139063E1,1.44E1,6.8484375E1,1.1165625E1,4.6663992E2,1.4907046E3,3.646425E2,9.874696E1,5.7130115E2,7.669277E2,6.026393E3,3.4662407E3,5.608125E1,1.2403125E1],"tree_param":{"num_deleted":"0","num_feature":"14","num_nodes":"25","size_leaf_vector":"1"}},{"base_weights":[-2.8457083E-3,1.5333376E-3,-1.1010084E0,5.3091098E-2,-6.824751E-2,-1.2755294E0,-8.940368E-3,4.343509E-2,4.375916E-1,-1.3617806E-1,8.12064E-2,-2.7162693E-2,-6.054782E-2,1.8486216E-4,4.581298E-3,2.1547645E-2,-6.7091295E-3,-3.551771E-3,-1.423648E-2,2.7828686E-5,9.727224E-3],"categories":[],"categories_nodes":[],"categories_segments":[],"categories_sizes":[],"default_left":[0,0,0,0,0,0,0,0,0,0,0,0,0,0,0,0,0,0,0,0,0],"id":44,"left_children":[1,3,5,7,9,11,-1,13,15,17,19,-1,-1,-1,-1,-1,-1,-1,-1,-1,-1],"loss_changes":[6.532048E1,4.785507E1,5.9074554E0,2.7902092E1,5.7403557E1,8.903656E-1,0E0,2.0516083E1,1.1950714E1,3.993152E1,2.2725807E1,0E0,0E0,0E0,0E0,0E0,0E0,0E0,0E0,0E0,0E0],"parents":[2147483647,0,0,1,1,2,2,3,3,4,4,5,5,7,7,8,8,9,9,10,10],"right_children":[2,4,6,8,10,12,-1,14,16,18,20,-1,-1,-1,-1,-1,-1,-1,-1,-1,-1],"split_conditions":[4.725E0,1.9258333E0,3.0029411E1,9.117647E-1,8.809142E-1,1.3E0,-8.940368E-3,2.8708334E1,1E0,9.8491174E-1,3.922157E-2,-2.7162693E-2,-6.054782E-2,1.8486216E-4,4.581298E-3,2.1547645E-2,-6.7091295E-3,-3.551771E-3,-1.423648E-2,2.7828686E-5,9.727224E-3],"split_indices":[0,0,2,6,6,3,0,2,11,8,13,0,0,0,0,0,0,0,0,0,0],"split_type":[0,0,0,0,0,0,0,0,0,0,0,0,0,0,0,0,0,0,0,0,0],"sum_hessian":[1.3350549E4,1.3299601E4,5.0948437E1,7.657146E3,5.6424546E3,4.041094E1,1.05375E1,7.4753564E3,1.817899E2,3.8840251E3,1.7584293E3,1.6026562E1,2.4384375E1,4.8467017E3,2.6286548E3,1.574715E2,2.4318403E1,3.20225E3,6.8177515E2,1.180726E3,5.777034E2],"tree_param":{"num_deleted":"0","num_feature":"14","num_nodes":"21","size_leaf_vector":"1"}},{"base_weights":[5.474039E-3,1.1193896E-2,-4.611989E-1,3.6636826E-3,3.01371E-1,-7.683107E-1,-2.3000196E-1,-2.9415676E-2,6.265071E-2,3.9299038E-1,-4.700081E-1,-8.797568E-1,-9.048778E-3,4.9769413E-1,-4.6818295E-1,-2.8213374E-3,1.340443E-3,-3.1130814E-3,3.4419843E-3,1.9303253E-2,-1.4736518E-2,4.3692365E-3,-3.144368E-2,-1.7679969E-2,-4.4976845E-2,-0E0,3.7090123E-2,-3.008604E-2,9.685013E-3],"categories":[],"categories_nodes":[],"categories_segments":[],"categories_sizes":[],"default_left":[0,0,0,0,0,0,0,0,0,0,0,0,0,0,0,0,0,0,0,0,0,0,0,0,0,0,0,0,0],"id":45,"left_children":[1,3,5,7,9,11,13,15,17,19,21,23,-1,25,27,-1,-1,-1,-1,-1,-1,-1,-1,-1,-1,-1,-1,-1,-1],"loss_changes":[3.513232E1,2.8465216E1,9.781628E0,2.5095636E1,2.3776556E1,2.2403946E0,1.748468E1,2.1309223E1,1.5233213E1,2.0939476E1,7.380508E0,2.4663544E0,0E0,5.682758E0,1.6320087E1,0E0,0E0,0E0,0E0,0E0,0E0,0E0,0E0,0E0,0E0,0E0,0E0,0E0,0E0],"parents":[2147483647,0,0,1,1,2,2,3,3,4,4,5,5,6,6,7,7,8,8,9,9,10,10,11,11,13,13,14,14],"right_children":[2,4,6,8,10,12,14,16,18,20,22,24,-1,26,28,-1,-1,-1,-1,-1,-1,-1,-1,-1,-1,-1,-1,-1,-1],"split_conditions":[1E0,9.6669066E-1,8.041667E-1,2.8605263E1,3.75E-1,5.4603174E-2,8.399465E-1,7.817109E-3,1E0,1.1937714E-1,4.1935483E-1,1.4239767E0,-9.048778E-3,2E0,1.6666667E-1,-2.8213374E-3,1.340443E-3,-3.1130814E-3,3.4419843E-3,1.9303253E-2,-1.4736518E-2,4.3692365E-3,-3.144368E-2,-1.7679969E-2,-4.4976845E-2,-0E0,3.7090123E-2,-3.008604E-2,9.685013E-3],"split_indices":[9,6,6,2,7,13,6,13,10,13,9,3,0,10,7,0,0,0,0,0,0,0,0,0,0,0,0,0,0],"split_type":[0,0,0,0,0,0,0,0,0,0,0,0,0,0,0,0,0,0,0,0,0,0,0,0,0,0,0,0,0],"sum_hessian":[1.3321395E4,1.3165105E4,1.5628947E2,1.2838427E4,3.266783E2,6.2273384E1,9.401609E1,8.215694E3,4.622732E3,2.9447095E2,3.220735E1,4.8573906E1,1.3699479E1,2.1342579E1,7.2673515E1,4.978294E3,3.2374011E3,6.5295197E2,3.96978E3,2.6562766E2,2.8843287E1,1.09466505E1,2.1260702E1,2.1898907E1,2.6675E1,1.0720312E1,1.0622266E1,5.2797264E1,1.987625E1],"tree_param":{"num_deleted":"0","num_feature":"14","num_nodes":"29","size_leaf_vector":"1"}},{"base_weights":[5.9745775E-4,2.4493707E-2,-1.5855758E-1,7.0971576E-3,1.7506771E-1,-5.856321E-2,-3.706074E-1,7.255473E-2,-5.0733704E-2,2.1078187E-1,-4.3597183E-1,-1.3986303E-2,-7.721114E-1,-4.516498E-1,3.982076E-2,1.7370512E-3,7.7450327E-3,-4.1213675E-4,-8.371344E-3,4.8296335E-3,2.2509834E-2,-2.8782606E-2,-0E0,-1.9381959E-2,1.8412628E-3,-5.1621817E-2,-1.1178338E-2,-1.5908284E-2,-5.1497187E-2,-4.094096E-3,2.7118022E-2],"categories":[],"categories_nodes":[],"categories_segments":[],"categories_sizes":[],"default_left":[0,0,0,0,0,0,0,0,0,0,0,0,0,0,0,0,0,0,0,0,0,0,0,0,0,0,0,0,0,0,0],"id":46,"left_children":[1,3,5,7,9,11,13,15,17,19,21,23,25,27,29,-1,-1,-1,-1,-1,-1,-1,-1,-1,-1,-1,-1,-1,-1,-1,-1],"loss_changes":[5.0583363E1,3.0199856E1,3.6302746E1,3.9430695E1,2.6135632E1,3.690741E1,1.8837769E1,1.69873E1,3.5154446E1,3.5015E1,8.220527E0,3.2156284E1,1.4808895E1,1.767707E1,9.112485E0,0E0,0E0,0E0,0E0,0E0,0E0,0E0,0E0,0E0,0E0,0E0,0E0,0E0,0E0,0E0,0E0],"parents":[2147483647,0,0,1,1,2,2,3,3,4,4,5,5,6,6,7,7,8,8,9,9,10,10,11,11,12,12,13,13,14,14],"right_children":[2,4,6,8,10,12,14,16,18,20,22,24,26,28,30,-1,-1,-1,-1,-1,-1,-1,-1,-1,-1,-1,-1,-1,-1,-1,-1],"split_conditions":[2.868793E0,8.809142E-1,6.9710267E-1,1.4664706E0,5.7894737E-1,1.1937714E-1,9.491342E-1,1.5233334E1,9.491188E-1,2.5611112E0,2.5505358E-2,-8.6039625E-2,1.3066894E-1,9.364916E-1,8.387032E-2,1.7370512E-3,7.7450327E-3,-4.1213675E-4,-8.371344E-3,4.8296335E-3,2.2509834E-2,-2.8782606E-2,-0E0,-1.9381959E-2,1.8412628E-3,-5.1621817E-2,-1.1178338E-2,-1.5908284E-2,-5.1497187E-2,-4.094096E-3,2.7118022E-2],"split_indices":[0,6,8,0,9,13,6,5,8,0,13,13,13,6,13,0,0,0,0,0,0,0,0,0,0,0,0,0,0,0,0],"split_type":[0,0,0,0,0,0,0,0,0,0,0,0,0,0,0,0,0,0,0,0,0,0,0,0,0,0,0,0,0,0,0],"sum_hessian":[1.3329368E4,1.1596969E4,1.7323993E3,1.0404651E4,1.1923175E3,1.1830593E3,5.4933997E2,4.888259E3,5.5163926E3,1.1298798E3,6.2437767E1,1.1176948E3,6.536457E1,4.605381E2,8.880186E1,3.950214E3,9.3804486E2,4.403102E3,1.1132906E3,9.0518225E2,2.2469748E2,3.689844E1,2.5539326E1,1.2591504E2,9.917797E2,2.8492476E1,3.6872093E1,4.3789932E2,2.2638765E1,7.340027E1,1.5401592E1],"tree_param":{"num_deleted":"0","num_feature":"14","num_nodes":"31","size_leaf_vector":"1"}},{"base_weights":[1.2805842E-2,1.8178463E-2,-6.3530785E-1,1.03590965E-1,-1.5759919E-2,1.0036388E-2,-7.60652E-1,7.8430444E-2,2.7673185E-1,-1.4035806E-1,1.6665624E-2,-9.611472E-1,-2.3321222E-1,1.0374007E-2,2.302515E-3,1.5127427E-2,4.940015E-3,-3.3990997E-3,-1.2981977E-2,3.214085E-3,-1.7113811E-3,-3.0219376E-2,-6.298876E-2,9.144439E-3,-2.0815033E-2],"categories":[],"categories_nodes":[],"categories_segments":[],"categories_sizes":[],"default_left":[0,0,0,0,0,0,0,0,0,0,0,0,0,0,0,0,0,0,0,0,0,0,0,0,0],"id":47,"left_children":[1,3,5,7,9,-1,11,13,15,17,19,21,23,-1,-1,-1,-1,-1,-1,-1,-1,-1,-1,-1,-1],"loss_changes":[4.6055798E1,3.8611965E1,1.3153645E1,1.6078716E1,3.85276E1,0E0,8.384243E0,1.21576E1,6.731827E0,1.9595112E1,2.8586412E1,2.6693916E0,4.8970175E0,0E0,0E0,0E0,0E0,0E0,0E0,0E0,0E0,0E0,0E0,0E0,0E0],"parents":[2147483647,0,0,1,1,2,2,3,3,4,4,6,6,7,7,8,8,9,9,10,10,11,11,12,12],"right_children":[2,4,6,8,10,-1,12,14,16,18,20,22,24,-1,-1,-1,-1,-1,-1,-1,-1,-1,-1,-1,-1],"split_conditions":[4.35E0,1.2716666E0,4.472136E-1,8.091562E-1,1.4316667E1,1.0036388E-2,2E-1,3.4333333E-1,1.0764285E0,1.9366666E0,2.2060466E0,1.01992145E-1,3E-1,1.0374007E-2,2.302515E-3,1.5127427E-2,4.940015E-3,-3.3990997E-3,-1.2981977E-2,3.214085E-3,-1.7113811E-3,-3.0219376E-2,-6.298876E-2,9.144439E-3,-2.0815033E-2],"split_indices":[0,0,8,6,4,0,7,0,0,0,0,13,7,0,0,0,0,0,0,0,0,0,0,0,0],"split_type":[0,0,0,0,0,0,0,0,0,0,0,0,0,0,0,0,0,0,0,0,0,0,0,0,0],"sum_hessian":[1.339084E4,1.328517E4,1.0567031E2,3.7843726E3,9.500798E3,1.1732813E1,9.39375E1,3.3130593E3,4.7131317E2,1.9662302E3,7.5345674E3,6.490312E1,2.9034374E1,3.3411438E2,2.9789448E3,2.769895E2,1.9432368E2,1.519252E3,4.4697827E2,3.6452874E3,3.88928E3,5.484375E1,1.0059375E1,1.003125E1,1.9003124E1],"tree_param":{"num_deleted":"0","num_feature":"14","num_nodes":"25","size_leaf_vector":"1"}},{"base_weights":[-3.0763093E-3,4.3099993E-3,-4.5567048E-1,1.115674E-1,-2.3357814E-2,4.75735E-2,-5.6960726E-1,8.3770454E-2,3.1687444E-1,-9.670932E-2,2.0339282E-2,4.1244847E-1,-2.2741526E-2,-4.113096E-1,-8.674231E-1,1.1678317E-2,2.1578183E-3,9.25105E-3,2.276508E-2,-4.6406663E-3,8.6346315E-3,-1.7683719E-3,3.422081E-3,-0E0,3.0488282E-2,-9.763351E-3,-3.0468782E-2,-1.3717285E-2,-4.4889636E-2],"categories":[],"categories_nodes":[],"categories_segments":[],"categories_sizes":[],"default_left":[0,0,0,0,0,0,0,0,0,0,0,0,0,0,0,0,0,0,0,0,0,0,0,0,0,0,0,0,0],"id":48,"left_children":[1,3,5,7,9,11,13,15,17,19,21,23,-1,25,27,-1,-1,-1,-1,-1,-1,-1,-1,-1,-1,-1,-1,-1,-1],"loss_changes":[4.4941437E1,3.8952858E1,1.2981396E1,1.4888126E1,3.342915E1,9.764691E0,6.0366936E0,1.4385893E1,5.6226807E0,2.3469952E1,2.7471676E1,3.8304467E0,0E0,5.7049522E0,4.9763756E0,0E0,0E0,0E0,0E0,0E0,0E0,0E0,0E0,0E0,0E0,0E0,0E0,0E0,0E0],"parents":[2147483647,0,0,1,1,2,2,3,3,4,4,5,5,6,6,7,7,8,8,9,9,10,10,11,11,13,13,14,14],"right_children":[2,4,6,8,10,12,14,16,18,20,22,24,-1,26,28,-1,-1,-1,-1,-1,-1,-1,-1,-1,-1,-1,-1,-1,-1],"split_conditions":[8.333333E-1,1.0875E0,5.052956E-1,8.0498725E-1,1.5844156E0,3.01E1,4.033158E0,6.3497806E-1,2.9806452E1,9.417892E-1,1E0,2.8052631E1,-2.2741526E-2,9.027316E-1,1.3921568E0,1.1678317E-2,2.1578183E-3,9.25105E-3,2.276508E-2,-4.6406663E-3,8.6346315E-3,-1.7683719E-3,3.422081E-3,-0E0,3.0488282E-2,-9.763351E-3,-3.0468782E-2,-1.3717285E-2,-4.4889636E-2],"split_indices":[9,0,8,6,3,2,0,6,2,6,1,2,0,6,3,0,0,0,0,0,0,0,0,0,0,0,0,0,0],"split_type":[0,0,0,0,0,0,0,0,0,0,0,0,0,0,0,0,0,0,0,0,0,0,0,0,0,0,0,0,0],"sum_hessian":[1.3303665E4,1.3090787E4,2.1287888E2,2.6899475E3,1.0400839E4,3.8001556E1,1.7487732E2,2.3771897E3,3.1275784E2,3.8900715E3,6.5107676E3,2.5509209E1,1.2492349E1,1.2104138E2,5.3835938E1,2.9037668E2,2.086813E3,2.4077068E2,7.1987175E1,3.6685557E3,2.2151599E2,3.2648252E3,3.2459424E3,1.3567972E1,1.1941237E1,8.731542E1,3.372596E1,2.11875E1,3.2648438E1],"tree_param":{"num_deleted":"0","num_feature":"14","num_nodes":"29","size_leaf_vector":"1"}},{"base_weights":[-8.007581E-3,1.7161582E-2,-1.8088983E-1,7.444121E-2,-2.0815073E-2,-6.366248E-2,-3.396845E-1,4.2189125E-2,2.2755674E-1,-1.84048E-1,2.0948317E-2,-1.7252888E-1,1.5972905E-1,-6.1663723E-1,-2.0654096E-1,9.114743E-3,9.7480376E-4,7.930341E-3,2.9433765E-2,-9.837615E-3,-1.1864963E-3,-6.52658E-3,1.987359E-3,-1.5790915E-2,-5.8596267E-4,8.708384E-3,-3.6605563E-2,-2.9261602E-2,-1.4332256E-2,-4.3279887E-3,-2.6821975E-2],"categories":[],"categories_nodes":[],"categories_segments":[],"categories_sizes":[],"default_left":[0,0,0,0,0,0,0,0,0,0,0,0,0,0,0,0,0,0,0,0,0,0,0,0,0,0,0,0,0,0,0],"id":49,"left_children":[1,3,5,7,9,11,13,15,17,19,21,23,25,27,29,-1,-1,-1,-1,-1,-1,-1,-1,-1,-1,-1,-1,-1,-1,-1,-1],"loss_changes":[5.8112103E1,2.533701E1,3.113042E1,2.2635609E1,4.7756527E1,2.402297E1,2.5219284E1,1.24534E1,1.05709E1,1.333931E1,2.9303177E1,2.2939947E1,1.990038E1,4.9125214E0,2.1403952E1,0E0,0E0,0E0,0E0,0E0,0E0,0E0,0E0,0E0,0E0,0E0,0E0,0E0,0E0,0E0,0E0],"parents":[2147483647,0,0,1,1,2,2,3,3,4,4,5,5,6,6,7,7,8,8,9,9,10,10,11,11,12,12,13,13,14,14],"right_children":[2,4,6,8,10,12,14,16,18,20,22,24,26,28,30,-1,-1,-1,-1,-1,-1,-1,-1,-1,-1,-1,-1,-1,-1,-1,-1],"split_conditions":[2.868793E0,1.4053571E0,6.3887656E-1,1.54E1,7.567278E-1,5.72846E-1,1.7356667E1,3.4333333E-1,2.4242425E-1,1.6346666E1,2.5241379E1,6.7391306E-1,1.0391744E0,1E-1,3E-1,9.114743E-3,9.7480376E-4,7.930341E-3,2.9433765E-2,-9.837615E-3,-1.1864963E-3,-6.52658E-3,1.987359E-3,-1.5790915E-2,-5.8596267E-4,8.708384E-3,-3.6605563E-2,-2.9261602E-2,-1.4332256E-2,-4.3279887E-3,-2.6821975E-2],"split_indices":[0,0,8,5,6,8,5,0,9,5,2,9,6,7,7,0,0,0,0,0,0,0,0,0,0,0,0,0,0,0,0],"split_type":[0,0,0,0,0,0,0,0,0,0,0,0,0,0,0,0,0,0,0,0,0,0,0,0,0,0,0,0,0,0,0],"sum_hessian":[1.3312341E4,1.1617864E4,1.6944757E3,4.6411455E3,6.976719E3,9.8086774E2,7.1360803E2,3.8421887E3,7.9895667E2,1.4241456E3,5.5525737E3,6.6294916E2,3.1791852E2,2.2570753E2,4.879005E2,3.2842468E2,3.513764E3,7.6121686E2,3.773977E1,1.01070337E3,4.134422E2,7.430336E2,4.80954E3,2.7084756E2,3.9210162E2,3.047997E2,1.3118799E1,1.4973888E2,7.596866E1,4.0740945E2,8.049104E1],"tree_param":{"num_deleted":"0","num_feature":"14","num_nodes":"31",